{"learner":{"attributes":{"best_iteration":"1259","best_score":"0.8930712802768166"},"feature_names":["p1_mean_hp","p1_mean_atk","p1_mean_def","p1_mean_spa","p1_mean_spe","p1_std_hp","p1_std_spe","p1_max_spe","p1_min_hp","p2_lead_hp","p2_lead_atk","p2_lead_def","p2_lead_spa","p2_lead_spe","p2_lead_bulk","p2_lead_special_bulk","p1_lead_hp","p1_lead_spe","p1_lead_spa","p1_lead_atk","speed_advantage","speed_advantage_binary","speed_tier","max_speed_edge","speed_tier_10","speed_tier_20","team_type_diversity","p1_lead_type_advantage","team_max_type_mult","turn1_p1_hp","turn1_p2_hp","turn1_hp_diff","first_move_power","first_move_priority","first_move_category","p1_moved_first","p1_moved_first_t3","p1_moved_first_t5","initiative_net_t5","turn3_hp_diff","turn3_p1_hp","turn3_p2_hp","turn5_hp_diff","turn5_p1_hp","turn5_p2_hp","turn10_hp_diff","turn10_p1_hp","turn10_p2_hp","p2_turns_par","p2_turns_slp","p2_turns_frz","p2_turns_psn","p2_turns_brn","p2_turns_tox","p1_turns_par","p1_turns_slp","p1_turns_frz","p1_turns_psn","p1_turns_brn","p1_stab_turns_t5","p1_stab_turns","p1_stab_share","p2_stab_lead_turns_t5","p2_stab_lead_turns","p1_damage_dealt_t5","p1_damage_dealt_t10","p1_damage_taken_t5","p1_damage_taken_t10","damage_diff_t5","damage_diff_t10","p2_turns_slp_t5","p2_turns_slp_t10","p1_turns_slp_t5","p1_turns_slp_t10","p2_turns_par_t5","p2_turns_par_t10","p1_turns_par_t5","p1_turns_par_t10","p2_turns_frz_t5","p2_turns_frz_t10","p1_turns_frz_t5","p1_turns_frz_t10","hp_ahead_share_t10","hp_ahead_share_t20","max_hp_diff","min_hp_diff","argmax_hp_diff","argmin_hp_diff","hp_diff_slope_1_5","hp_diff_slope_6_10","hp_diff_slope_11_20","hp_advantage_area_pos","hp_advantage_area_neg","hp_advantage_area_abs","p2_first_status_turn","p2_first_status_type_code","p1_immobilized_turns","p2_immobilized_turns","p2_pokemon_used","p1_faints","p2_faints","p1_share_status_moves","p2_share_status_moves","p1_priority_moves","p2_priority_moves","p1_mean_base_power","p2_mean_base_power","team_super_effective_count","team_has_any_2x","p1_lead_defensive_risk_max","p1_total_boosts_turn10","p2_total_boosts_turn10","p1_total_boosts_turn20","p2_total_boosts_turn20","p1_pokemon_used","momentum_turn5_15"],"feature_types":["float","float","float","float","float","float","float","int","int","int","int","int","int","int","float","float","int","int","int","int","int","int","int","int","int","int","int","float","float","float","float","float","int","int","int","int","int","int","int","float","float","float","float","float","float","float","float","float","int","int","int","int","int","int","int","int","int","int","int","int","int","float","int","int","float","float","float","float","float","float","int","int","int","int","int","int","int","int","int","int","int","int","float","float","float","float","int","int","float","float","float","float","float","float","int","int","int","int","int","int","int","float","float","int","int","float","float","int","int","float","int","int","int","int","int","float"],"gradient_booster":{"model":{"cats":{"enc":[],"feature_segments":[],"sorted_idx":[]},"gbtree_model_param":{"num_parallel_tree":"1","num_trees":"1360"},"iteration_indptr":[0,1,2,3,4,5,6,7,8,9,10,11,12,13,14,15,16,17,18,19,20,21,22,23,24,25,26,27,28,29,30,31,32,33,34,35,36,37,38,39,40,41,42,43,44,45,46,47,48,49,50,51,52,53,54,55,56,57,58,59,60,61,62,63,64,65,66,67,68,69,70,71,72,73,74,75,76,77,78,79,80,81,82,83,84,85,86,87,88,89,90,91,92,93,94,95,96,97,98,99,100,101,102,103,104,105,106,107,108,109,110,111,112,113,114,115,116,117,118,119,120,121,122,123,124,125,126,127,128,129,130,131,132,133,134,135,136,137,138,139,140,141,142,143,144,145,146,147,148,149,150,151,152,153,154,155,156,157,158,159,160,161,162,163,164,165,166,167,168,169,170,171,172,173,174,175,176,177,178,179,180,181,182,183,184,185,186,187,188,189,190,191,192,193,194,195,196,197,198,199,200,201,202,203,204,205,206,207,208,209,210,211,212,213,214,215,216,217,218,219,220,221,222,223,224,225,226,227,228,229,230,231,232,233,234,235,236,237,238,239,240,241,242,243,244,245,246,247,248,249,250,251,252,253,254,255,256,257,258,259,260,261,262,263,264,265,266,267,268,269,270,271,272,273,274,275,276,277,278,279,280,281,282,283,284,285,286,287,288,289,290,291,292,293,294,295,296,297,298,299,300,301,302,303,304,305,306,307,308,309,310,311,312,313,314,315,316,317,318,319,320,321,322,323,324,325,326,327,328,329,330,331,332,333,334,335,336,337,338,339,340,341,342,343,344,345,346,347,348,349,350,351,352,353,354,355,356,357,358,359,360,361,362,363,364,365,366,367,368,369,370,371,372,373,374,375,376,377,378,379,380,381,382,383,384,385,386,387,388,389,390,391,392,393,394,395,396,397,398,399,400,401,402,403,404,405,406,407,408,409,410,411,412,413,414,415,416,417,418,419,420,421,422,423,424,425,426,427,428,429,430,431,432,433,434,435,436,437,438,439,440,441,442,443,444,445,446,447,448,449,450,451,452,453,454,455,456,457,458,459,460,461,462,463,464,465,466,467,468,469,470,471,472,473,474,475,476,477,478,479,480,481,482,483,484,485,486,487,488,489,490,491,492,493,494,495,496,497,498,499,500,501,502,503,504,505,506,507,508,509,510,511,512,513,514,515,516,517,518,519,520,521,522,523,524,525,526,527,528,529,530,531,532,533,534,535,536,537,538,539,540,541,542,543,544,545,546,547,548,549,550,551,552,553,554,555,556,557,558,559,560,561,562,563,564,565,566,567,568,569,570,571,572,573,574,575,576,577,578,579,580,581,582,583,584,585,586,587,588,589,590,591,592,593,594,595,596,597,598,599,600,601,602,603,604,605,606,607,608,609,610,611,612,613,614,615,616,617,618,619,620,621,622,623,624,625,626,627,628,629,630,631,632,633,634,635,636,637,638,639,640,641,642,643,644,645,646,647,648,649,650,651,652,653,654,655,656,657,658,659,660,661,662,663,664,665,666,667,668,669,670,671,672,673,674,675,676,677,678,679,680,681,682,683,684,685,686,687,688,689,690,691,692,693,694,695,696,697,698,699,700,701,702,703,704,705,706,707,708,709,710,711,712,713,714,715,716,717,718,719,720,721,722,723,724,725,726,727,728,729,730,731,732,733,734,735,736,737,738,739,740,741,742,743,744,745,746,747,748,749,750,751,752,753,754,755,756,757,758,759,760,761,762,763,764,765,766,767,768,769,770,771,772,773,774,775,776,777,778,779,780,781,782,783,784,785,786,787,788,789,790,791,792,793,794,795,796,797,798,799,800,801,802,803,804,805,806,807,808,809,810,811,812,813,814,815,816,817,818,819,820,821,822,823,824,825,826,827,828,829,830,831,832,833,834,835,836,837,838,839,840,841,842,843,844,845,846,847,848,849,850,851,852,853,854,855,856,857,858,859,860,861,862,863,864,865,866,867,868,869,870,871,872,873,874,875,876,877,878,879,880,881,882,883,884,885,886,887,888,889,890,891,892,893,894,895,896,897,898,899,900,901,902,903,904,905,906,907,908,909,910,911,912,913,914,915,916,917,918,919,920,921,922,923,924,925,926,927,928,929,930,931,932,933,934,935,936,937,938,939,940,941,942,943,944,945,946,947,948,949,950,951,952,953,954,955,956,957,958,959,960,961,962,963,964,965,966,967,968,969,970,971,972,973,974,975,976,977,978,979,980,981,982,983,984,985,986,987,988,989,990,991,992,993,994,995,996,997,998,999,1000,1001,1002,1003,1004,1005,1006,1007,1008,1009,1010,1011,1012,1013,1014,1015,1016,1017,1018,1019,1020,1021,1022,1023,1024,1025,1026,1027,1028,1029,1030,1031,1032,1033,1034,1035,1036,1037,1038,1039,1040,1041,1042,1043,1044,1045,1046,1047,1048,1049,1050,1051,1052,1053,1054,1055,1056,1057,1058,1059,1060,1061,1062,1063,1064,1065,1066,1067,1068,1069,1070,1071,1072,1073,1074,1075,1076,1077,1078,1079,1080,1081,1082,1083,1084,1085,1086,1087,1088,1089,1090,1091,1092,1093,1094,1095,1096,1097,1098,1099,1100,1101,1102,1103,1104,1105,1106,1107,1108,1109,1110,1111,1112,1113,1114,1115,1116,1117,1118,1119,1120,1121,1122,1123,1124,1125,1126,1127,1128,1129,1130,1131,1132,1133,1134,1135,1136,1137,1138,1139,1140,1141,1142,1143,1144,1145,1146,1147,1148,1149,1150,1151,1152,1153,1154,1155,1156,1157,1158,1159,1160,1161,1162,1163,1164,1165,1166,1167,1168,1169,1170,1171,1172,1173,1174,1175,1176,1177,1178,1179,1180,1181,1182,1183,1184,1185,1186,1187,1188,1189,1190,1191,1192,1193,1194,1195,1196,1197,1198,1199,1200,1201,1202,1203,1204,1205,1206,1207,1208,1209,1210,1211,1212,1213,1214,1215,1216,1217,1218,1219,1220,1221,1222,1223,1224,1225,1226,1227,1228,1229,1230,1231,1232,1233,1234,1235,1236,1237,1238,1239,1240,1241,1242,1243,1244,1245,1246,1247,1248,1249,1250,1251,1252,1253,1254,1255,1256,1257,1258,1259,1260,1261,1262,1263,1264,1265,1266,1267,1268,1269,1270,1271,1272,1273,1274,1275,1276,1277,1278,1279,1280,1281,1282,1283,1284,1285,1286,1287,1288,1289,1290,1291,1292,1293,1294,1295,1296,1297,1298,1299,1300,1301,1302,1303,1304,1305,1306,1307,1308,1309,1310,1311,1312,1313,1314,1315,1316,1317,1318,1319,1320,1321,1322,1323,1324,1325,1326,1327,1328,1329,1330,1331,1332,1333,1334,1335,1336,1337,1338,1339,1340,1341,1342,1343,1344,1345,1346,1347,1348,1349,1350,1351,1352,1353,1354,1355,1356,1357,1358,1359,1360],"tree_info":[0,0,0,0,0,0,0,0,0,0,0,0,0,0,0,0,0,0,0,0,0,0,0,0,0,0,0,0,0,0,0,0,0,0,0,0,0,0,0,0,0,0,0,0,0,0,0,0,0,0,0,0,0,0,0,0,0,0,0,0,0,0,0,0,0,0,0,0,0,0,0,0,0,0,0,0,0,0,0,0,0,0,0,0,0,0,0,0,0,0,0,0,0,0,0,0,0,0,0,0,0,0,0,0,0,0,0,0,0,0,0,0,0,0,0,0,0,0,0,0,0,0,0,0,0,0,0,0,0,0,0,0,0,0,0,0,0,0,0,0,0,0,0,0,0,0,0,0,0,0,0,0,0,0,0,0,0,0,0,0,0,0,0,0,0,0,0,0,0,0,0,0,0,0,0,0,0,0,0,0,0,0,0,0,0,0,0,0,0,0,0,0,0,0,0,0,0,0,0,0,0,0,0,0,0,0,0,0,0,0,0,0,0,0,0,0,0,0,0,0,0,0,0,0,0,0,0,0,0,0,0,0,0,0,0,0,0,0,0,0,0,0,0,0,0,0,0,0,0,0,0,0,0,0,0,0,0,0,0,0,0,0,0,0,0,0,0,0,0,0,0,0,0,0,0,0,0,0,0,0,0,0,0,0,0,0,0,0,0,0,0,0,0,0,0,0,0,0,0,0,0,0,0,0,0,0,0,0,0,0,0,0,0,0,0,0,0,0,0,0,0,0,0,0,0,0,0,0,0,0,0,0,0,0,0,0,0,0,0,0,0,0,0,0,0,0,0,0,0,0,0,0,0,0,0,0,0,0,0,0,0,0,0,0,0,0,0,0,0,0,0,0,0,0,0,0,0,0,0,0,0,0,0,0,0,0,0,0,0,0,0,0,0,0,0,0,0,0,0,0,0,0,0,0,0,0,0,0,0,0,0,0,0,0,0,0,0,0,0,0,0,0,0,0,0,0,0,0,0,0,0,0,0,0,0,0,0,0,0,0,0,0,0,0,0,0,0,0,0,0,0,0,0,0,0,0,0,0,0,0,0,0,0,0,0,0,0,0,0,0,0,0,0,0,0,0,0,0,0,0,0,0,0,0,0,0,0,0,0,0,0,0,0,0,0,0,0,0,0,0,0,0,0,0,0,0,0,0,0,0,0,0,0,0,0,0,0,0,0,0,0,0,0,0,0,0,0,0,0,0,0,0,0,0,0,0,0,0,0,0,0,0,0,0,0,0,0,0,0,0,0,0,0,0,0,0,0,0,0,0,0,0,0,0,0,0,0,0,0,0,0,0,0,0,0,0,0,0,0,0,0,0,0,0,0,0,0,0,0,0,0,0,0,0,0,0,0,0,0,0,0,0,0,0,0,0,0,0,0,0,0,0,0,0,0,0,0,0,0,0,0,0,0,0,0,0,0,0,0,0,0,0,0,0,0,0,0,0,0,0,0,0,0,0,0,0,0,0,0,0,0,0,0,0,0,0,0,0,0,0,0,0,0,0,0,0,0,0,0,0,0,0,0,0,0,0,0,0,0,0,0,0,0,0,0,0,0,0,0,0,0,0,0,0,0,0,0,0,0,0,0,0,0,0,0,0,0,0,0,0,0,0,0,0,0,0,0,0,0,0,0,0,0,0,0,0,0,0,0,0,0,0,0,0,0,0,0,0,0,0,0,0,0,0,0,0,0,0,0,0,0,0,0,0,0,0,0,0,0,0,0,0,0,0,0,0,0,0,0,0,0,0,0,0,0,0,0,0,0,0,0,0,0,0,0,0,0,0,0,0,0,0,0,0,0,0,0,0,0,0,0,0,0,0,0,0,0,0,0,0,0,0,0,0,0,0,0,0,0,0,0,0,0,0,0,0,0,0,0,0,0,0,0,0,0,0,0,0,0,0,0,0,0,0,0,0,0,0,0,0,0,0,0,0,0,0,0,0,0,0,0,0,0,0,0,0,0,0,0,0,0,0,0,0,0,0,0,0,0,0,0,0,0,0,0,0,0,0,0,0,0,0,0,0,0,0,0,0,0,0,0,0,0,0,0,0,0,0,0,0,0,0,0,0,0,0,0,0,0,0,0,0,0,0,0,0,0,0,0,0,0,0,0,0,0,0,0,0,0,0,0,0,0,0,0,0,0,0,0,0,0,0,0,0,0,0,0,0,0,0,0,0,0,0,0,0,0,0,0,0,0,0,0,0,0,0,0,0,0,0,0,0,0,0,0,0,0,0,0,0,0,0,0,0,0,0,0,0,0,0,0,0,0,0,0,0,0,0,0,0,0,0,0,0,0,0,0,0,0,0,0,0,0,0,0,0,0,0,0,0,0,0,0,0,0,0,0,0,0,0,0,0,0,0,0,0,0,0,0,0,0,0,0,0,0,0,0,0,0,0,0,0,0,0,0,0,0,0,0,0,0,0,0,0,0,0,0,0,0,0,0,0,0,0,0,0,0,0,0,0,0,0,0,0,0,0,0,0,0,0,0,0,0,0,0,0,0,0,0,0,0,0,0,0,0,0,0,0,0,0,0,0,0,0,0,0,0,0,0,0,0,0,0,0,0,0,0,0,0,0,0,0,0,0,0,0,0,0,0,0,0,0,0,0,0,0,0,0,0,0,0,0,0,0,0,0,0,0,0,0,0,0,0,0,0,0,0,0,0,0,0,0,0,0,0,0,0,0,0,0,0,0,0,0,0,0,0,0,0,0,0,0,0,0,0,0,0,0,0,0,0,0,0,0,0,0,0,0,0,0,0,0,0,0,0,0,0,0,0,0,0,0,0,0,0,0,0,0,0,0,0,0,0,0,0,0,0,0,0,0,0,0,0,0,0,0,0,0,0,0,0,0,0,0,0,0,0,0,0,0,0,0,0,0,0,0,0,0,0,0,0,0,0,0,0,0,0,0,0,0,0,0,0,0,0,0,0,0,0,0,0,0,0,0,0,0,0,0,0,0,0,0,0,0,0,0,0,0,0,0,0,0,0,0,0,0,0,0,0,0,0,0,0,0,0,0,0,0,0,0,0,0,0,0,0,0,0,0,0,0,0,0,0,0,0,0,0,0,0,0],"trees":[{"base_weights":[-0E0,-6.515174E-1,8.009019E-1,-1.0625851E0,-0E0,-1.7879805E-1,1.0180594E0,-1.118218E0,-0E0,-5.004221E-1,4.4863608E-1,-6.149704E-1,8.986609E-3,1.151502E0,1.558279E-1,-1.1817944E0,-0E0,-0E0,-6.308243E-1,5.793263E-1,-2.457462E-3,-7.877499E-1,-0E0,1.8945433E-2,7.6706564E-1,-0E0,9.9208215E-3,-1.2461481E0,-0E0,-6.635549E-2,-1.2901666E-2,7.759938E-1,-8.669186E-4,-0E0,-1.33136315E-2,2.404222E-1,1.299375E-2,3.3094403E-3,-2.8226313E-1,-9.168085E-3,-1.9030988E-2,-2.6514134E-3,-0E0,-4.2269686E-3,9.848982E-4,1.2303978E-2,1.0351612E-3,-0E0,7.1359463E-3,-0E0,-7.5411717E-3],"categories":[],"categories_nodes":[],"categories_segments":[],"categories_sizes":[],"default_left":[0,0,0,0,0,0,0,0,0,0,0,0,0,0,0,0,0,0,0,0,0,0,0,0,0,0,0,0,0,0,0,0,0,0,0,0,0,0,0,0,0,0,0,0,0,0,0,0,0,0,0],"id":0,"left_children":[1,3,5,7,9,11,13,15,-1,17,19,21,-1,23,25,27,-1,-1,29,31,-1,33,-1,-1,35,37,-1,39,41,43,-1,45,-1,-1,-1,47,-1,-1,49,-1,-1,-1,-1,-1,-1,-1,-1,-1,-1,-1,-1],"loss_changes":[8.7023724E2,2.3825677E2,1.6787195E2,2.8904419E1,8.2410645E1,4.7804302E1,5.92771E1,4.141797E1,0E0,1.645523E1,1.9120396E1,6.0663567E0,0E0,2.0150269E1,1.04207E1,2.6747375E1,0E0,0E0,1.650082E1,2.7614597E1,0E0,4.0757294E0,0E0,0E0,6.746475E0,5.2154922E0,0E0,1.1867859E1,6.4796257E-1,4.3269897E0,0E0,1.4806213E0,0E0,0E0,0E0,6.1098294E0,0E0,0E0,2.6804233E0,0E0,0E0,0E0,0E0,0E0,0E0,0E0,0E0,0E0,0E0,0E0,0E0],"parents":[2147483647,0,0,1,1,2,2,3,3,4,4,5,5,6,6,7,7,9,9,10,10,11,11,13,13,14,14,15,15,18,18,19,19,21,21,24,24,25,25,27,27,28,28,29,29,31,31,35,35,38,38],"right_children":[2,4,6,8,10,12,14,16,-1,18,20,22,-1,24,26,28,-1,-1,30,32,-1,34,-1,-1,36,38,-1,40,42,44,-1,46,-1,-1,-1,48,-1,-1,50,-1,-1,-1,-1,-1,-1,-1,-1,-1,-1,-1,-1],"split_conditions":[-4.57E0,6E0,5E0,1.8E1,-6.550359E0,-2.3E0,1E0,3E0,-0E0,7.25E1,1E0,3E0,8.986609E-3,1E0,1E0,1E0,-0E0,-0E0,3E0,5E0,-2.457462E-3,7.971429E1,-0E0,1.8945433E-2,-3.81E0,3E0,9.9208215E-3,1E0,-6.63E0,-7.137989E0,-1.2901666E-2,7.3E-1,-8.669186E-4,-0E0,-1.33136315E-2,6E0,1.299375E-2,3.3094403E-3,1E0,-9.168085E-3,-1.9030988E-2,-2.6514134E-3,-0E0,-4.2269686E-3,9.848982E-4,1.2303978E-2,1.0351612E-3,-0E0,7.1359463E-3,-0E0,-7.5411717E-3],"split_indices":[92,98,98,48,92,92,96,97,0,1,56,76,0,67,50,50,0,0,55,55,0,105,0,0,92,55,0,55,92,92,0,66,0,0,0,98,0,0,36,0,0,0,0,0,0,0,0,0,0,0,0],"split_type":[0,0,0,0,0,0,0,0,0,0,0,0,0,0,0,0,0,0,0,0,0,0,0,0,0,0,0,0,0,0,0,0,0,0,0,0,0,0,0,0,0,0,0,0,0,0,0,0,0,0,0],"sum_hessian":[1.661E3,9.1275E2,7.4825E2,5.525E2,3.6025E2,1.2825E2,6.2E2,5.2175E2,3.075E1,1.77E2,1.8325E2,9.15E1,3.675E1,5.27E2,9.3E1,4.965E2,2.525E1,2.525E1,1.5175E2,1.6375E2,1.95E1,6.45E1,2.7E1,3.225E2,2.045E2,7.05E1,2.25E1,4.635E2,3.3E1,6.375E1,8.8E1,1.3575E2,2.8E1,1.7E1,4.75E1,6.35E1,1.41E2,3.275E1,3.775E1,9.375E1,3.6975E2,1.525E1,1.775E1,4.65E1,1.725E1,1.06E2,2.975E1,2.825E1,3.525E1,2.025E1,1.75E1],"tree_param":{"num_deleted":"0","num_feature":"116","num_nodes":"51","size_leaf_vector":"1"}},{"base_weights":[-0E0,7.18438E-1,-8.570028E-1,-2.0143827E-2,9.993982E-1,-1.1758054E0,-3.3044457E-2,2.2891724E-1,-1.5127245E-2,1.258781E0,5.42094E-1,-1.215766E0,-0E0,2.5954098E-1,-5.384236E-1,5.8212394E-1,-4.702742E-1,-0E0,1.3185898E0,5.8880143E-2,8.8993955E-1,-1.2611498E0,-0E0,6.973113E-1,-7.4664694E-3,-1.1543812E-2,-0E0,1.4734661E-2,1.019223E-1,-1.044733E-2,-0E0,1.9265754E-2,2.8423917E-1,-1.0902396E-1,4.4040203E-1,3.7902087E-4,9.8165935E-1,-1.2895485E0,-1.9802589E-3,-0E0,8.0024004E-1,-0E0,-1.4378005E-3,5.679689E-3,-0E0,-0E0,6.555254E-3,-0E0,-4.985125E-3,-0E0,7.649736E-3,-0E0,1.5611521E-2,-1.8315097E-2,-6.063762E-4,-0E0,1.2518643E-2],"categories":[],"categories_nodes":[],"categories_segments":[],"categories_sizes":[],"default_left":[0,0,0,0,0,0,0,0,0,0,0,0,0,0,0,0,0,0,0,0,0,0,0,0,0,0,0,0,0,0,0,0,0,0,0,0,0,0,0,0,0,0,0,0,0,0,0,0,0,0,0,0,0,0,0,0,0],"id":1,"left_children":[1,3,5,7,9,11,13,15,-1,17,19,21,-1,23,25,27,29,-1,31,33,35,37,-1,39,-1,-1,41,-1,43,-1,-1,-1,45,47,49,-1,51,53,-1,-1,55,-1,-1,-1,-1,-1,-1,-1,-1,-1,-1,-1,-1,-1,-1,-1,-1],"loss_changes":[1.0343687E3,1.9755847E2,1.9106995E2,7.320787E1,6.0969788E1,2.1964966E1,3.6237553E1,4.944683E1,0E0,2.6431946E1,3.4749474E1,2.4977722E1,0E0,4.8815063E1,1.2196377E1,2.0678593E1,9.242127E0,0E0,9.380554E0,1.0966316E1,1.786583E0,2.5403442E0,0E0,4.786728E0,0E0,0E0,1.9851567E-1,0E0,5.035112E0,0E0,0E0,0E0,1.366513E0,4.87424E0,1.0133171E0,0E0,8.104866E0,2.1472778E0,0E0,0E0,4.4332886E-1,0E0,0E0,0E0,0E0,0E0,0E0,0E0,0E0,0E0,0E0,0E0,0E0,0E0,0E0,0E0,0E0],"parents":[2147483647,0,0,1,1,2,2,3,3,4,4,5,5,6,6,7,7,9,9,10,10,11,11,13,13,14,14,15,15,16,16,18,18,19,19,20,20,21,21,23,23,26,26,28,28,32,32,33,33,34,34,36,36,37,37,40,40],"right_children":[2,4,6,8,10,12,14,16,-1,18,20,22,-1,24,26,28,30,-1,32,34,36,38,-1,40,-1,-1,42,-1,44,-1,-1,-1,46,48,50,-1,52,54,-1,-1,56,-1,-1,-1,-1,-1,-1,-1,-1,-1,-1,-1,-1,-1,-1,-1,-1],"split_conditions":[5E0,-5.31E0,3E0,1E0,3E0,2E0,7E0,5E0,-1.5127245E-2,4E-1,7.9E-1,-3.1252387E0,-0E0,3E0,-5.56E0,3E0,6.462715E-1,-0E0,1E0,1E0,2.9965258E1,5.5727553E-1,-0E0,4.4728434E-1,-7.4664694E-3,-1.1543812E-2,2E0,1.4734661E-2,1E0,-1.044733E-2,-0E0,1.9265754E-2,1.8E1,1E0,1.3E1,3.7902087E-4,1E0,6.084191E0,-1.9802589E-3,-0E0,2E0,-0E0,-1.4378005E-3,5.679689E-3,-0E0,-0E0,6.555254E-3,-0E0,-4.985125E-3,-0E0,7.649736E-3,-0E0,1.5611521E-2,-1.8315097E-2,-6.063762E-4,-0E0,1.2518643E-2],"split_indices":[99,92,49,56,99,50,99,55,0,84,84,92,0,55,92,99,65,0,56,100,6,68,0,65,0,0,55,0,55,0,0,0,86,55,86,0,49,91,0,0,48,0,0,0,0,0,0,0,0,0,0,0,0,0,0,0,0],"split_type":[0,0,0,0,0,0,0,0,0,0,0,0,0,0,0,0,0,0,0,0,0,0,0,0,0,0,0,0,0,0,0,0,0,0,0,0,0,0,0,0,0,0,0,0,0,0,0,0,0,0,0,0,0,0,0,0,0],"sum_hessian":[1.6731674E3,9.0620233E2,7.6696497E2,2.4148868E2,6.647137E2,5.442235E2,2.2274147E2,1.9049167E2,5.0997E1,4.0847638E2,2.562373E2,5.23724E2,2.0499485E1,1.3049463E2,9.224685E1,1.3549527E2,5.4996395E1,2.1248915E1,3.8722748E2,1.19494316E2,1.3674298E2,5.0222498E2,2.149905E1,9.1746506E1,3.874812E1,5.5248024E1,3.6998825E1,5.6998165E1,7.849711E1,3.6497402E1,1.8498995E1,3.5572897E2,3.1498491E1,6.774682E1,5.17475E1,2.2998894E1,1.1374409E2,4.814759E2,2.0749088E1,1.52494335E1,7.649708E1,2.0999327E1,1.5999498E1,3.274945E1,4.5747654E1,1.54992285E1,1.5999264E1,2.5748869E1,4.1997948E1,1.5999235E1,3.574827E1,2.049897E1,9.3245125E1,4.6497653E2,1.6499338E1,1.5749392E1,6.0747684E1],"tree_param":{"num_deleted":"0","num_feature":"116","num_nodes":"57","size_leaf_vector":"1"}},{"base_weights":[-6.2736725E-3,-2.7753964E-1,9.799807E-1,-7.267467E-1,6.3925475E-1,-0E0,1.1625957E0,-2.7072245E-1,-1.0837388E0,8.510099E-1,8.7482736E-2,2.4036148E-1,-3.6782273E-3,-0E0,1.2070674E0,3.8173798E-1,-7.619571E-1,-0E0,-1.2524345E0,1.0803566E0,-0E0,7.3157877E-1,-3.832808E-1,6.2964377E-3,-0E0,1.9583823E-2,3.632026E-1,6.0056317E-1,-5.7571977E-3,-2.5644314E-1,-1.4611168E-2,-2.4444997E-1,3.5446042E-3,-1.2992237E0,-1.8386664E-3,1.1715438E0,-0E0,-6.1146807E-2,7.480158E-2,-0E0,1.3000124E-2,-9.726482E-3,-0E0,-0E0,9.652604E-3,1.1390224E-2,-0E0,-8.170401E-3,-0E0,-6.5672966E-3,-0E0,-1.8640928E-2,-3.7836417E-4,1.7158162E-2,1.2197396E-3,-0E0,-2.6363942E-3,-0E0,5.7440326E-3,7.6411315E-4,-2.6760895E-3],"categories":[],"categories_nodes":[],"categories_segments":[],"categories_sizes":[],"default_left":[0,0,0,0,0,0,0,0,0,0,0,0,0,0,0,0,0,0,0,0,0,0,0,0,0,0,0,0,0,0,0,0,0,0,0,0,0,0,0,0,0,0,0,0,0,0,0,0,0,0,0,0,0,0,0,0,0,0,0,0,0],"id":2,"left_children":[1,3,5,7,9,11,13,15,17,19,21,23,-1,-1,25,27,29,31,33,35,37,39,41,-1,-1,-1,43,45,-1,47,-1,49,-1,51,-1,53,-1,55,57,-1,-1,-1,59,-1,-1,-1,-1,-1,-1,-1,-1,-1,-1,-1,-1,-1,-1,-1,-1,-1,-1],"loss_changes":[4.39889E2,5.4377136E2,6.1601166E1,1.3191635E2,4.1198593E1,3.8903084E0,7.1664734E0,1.3431546E2,8.9027954E1,5.727301E1,4.4360878E1,1.7391231E0,0E0,0E0,2.922763E1,3.1607725E1,2.21949E1,4.416286E0,8.646179E0,2.144934E1,3.2258028E-1,7.0906143E0,6.614874E0,0E0,0E0,0E0,8.947696E0,2.0689445E1,0E0,1.2330591E1,0E0,1.8546581E0,0E0,6.663574E0,0E0,1.4697571E0,0E0,5.326345E-1,3.1837413E0,0E0,0E0,0E0,8.0578405E-1,0E0,0E0,0E0,0E0,0E0,0E0,0E0,0E0,0E0,0E0,0E0,0E0,0E0,0E0,0E0,0E0,0E0,0E0],"parents":[2147483647,0,0,1,1,2,2,3,3,4,4,5,5,6,6,7,7,8,8,9,9,10,10,11,11,14,14,15,15,16,16,17,17,18,18,19,19,20,20,21,21,22,22,26,26,27,27,29,29,31,31,33,33,35,35,37,37,38,38,42,42],"right_children":[2,4,6,8,10,12,14,16,18,20,22,24,-1,-1,26,28,30,32,34,36,38,40,42,-1,-1,-1,44,46,-1,48,-1,50,-1,52,-1,54,-1,56,58,-1,-1,-1,60,-1,-1,-1,-1,-1,-1,-1,-1,-1,-1,-1,-1,-1,-1,-1,-1,-1,-1],"split_conditions":[2E0,-4.18E0,-5.76E0,3E0,3E0,3E0,5E-2,5E0,3E0,5E0,3E0,5E0,-3.6782273E-3,-0E0,5E0,1E0,7E0,5.6373936E-1,1E0,1E0,9.90991E-1,5.6373936E-1,1E0,6.2964377E-3,-0E0,1.9583823E-2,4E0,6E0,-5.7571977E-3,7.8E-1,-1.4611168E-2,8.640497E-2,3.5446042E-3,5.2E-1,-1.8386664E-3,8.5833336E1,-0E0,5.882353E-2,9.1875E1,-0E0,1.3000124E-2,-9.726482E-3,6E0,-0E0,9.652604E-3,1.1390224E-2,-0E0,-8.170401E-3,-0E0,-6.5672966E-3,-0E0,-1.8640928E-2,-3.7836417E-4,1.7158162E-2,1.2197396E-3,-0E0,-2.6363942E-3,-0E0,5.7440326E-3,7.6411315E-4,-2.6760895E-3],"split_indices":[97,92,92,55,55,55,46,99,99,99,99,99,0,0,99,56,99,84,50,56,65,84,100,0,0,0,97,114,0,65,0,64,0,69,0,4,0,45,106,0,0,0,99,0,0,0,0,0,0,0,0,0,0,0,0,0,0,0,0,0,0],"split_type":[0,0,0,0,0,0,0,0,0,0,0,0,0,0,0,0,0,0,0,0,0,0,0,0,0,0,0,0,0,0,0,0,0,0,0,0,0,0,0,0,0,0,0,0,0,0,0,0,0,0,0,0,0,0,0,0,0,0,0,0,0],"sum_hessian":[1.6627229E3,1.3127799E3,3.4994293E2,8.8810187E2,4.2467813E2,5.6495796E1,2.9344714E2,4.0320157E2,4.8490027E2,2.9394598E2,1.3073213E2,3.224818E1,2.4247616E1,1.6498379E1,2.7694876E2,1.6548541E2,2.3771616E2,6.574138E1,4.191589E2,2.304504E2,6.3495605E1,6.273692E1,6.799521E1,1.5749343E1,1.6498837E1,2.1420401E2,6.2744762E1,1.3923875E2,2.6246649E1,9.923652E1,1.3847964E2,3.374497E1,3.1996405E1,3.9416083E2,2.4998072E1,2.1120177E2,1.9248621E1,3.0997545E1,3.249806E1,1.6997486E1,4.5739433E1,3.2248013E1,3.5747192E1,2.8748117E1,3.3996643E1,1.0499154E2,3.4247223E1,5.274182E1,4.6494698E1,1.549735E1,1.824762E1,3.7566354E2,1.8497286E1,1.9195558E2,1.9246191E1,1.5248682E1,1.5748863E1,1.5249094E1,1.7248966E1,1.824814E1,1.7499052E1],"tree_param":{"num_deleted":"0","num_feature":"116","num_nodes":"61","size_leaf_vector":"1"}},{"base_weights":[-0E0,-6.174375E-1,7.8157425E-1,-8.0812044E-2,-1.071898E0,1.056729E0,2.0329614E-1,2.1269505E-1,-8.284316E-1,-1.2243476E0,-7.7738054E-2,1.1124929E0,-0E0,-2.3733285E-1,8.72184E-1,-8.544085E-2,6.746079E-1,-9.420881E-1,-0E0,-1.9128397E-2,-6.89463E-1,-7.00362E-3,1.1905044E-3,2.5013158E-1,1.1869903E0,-4.62633E-1,1.2131453E-1,-0E0,1.0140338E0,-4.568455E-1,2.1826631E-1,9.289607E-1,-0E0,-0E0,-1.0904285E0,-0E0,-8.175338E-1,5.617803E-3,-8.6450914E-4,7.0742196E-3,-0E0,-0E0,1.6934667E-2,-6.1528945E-1,-0E0,-0E0,4.1521266E-3,1.6471403E-2,-0E0,-0E0,-1.0745181E-2,-0E0,5.4191933E-3,-0E0,1.4254109E-2,-0E0,-1.7320303E-2,-0E0,-1.33763505E-2,-0E0,-1.23166265E-2],"categories":[],"categories_nodes":[],"categories_segments":[],"categories_sizes":[],"default_left":[0,0,0,0,0,0,0,0,0,0,0,0,0,0,0,0,0,0,0,0,0,0,0,0,0,0,0,0,0,0,0,0,0,0,0,0,0,0,0,0,0,0,0,0,0,0,0,0,0,0,0,0,0,0,0,0,0,0,0,0,0],"id":3,"left_children":[1,3,5,7,9,11,13,15,17,19,21,23,-1,25,27,29,31,33,-1,-1,35,-1,37,39,41,43,45,-1,47,49,51,53,-1,-1,55,-1,57,-1,-1,-1,-1,-1,-1,59,-1,-1,-1,-1,-1,-1,-1,-1,-1,-1,-1,-1,-1,-1,-1,-1,-1],"loss_changes":[8.140324E2,2.183681E2,1.0673096E2,1.03228935E2,6.3566772E1,3.2587708E1,8.135944E1,4.8386593E1,1.1901772E1,1.2315186E1,7.1449814E0,1.6493774E1,0E0,1.5161861E1,7.298729E0,2.2695007E1,2.0947151E1,7.375572E0,0E0,0E0,9.325005E0,0E0,4.428079E0,4.467213E0,4.7402954E0,8.464426E0,1.5040584E0,0E0,7.734253E0,1.2908646E1,6.1092687E0,1.4276505E0,0E0,0E0,5.814392E0,0E0,4.735794E0,0E0,0E0,0E0,0E0,0E0,0E0,8.252283E0,0E0,0E0,0E0,0E0,0E0,0E0,0E0,0E0,0E0,0E0,0E0,0E0,0E0,0E0,0E0,0E0,0E0],"parents":[2147483647,0,0,1,1,2,2,3,3,4,4,5,5,6,6,7,7,8,8,9,9,10,10,11,11,13,13,14,14,15,15,16,16,17,17,20,20,22,22,23,23,24,24,25,25,26,26,28,28,29,29,30,30,31,31,34,34,36,36,43,43],"right_children":[2,4,6,8,10,12,14,16,18,20,22,24,-1,26,28,30,32,34,-1,-1,36,-1,38,40,42,44,46,-1,48,50,52,54,-1,-1,56,-1,58,-1,-1,-1,-1,-1,-1,60,-1,-1,-1,-1,-1,-1,-1,-1,-1,-1,-1,-1,-1,-1,-1,-1,-1],"split_conditions":[-4.529449E0,6E0,6E0,5E0,4E0,3E0,4E0,3E0,-5.11E0,-5.73E0,-6.66E0,5.089058E-1,-0E0,-2.86E0,7.96E1,-6.28E0,1.2E1,5E0,-0E0,-1.9128397E-2,-2.8107074E-1,-7.00362E-3,2E0,3E0,2E-2,2.9E-1,9.2123635E-2,-0E0,3E0,9E0,7.480769E1,-7.65E0,-0E0,-0E0,-4.4E-1,-0E0,1E0,5.617803E-3,-8.6450914E-4,7.0742196E-3,-0E0,-0E0,1.6934667E-2,2.5925925E-1,-0E0,-0E0,4.1521266E-3,1.6471403E-2,-0E0,-0E0,-1.0745181E-2,-0E0,5.4191933E-3,-0E0,1.4254109E-2,-0E0,-1.7320303E-2,-0E0,-1.33763505E-2,-0E0,-1.23166265E-2],"split_indices":[92,114,114,55,49,96,49,49,92,92,92,84,0,92,106,92,54,114,0,0,42,0,55,95,46,69,69,0,55,54,106,92,0,0,115,0,55,0,0,0,0,0,0,102,0,0,0,0,0,0,0,0,0,0,0,0,0,0,0,0,0],"split_type":[0,0,0,0,0,0,0,0,0,0,0,0,0,0,0,0,0,0,0,0,0,0,0,0,0,0,0,0,0,0,0,0,0,0,0,0,0,0,0,0,0,0,0,0,0,0,0,0,0,0,0,0,0,0,0,0,0,0,0,0,0],"sum_hessian":[1.6803883E3,9.366733E2,7.4371497E2,4.4012234E2,4.9655096E2,4.9178714E2,2.5192784E2,3.086798E2,1.3144252E2,4.2206616E2,7.448478E1,4.6979126E2,2.1995878E1,1.4471797E2,1.0720986E2,1.7695195E2,1.3172787E2,1.14446785E2,1.6995728E1,3.1409903E2,1.0796714E2,2.7492485E1,4.699229E1,4.798543E1,4.2180585E2,1.03980446E2,4.073753E1,2.149109E1,8.571877E1,9.246933E1,8.448262E1,9.248342E1,3.9244442E1,2.349234E1,9.0954445E1,1.7994236E1,8.997291E1,2.3997435E1,2.2994858E1,2.6990234E1,2.09952E1,1.5996316E1,4.058095E2,7.9986206E1,2.3994238E1,1.9245787E1,2.1491745E1,6.797309E1,1.7745682E1,3.9986137E1,5.2483192E1,1.9245884E1,6.523674E1,1.5247406E1,7.7236015E1,1.774203E1,7.321242E1,2.0246624E1,6.972628E1,3.1994034E1,4.7992172E1],"tree_param":{"num_deleted":"0","num_feature":"116","num_nodes":"61","size_leaf_vector":"1"}},{"base_weights":[-0E0,7.0421576E-1,-8.2680273E-1,-3.5901812E-1,9.9543583E-1,-1.3640537E0,-1.0608182E-1,-6.7411613E-1,6.2014216E-1,1.1289916E0,-2.1753113E-1,-1.979295E-2,-3.6644566E-1,-6.148536E-1,6.4894146E-1,-8.2505137E-1,-0E0,1.1075104E-2,-0E0,-0E0,1.1764556E0,-8.631857E-3,1.0340457E-3,-7.3581794E-3,-0E0,-9.2191327E-1,-0E0,9.5876473E-1,-0E0,-1.6447505E-1,-1.448114E-2,1.3060286E0,7.575635E-1,-1.0706766E-4,-1.500673E-2,-2.093209E-1,2.8295252E-3,-0E0,1.5287542E-2,-0E0,-2.38006E-3,-4.1637938E-3,-0E0,2.0557161E-2,1.3212527E-2,5.064396E-3,1.6843433E-2,-0E0,-7.681653E-3],"categories":[],"categories_nodes":[],"categories_segments":[],"categories_sizes":[],"default_left":[0,0,0,0,0,0,0,0,0,0,0,0,0,0,0,0,0,0,0,0,0,0,0,0,0,0,0,0,0,0,0,0,0,0,0,0,0,0,0,0,0,0,0,0,0,0,0,0,0],"id":4,"left_children":[1,3,5,7,9,11,13,15,17,19,21,-1,23,25,27,29,-1,-1,-1,-1,31,-1,-1,-1,-1,33,35,37,39,41,-1,43,45,-1,-1,47,-1,-1,-1,-1,-1,-1,-1,-1,-1,-1,-1,-1,-1],"loss_changes":[9.7736096E2,2.887721E2,2.8398553E2,6.0559578E1,1.259754E2,6.4712524E0,1.3078578E2,1.5704742E1,3.0577564E-1,3.8100708E1,1.2944335E1,0E0,4.7776842E-1,3.318895E1,3.2549156E1,6.269989E0,0E0,0E0,0E0,0E0,1.2984619E1,0E0,0E0,0E0,0E0,8.888908E0,3.5850334E0,8.624481E0,5.729187E-1,1.2952698E0,0E0,2.2541504E0,1.5206429E1,0E0,0E0,5.8385673E0,0E0,0E0,0E0,0E0,0E0,0E0,0E0,0E0,0E0,0E0,0E0,0E0,0E0],"parents":[2147483647,0,0,1,1,2,2,3,3,4,4,5,5,6,6,7,7,8,8,9,9,10,10,12,12,13,13,14,14,15,15,20,20,25,25,26,26,27,27,28,28,29,29,31,31,32,32,35,35],"right_children":[2,4,6,8,10,12,14,16,18,20,22,-1,24,26,28,30,-1,-1,-1,-1,32,-1,-1,-1,-1,34,36,38,40,42,-1,44,46,-1,-1,48,-1,-1,-1,-1,-1,-1,-1,-1,-1,-1,-1,-1,-1],"split_conditions":[5E0,5E0,6E0,-2.3E0,3E0,5E0,3E0,1.6E1,5.3571427E-1,-7.8237658E0,6E0,-1.979295E-2,9.75E1,-5.73E0,3E0,5E0,-0E0,1.1075104E-2,-0E0,-0E0,6E0,-8.631857E-3,1.0340457E-3,-7.3581794E-3,-0E0,6E0,-3.7279108E0,2.96E0,9.040248E-1,3.39E0,-1.448114E-2,3E0,1E0,-1.0706766E-4,-1.500673E-2,8E0,2.8295252E-3,-0E0,1.5287542E-2,-0E0,-2.38006E-3,-4.1637938E-3,-0E0,2.0557161E-2,1.3212527E-2,5.064396E-3,1.6843433E-2,-0E0,-7.681653E-3],"split_indices":[99,98,98,92,96,49,49,48,102,92,98,0,3,92,55,114,0,0,0,0,114,0,0,0,0,114,92,91,47,91,0,99,97,0,0,99,0,0,0,0,0,0,0,0,0,0,0,0,0],"split_type":[0,0,0,0,0,0,0,0,0,0,0,0,0,0,0,0,0,0,0,0,0,0,0,0,0,0,0,0,0,0,0,0,0,0,0,0,0,0,0,0,0,0,0,0,0,0,0,0,0],"sum_hessian":[1.6744728E3,9.0819666E2,7.662761E2,1.8842384E2,7.197728E2,4.3042734E2,3.3584875E2,1.5020367E2,3.8220173E1,6.553008E2,6.447202E1,3.9793628E2,3.249105E1,2.0813498E2,1.2771378E2,1.224602E2,2.7743477E1,2.2732157E1,1.5488015E1,2.4491505E1,6.3080927E2,3.8980904E1,2.5491121E1,1.5995814E1,1.6495237E1,1.3014954E2,7.798544E1,9.247601E1,3.523777E1,4.148933E1,8.097086E1,4.608977E2,1.6991158E2,2.7735409E1,1.0241412E2,5.573852E1,2.2246922E1,1.5247221E1,7.722879E1,1.8245085E1,1.6992683E1,2.5244696E1,1.6244635E1,2.9048636E2,1.7041136E2,1.03953926E2,6.595764E1,3.0744886E1,2.4993637E1],"tree_param":{"num_deleted":"0","num_feature":"116","num_nodes":"49","size_leaf_vector":"1"}},{"base_weights":[-0E0,4.601565E-1,-6.319167E-1,-0E0,1.0001693E0,-9.4384164E-1,1.9051401E-1,1.0715587E0,-7.271928E-1,1.3130558E0,-1.9598767E-1,-2.1671194E-1,-1.2660671E0,8.051062E-1,-4.5758435E-1,-0E0,1.6081234E-2,-9.8444045E-2,-1.0988157E0,6.358121E-3,1.9242335E-2,-8.164635E-3,-0E0,-1.4885658E-2,4.2450167E-2,-1.8147752E-2,-7.0346426E-4,-0E0,1.4840286E-2,-1.302174E-2,2.0593393E-3,-1.121341E-2,1.8185194E-1,-1.1814336E0,-1.3431377E-3,3.4858664E-3,-0E0,3.0087566E-1,-7.517784E-3,6.9737793E-3,-0E0,-1.7515518E-2,-9.5988544E-5,-1.80759E-3,8.5481955E-3],"categories":[],"categories_nodes":[],"categories_segments":[],"categories_sizes":[],"default_left":[0,0,0,0,0,0,0,0,0,0,0,0,0,0,0,0,0,0,0,0,0,0,0,0,0,0,0,0,0,0,0,0,0,0,0,0,0,0,0,0,0,0,0,0,0],"id":5,"left_children":[1,3,5,7,9,11,13,15,17,19,21,23,25,27,29,-1,-1,31,33,-1,-1,-1,35,-1,37,-1,-1,-1,-1,-1,-1,-1,39,41,-1,-1,-1,43,-1,-1,-1,-1,-1,-1,-1],"loss_changes":[4.895349E2,2.4710149E2,1.8976727E2,4.0597815E2,1.8019745E2,1.0857547E2,7.972252E1,1.5752365E1,6.2469772E1,2.6722412E0,1.03912735E1,4.7560055E1,2.9085693E0,2.3451263E1,3.2570618E1,0E0,0E0,3.1595367E1,3.7100525E0,0E0,0E0,0E0,1.4790331E0,0E0,1.7331924E1,0E0,0E0,0E0,0E0,0E0,0E0,0E0,8.7216835E0,3.0964508E0,0E0,0E0,0E0,1.8102959E1,0E0,0E0,0E0,0E0,0E0,0E0,0E0],"parents":[2147483647,0,0,1,1,2,2,3,3,4,4,5,5,6,6,7,7,8,8,9,9,10,10,11,11,12,12,13,13,14,14,17,17,18,18,22,22,24,24,32,32,33,33,37,37],"right_children":[2,4,6,8,10,12,14,16,18,20,22,24,26,28,30,-1,-1,32,34,-1,-1,-1,36,-1,38,-1,-1,-1,-1,-1,-1,-1,40,42,-1,-1,-1,44,-1,-1,-1,-1,-1,-1,-1],"split_conditions":[3E0,6E0,-8.4E-1,3E0,7E0,5E0,3E0,1.7708979E0,5E0,2.29E0,3.26E0,5E0,1.54E0,5E0,6E0,-0E0,1.6081234E-2,5E0,2E0,6.358121E-3,1.9242335E-2,-8.164635E-3,7E0,-1.4885658E-2,4E0,-1.8147752E-2,-7.0346426E-4,-0E0,1.4840286E-2,-1.302174E-2,2.0593393E-3,-1.121341E-2,1E0,5.74E0,-1.3431377E-3,3.4858664E-3,-0E0,2.169756E0,-7.517784E-3,6.9737793E-3,-0E0,-1.7515518E-2,-9.5988544E-5,-1.80759E-3,8.5481955E-3],"split_indices":[55,98,85,99,99,99,99,91,99,91,91,98,65,98,98,0,0,98,70,0,0,0,54,0,96,0,0,0,0,0,0,0,55,91,0,0,0,91,0,0,0,0,0,0,0],"split_type":[0,0,0,0,0,0,0,0,0,0,0,0,0,0,0,0,0,0,0,0,0,0,0,0,0,0,0,0,0,0,0,0,0,0,0,0,0,0,0,0,0,0,0,0,0],"sum_hessian":[1.67661E3,9.6811255E2,7.0849744E2,5.1827057E2,4.49842E2,5.214062E2,1.8709125E2,2.0575026E2,3.1252032E2,3.6239096E2,8.745104E1,1.7014085E2,3.5126535E2,1.0289836E2,8.419289E1,1.6744318E1,1.8900594E2,1.2643718E2,1.8608313E2,3.7725544E1,3.246654E2,3.7721714E1,4.972933E1,4.5966385E1,1.2417446E2,3.3378055E2,1.7484798E1,2.44903E1,7.840806E1,5.4704296E1,2.948859E1,4.3739937E1,8.269724E1,1.6309563E2,2.2987509E1,2.0992022E1,2.8737309E1,9.769252E1,2.6481947E1,4.3468422E1,3.9228825E1,1.4585129E2,1.7244326E1,2.9486664E1,6.820585E1],"tree_param":{"num_deleted":"0","num_feature":"116","num_nodes":"45","size_leaf_vector":"1"}},{"base_weights":[-0E0,-5.2168363E-1,7.0551205E-1,-8.6023813E-1,3.8857784E-2,-4.090624E-1,9.307293E-1,-1.0220798E0,-0E0,-4.009269E-1,6.476633E-1,-8.0283344E-1,6.0849413E-3,1.08147E0,6.302763E-2,-1.078648E0,-0E0,-2.3803625E-1,2.9406548E-1,-6.076833E-1,-0E0,7.840249E-1,-0E0,-9.309694E-1,-0E0,-0E0,1.1285232E0,-6.438897E-2,3.5406786E-1,-1.1590908E0,-0E0,-0E0,-8.821437E-3,-0E0,8.7771565E-3,-0E0,-1.3151973E-2,2.7582774E-1,-1.9209597E-3,1.718791E-2,-0E0,-0E0,-1.619833E-2,1.2706505E0,-0E0,3.2136994E-3,-9.846383E-3,1.1030129E-2,-9.3655445E-4,-1.4193795E-3,-1.7122176E-2,-5.654583E-4,1.5653624E-3,-7.3476643E-3,3.9958414E-3,-0E0,7.6497085E-3,1.5354062E-3,-3.4039004E-3,1.2744094E-2,2.0665666E-2,-6.6376263E-3,2.220535E-3],"categories":[],"categories_nodes":[],"categories_segments":[],"categories_sizes":[],"default_left":[0,0,0,0,0,0,0,0,0,0,0,0,0,0,0,0,0,0,0,0,0,0,0,0,0,0,0,0,0,0,0,0,0,0,0,0,0,0,0,0,0,0,0,0,0,0,0,0,0,0,0,0,0,0,0,0,0,0,0,0,0,0,0],"id":6,"left_children":[1,3,5,7,9,11,13,15,17,19,21,23,-1,25,27,29,-1,31,33,35,37,39,-1,41,-1,-1,43,45,47,49,51,-1,-1,-1,-1,53,-1,55,-1,-1,57,-1,-1,59,61,-1,-1,-1,-1,-1,-1,-1,-1,-1,-1,-1,-1,-1,-1,-1,-1,-1,-1],"loss_changes":[6.1637646E2,1.9163641E2,1.8347287E2,8.8212006E1,9.870188E1,4.2244812E1,6.744043E1,2.8676147E1,7.1572866E0,1.943314E1,1.7973396E1,5.4863358E0,0E0,2.804535E1,6.4050927E0,4.420349E1,0E0,8.299309E0,6.3658185E0,2.8423256E1,3.144974E0,5.301066E1,0E0,1.0737839E1,0E0,0E0,7.991156E1,1.4246645E1,1.641316E1,2.1106262E1,2.7016294E-1,0E0,0E0,0E0,0E0,8.386696E0,0E0,2.8683288E0,0E0,0E0,1.8935251E0,0E0,0E0,6.9456177E0,5.056942E0,0E0,0E0,0E0,0E0,0E0,0E0,0E0,0E0,0E0,0E0,0E0,0E0,0E0,0E0,0E0,0E0,0E0,0E0],"parents":[2147483647,0,0,1,1,2,2,3,3,4,4,5,5,6,6,7,7,8,8,9,9,10,10,11,11,13,13,14,14,15,15,17,17,18,18,19,19,20,20,21,21,23,23,26,26,27,27,28,28,29,29,30,30,35,35,37,37,40,40,43,43,44,44],"right_children":[2,4,6,8,10,12,14,16,18,20,22,24,-1,26,28,30,-1,32,34,36,38,40,-1,42,-1,-1,44,46,48,50,52,-1,-1,-1,-1,54,-1,56,-1,-1,58,-1,-1,60,62,-1,-1,-1,-1,-1,-1,-1,-1,-1,-1,-1,-1,-1,-1,-1,-1,-1,-1],"split_conditions":[3E0,1.1E1,5E0,-7.5E-1,-9.915014E-1,-6.1E-1,4E0,1E0,0E0,2E0,1E0,1.2E1,6.0849413E-3,-1.15E0,-1.8827154E-1,1E0,-0E0,4E0,6E0,5E0,6E0,4E0,-0E0,3E0,-0E0,-0E0,7E0,5E0,5E0,3E0,-4.9109414E-1,-0E0,-8.821437E-3,-0E0,8.7771565E-3,5E0,-1.3151973E-2,3.072546E-1,-1.9209597E-3,1.718791E-2,5E0,-0E0,-1.619833E-2,6E0,6E0,3.2136994E-3,-9.846383E-3,1.1030129E-2,-9.3655445E-4,-1.4193795E-3,-1.7122176E-2,-5.654583E-4,1.5653624E-3,-7.3476643E-3,3.9958414E-3,-0E0,7.6497085E-3,1.5354062E-3,-3.4039004E-3,1.2744094E-2,2.0665666E-2,-6.6376263E-3,2.220535E-3],"split_indices":[49,48,98,85,85,85,55,79,69,37,56,48,0,69,69,50,0,99,98,99,99,99,0,99,0,0,99,99,99,99,69,0,0,0,0,98,0,64,0,0,99,0,0,98,98,0,0,0,0,0,0,0,0,0,0,0,0,0,0,0,0,0,0],"split_type":[0,0,0,0,0,0,0,0,0,0,0,0,0,0,0,0,0,0,0,0,0,0,0,0,0,0,0,0,0,0,0,0,0,0,0,0,0,0,0,0,0,0,0,0,0,0,0,0,0,0,0,0,0,0,0,0,0,0,0,0,0,0,0],"sum_hessian":[1.6726353E3,9.6732666E2,7.053086E2,6.123063E2,3.5502036E2,1.1140918E2,5.938994E2,5.174126E2,9.489369E1,1.9797867E2,1.5704167E2,8.344027E1,2.7968912E1,4.9650848E2,9.739095E1,4.8894067E2,2.8471918E1,4.795233E1,4.6941364E1,1.3729889E2,6.067979E1,1.3555933E2,2.1482347E1,6.7699776E1,1.5740492E1,1.8736387E1,4.777721E2,4.744769E1,4.9943264E1,4.559745E2,3.296621E1,2.2726612E1,2.522572E1,2.2724928E1,2.4216434E1,4.9961254E1,8.733763E1,3.047146E1,3.020833E1,8.809922E1,4.746011E1,1.7242603E1,5.0457176E1,4.2580063E2,5.1971455E1,2.3974024E1,2.3473663E1,3.3954178E1,1.5989089E1,3.6470493E1,4.19504E2,1.6732819E1,1.6233389E1,1.6987286E1,3.297397E1,1.5236496E1,1.5234963E1,2.373385E1,2.3726257E1,1.7997192E2,2.458287E2,1.5234066E1,3.673739E1],"tree_param":{"num_deleted":"0","num_feature":"116","num_nodes":"63","size_leaf_vector":"1"}},{"base_weights":[-0E0,4.8444158E-1,-6.1178225E-1,1.1342498E0,-1.7219996E-2,-9.518519E-1,4.3664247E-1,2.4755092E-1,1.372749E0,-6.30716E-1,8.317073E-1,-1.3545865E0,-3.9589477E-1,-2.2505939E-1,9.7595483E-1,5.513839E-1,-8.888821E-3,2.0102767E-2,-0E0,-1.6368132E-2,-2.0876856E-1,1.0082213E0,-0E0,-1.4090221E0,-2.7045375E-4,-1.37312105E-2,1.9158667E-1,-9.513029E-3,2.592878E-3,-0E0,1.1556993E0,-0E0,7.4832773E-1,1.8760075E-1,-6.7840755E-1,1.098785E0,-0E0,-3.3837245E-4,-2.0338077E-2,5.4133147E-1,-2.9634967E-1,1.786979E-2,-0E0,1.2686162E-2,-0E0,8.824187E-3,-0E0,-0E0,-1.14802895E-2,-0E0,1.6190315E-2,-0E0,1.0604009E-2,-0E0,-9.209903E-3],"categories":[],"categories_nodes":[],"categories_segments":[],"categories_sizes":[],"default_left":[0,0,0,0,0,0,0,0,0,0,0,0,0,0,0,0,0,0,0,0,0,0,0,0,0,0,0,0,0,0,0,0,0,0,0,0,0,0,0,0,0,0,0,0,0,0,0,0,0,0,0,0,0,0,0],"id":7,"left_children":[1,3,5,7,9,11,13,15,17,19,21,23,25,27,29,31,-1,-1,-1,-1,33,35,-1,37,-1,-1,39,-1,-1,-1,41,-1,43,45,47,49,-1,-1,-1,51,53,-1,-1,-1,-1,-1,-1,-1,-1,-1,-1,-1,-1,-1,-1],"loss_changes":[4.9473877E2,3.140113E2,2.6873267E2,7.190509E1,2.7073236E2,1.0899173E2,7.018536E1,2.6797117E1,2.4538147E1,5.784884E1,3.7558884E1,9.951477E0,9.4335495E1,1.8684612E1,1.9871407E1,1.0147781E1,0E0,0E0,0E0,0E0,3.9638966E1,1.4545074E1,0E0,6.991455E0,0E0,0E0,2.3101046E1,0E0,0E0,0E0,2.5529327E0,0E0,3.713646E-1,1.0596538E1,2.623272E0,2.5202637E0,0E0,0E0,0E0,8.122574E0,5.6384506E0,0E0,0E0,0E0,0E0,0E0,0E0,0E0,0E0,0E0,0E0,0E0,0E0,0E0,0E0],"parents":[2147483647,0,0,1,1,2,2,3,3,4,4,5,5,6,6,7,7,8,8,9,9,10,10,11,11,12,12,13,13,14,14,15,15,20,20,21,21,23,23,26,26,30,30,32,32,33,33,34,34,35,35,39,39,40,40],"right_children":[2,4,6,8,10,12,14,16,18,20,22,24,26,28,30,32,-1,-1,-1,-1,34,36,-1,38,-1,-1,40,-1,-1,-1,42,-1,44,46,48,50,-1,-1,-1,52,54,-1,-1,-1,-1,-1,-1,-1,-1,-1,-1,-1,-1,-1,-1],"split_conditions":[6E0,3E0,4E0,5E0,6E0,6E0,6E0,1E0,3E0,5E0,5E0,-2.93E0,-5.73E0,-3.63E0,-6.52E0,2.39E0,-8.888821E-3,2.0102767E-2,-0E0,-1.6368132E-2,5E0,8E0,-0E0,3E0,-2.7045375E-4,-1.37312105E-2,7E0,-9.513029E-3,2.592878E-3,-0E0,8E0,-0E0,5E0,1E0,1E0,-6E-1,-0E0,-3.3837245E-4,-2.0338077E-2,-1.3E-1,2E0,1.786979E-2,-0E0,1.2686162E-2,-0E0,8.824187E-3,-0E0,-0E0,-1.14802895E-2,-0E0,1.6190315E-2,-0E0,1.0604009E-2,-0E0,-9.209903E-3],"split_indices":[114,99,49,98,98,98,98,56,96,98,55,92,92,92,92,91,0,0,0,0,99,99,0,99,0,0,99,0,0,0,99,0,114,55,55,68,0,0,0,68,55,0,0,0,0,0,0,0,0,0,0,0,0,0,0],"split_type":[0,0,0,0,0,0,0,0,0,0,0,0,0,0,0,0,0,0,0,0,0,0,0,0,0,0,0,0,0,0,0,0,0,0,0,0,0,0,0,0,0,0,0,0,0,0,0,0,0,0,0,0,0,0,0],"sum_hessian":[1.6641161E3,9.2929193E2,7.348242E2,4.1129984E2,5.1799207E2,5.615854E2,1.7323883E2,9.6411194E1,3.1488864E2,3.0730615E2,2.1068593E2,3.1396777E2,2.476176E2,7.091769E1,1.0232114E2,8.016992E1,1.6241276E1,2.96898E2,1.7990623E1,1.22822815E2,1.8448334E2,1.7947052E2,3.1215403E1,2.9498364E2,1.8984135E1,1.3046729E2,1.1715031E2,4.320796E1,2.7709728E1,1.5238507E1,8.7082634E1,1.974073E1,6.0429188E1,9.041267E1,9.407066E1,1.627318E2,1.6738737E1,1.6738825E1,2.782448E2,7.892378E1,3.822653E1,7.1838486E1,1.5244149E1,4.0448227E1,1.9980963E1,3.1959373E1,5.8453297E1,2.7220514E1,6.685014E1,1.5484592E1,1.472472E2,2.6229063E1,5.2694717E1,1.9743307E1,1.848322E1],"tree_param":{"num_deleted":"0","num_feature":"116","num_nodes":"55","size_leaf_vector":"1"}},{"base_weights":[-0E0,-6.015561E-1,7.0233977E-1,-9.00201E-2,-1.0225023E0,9.672697E-1,1.3951251E-1,8.857751E-2,-7.8385216E-1,-1.1052496E0,-0E0,1.0716585E0,1.13296285E-1,-1.0527669E-1,8.084911E-1,-3.0134398E-1,8.208431E-1,-1.4361187E-2,-0E0,-1.9823568E-2,-6.04276E-1,-0E0,1.4088948E-3,5.4731034E-2,1.7929113E-2,-1.1593689E-2,9.225272E-3,-6.5601695E-1,3.7516126E-1,-0E0,1.5974158E-2,-7.339174E-1,-0E0,-0E0,1.2501361E-2,-8.079854E-1,-0E0,-2.6777354E-1,5.503949E-1,-5.543712E-3,1.8398928E-3,-8.190682E-1,-0E0,-0E0,8.534765E-3,-1.2343226E-2,-0E0,7.0540807E-3,-2.1782883E-3,-1.2959598E-2,-7.222826E-4,-6.902962E-3,-0E0,-0E0,9.654566E-3,-1.3560237E-2,-0E0],"categories":[],"categories_nodes":[],"categories_segments":[],"categories_sizes":[],"default_left":[0,0,0,0,0,0,0,0,0,0,0,0,0,0,0,0,0,0,0,0,0,0,0,0,0,0,0,0,0,0,0,0,0,0,0,0,0,0,0,0,0,0,0,0,0,0,0,0,0,0,0,0,0,0,0,0,0],"id":8,"left_children":[1,3,5,7,9,11,13,15,17,19,21,23,25,27,29,31,33,-1,-1,-1,35,-1,-1,37,-1,39,-1,41,43,-1,-1,45,47,-1,-1,49,-1,51,53,-1,-1,55,-1,-1,-1,-1,-1,-1,-1,-1,-1,-1,-1,-1,-1,-1,-1],"loss_changes":[7.127331E2,1.8460739E2,1.05979065E2,5.8727043E1,4.694519E1,3.520056E1,4.984496E1,9.878136E1,1.6031384E1,5.1491028E1,1.8275711E-1,8.641809E1,1.0661463E1,5.2329624E1,1.9957355E1,2.9517076E1,2.9203186E0,0E0,0E0,0E0,2.604728E1,0E0,0E0,1.7199087E1,0E0,5.069195E0,0E0,4.3943214E0,7.502818E0,0E0,0E0,9.492134E0,1.0904627E1,0E0,0E0,4.4971313E0,0E0,3.884924E0,2.9366207E-1,0E0,0E0,2.2653008E0,0E0,0E0,0E0,0E0,0E0,0E0,0E0,0E0,0E0,0E0,0E0,0E0,0E0,0E0,0E0],"parents":[2147483647,0,0,1,1,2,2,3,3,4,4,5,5,6,6,7,7,8,8,9,9,10,10,11,11,12,12,13,13,14,14,15,15,16,16,20,20,23,23,25,25,27,27,28,28,31,31,32,32,35,35,37,37,38,38,41,41],"right_children":[2,4,6,8,10,12,14,16,18,20,22,24,26,28,30,32,34,-1,-1,-1,36,-1,-1,38,-1,40,-1,42,44,-1,-1,46,48,-1,-1,50,-1,52,54,-1,-1,56,-1,-1,-1,-1,-1,-1,-1,-1,-1,-1,-1,-1,-1,-1,-1],"split_conditions":[-4.64E0,6E0,6E0,2E0,3E0,1E0,2E0,6E0,6E0,6E0,-5.893742E0,5E0,6E0,6E0,6E0,5E0,3.5E-1,-1.4361187E-2,-0E0,-1.9823568E-2,-5.76E0,-0E0,1.4088948E-3,-6.3897765E-1,1.7929113E-2,-6.1781776E-1,9.225272E-3,1E0,-3.68E0,-0E0,1.5974158E-2,1.6E1,5E0,-0E0,1.2501361E-2,3.043478E-1,-0E0,6.725263E1,-2.36E0,-5.543712E-3,1.8398928E-3,-2.93E0,-0E0,-0E0,8.534765E-3,-1.2343226E-2,-0E0,7.0540807E-3,-2.1782883E-3,-1.2959598E-2,-7.222826E-4,-6.902962E-3,-0E0,-0E0,9.654566E-3,-1.3560237E-2,-0E0],"split_indices":[92,114,114,96,97,96,97,98,98,98,92,98,98,98,98,98,43,0,0,0,92,0,0,85,0,85,0,70,92,0,0,48,114,0,0,102,0,5,92,0,0,92,0,0,0,0,0,0,0,0,0,0,0,0,0,0,0],"split_type":[0,0,0,0,0,0,0,0,0,0,0,0,0,0,0,0,0,0,0,0,0,0,0,0,0,0,0,0,0,0,0,0,0,0,0,0,0,0,0,0,0,0,0,0,0,0,0,0,0,0,0,0,0,0,0,0,0],"sum_hessian":[1.6807712E3,9.027834E2,7.779879E2,4.1874963E2,4.8403375E2,5.1670105E2,2.6128687E2,3.2445004E2,9.429957E1,4.5231635E2,3.1717403E1,4.503269E2,6.637415E1,1.8298154E2,7.830531E1,2.0463388E2,1.1981618E2,6.85787E1,2.5720873E1,2.6298126E2,1.8933508E2,1.6487103E1,1.5230301E1,8.639965E1,3.6392725E2,4.2681755E1,2.3692392E1,9.3618256E1,8.936329E1,2.5462149E1,5.284317E1,8.708578E1,1.17548096E2,1.6231691E1,1.0358449E2,1.4462505E2,4.4710026E1,4.1970097E1,4.4429558E1,2.7461037E1,1.5220719E1,6.565102E1,2.796724E1,3.7454018E1,5.190927E1,7.110612E1,1.5979663E1,3.1462423E1,8.608567E1,1.1369637E2,3.0928677E1,2.6233282E1,1.5736814E1,1.6737053E1,2.7692507E1,4.8166748E1,1.7484268E1],"tree_param":{"num_deleted":"0","num_feature":"116","num_nodes":"57","size_leaf_vector":"1"}},{"base_weights":[-0E0,6.5881896E-1,-7.846404E-1,-3.6345243E-1,9.444032E-1,-1.2844435E0,-1.2887517E-1,-7.376528E-1,3.65012E-1,1.0723915E0,-2.4190761E-1,-1.3221412E0,-0E0,-6.3729763E-1,6.273263E-1,-9.0873146E-1,-0E0,1.0407501E-2,-0E0,-0E0,1.1274878E0,-8.033156E-3,-0E0,-0E0,-1.8937765E-2,-8.0604345E-1,-0E0,9.260755E-1,-0E0,-1.4708316E-2,-0E0,2.048381E-3,-2.618998E-3,1.8888604E-2,7.84358E-1,-2.8760016E-1,-1.4216637E-2,-9.015182E-4,2.687672E-3,1.6465906E-2,-0E0,-1.5479751E-3,-0E0,2.8069636E-3,1.5549197E-2,-5.9614014E-3,-0E0],"categories":[],"categories_nodes":[],"categories_segments":[],"categories_sizes":[],"default_left":[0,0,0,0,0,0,0,0,0,0,0,0,0,0,0,0,0,0,0,0,0,0,0,0,0,0,0,0,0,0,0,0,0,0,0,0,0,0,0,0,0,0,0,0,0,0,0],"id":9,"left_children":[1,3,5,7,9,11,13,15,17,19,21,23,-1,25,27,29,-1,-1,-1,31,33,-1,-1,-1,-1,35,37,39,41,-1,-1,-1,-1,-1,43,45,-1,-1,-1,-1,-1,-1,-1,-1,-1,-1,-1],"loss_changes":[8.644917E2,2.7112604E2,2.3724374E2,5.6749283E1,1.1710791E2,1.0381409E1,1.3243036E2,1.8497604E1,1.2527821E1,3.966156E1,8.181373E0,9.334351E0,0E0,2.47053E1,3.1220737E1,9.248901E0,0E0,0E0,0E0,1.0443785E0,2.637378E1,0E0,0E0,0E0,0E0,6.280403E0,8.777343E-1,1.3292175E1,2.5138077E-1,0E0,0E0,0E0,0E0,0E0,3.9687805E1,3.5554137E0,0E0,0E0,0E0,0E0,0E0,0E0,0E0,0E0,0E0,0E0,0E0],"parents":[2147483647,0,0,1,1,2,2,3,3,4,4,5,5,6,6,7,7,8,8,9,9,10,10,11,11,13,13,14,14,15,15,19,19,20,20,25,25,26,26,27,27,28,28,34,34,35,35],"right_children":[2,4,6,8,10,12,14,16,18,20,22,24,-1,26,28,30,-1,-1,-1,32,34,-1,-1,-1,-1,36,38,40,42,-1,-1,-1,-1,-1,44,46,-1,-1,-1,-1,-1,-1,-1,-1,-1,-1,-1],"split_conditions":[5E0,5E0,6E0,-6.3897765E-1,3E0,6E0,3E0,4.83E0,5E0,1.2533803E0,2.62E0,5E0,-0E0,4.6E0,3E0,1.6E1,-0E0,1.0407501E-2,-0E0,3E0,3E0,-8.033156E-3,-0E0,-0E0,-1.8937765E-2,7E0,8E0,8E0,3.35E0,-1.4708316E-2,-0E0,2.048381E-3,-2.618998E-3,1.8888604E-2,6E0,9.6E-1,-1.4216637E-2,-9.015182E-4,2.687672E-3,1.6465906E-2,-0E0,-1.5479751E-3,-0E0,2.8069636E-3,1.5549197E-2,-5.9614014E-3,-0E0],"split_indices":[99,98,98,85,96,49,49,91,114,91,91,114,0,91,55,48,0,0,0,99,99,0,0,0,0,99,48,99,91,0,0,0,0,0,98,65,0,0,0,0,0,0,0,0,0,0,0],"split_type":[0,0,0,0,0,0,0,0,0,0,0,0,0,0,0,0,0,0,0,0,0,0,0,0,0,0,0,0,0,0,0,0,0,0,0,0,0,0,0,0,0,0,0,0,0,0,0],"sum_hessian":[1.6665454E3,9.048038E2,7.617416E2,1.9046231E2,7.143415E2,4.2295807E2,3.3878354E2,1.340514E2,5.6410904E1,6.5192725E2,6.2414215E1,4.0497186E2,1.7986204E1,2.1002158E2,1.2876195E2,1.09821075E2,2.423033E1,3.3935337E1,2.2475567E1,3.1212303E1,6.2071497E2,3.3444023E1,2.8970192E1,1.6461838E1,3.8851004E2,1.6831747E2,4.1704098E1,9.4049286E1,3.471267E1,8.90873E1,2.0733774E1,1.5229286E1,1.5983016E1,3.5260892E2,2.6810605E2,6.338275E1,1.0493472E2,2.372105E1,1.7983047E1,6.631456E1,2.7734722E1,1.7724981E1,1.6987686E1,1.0860118E2,1.5950485E2,4.6652214E1,1.673054E1],"tree_param":{"num_deleted":"0","num_feature":"116","num_nodes":"47","size_leaf_vector":"1"}},{"base_weights":[5.02797E-4,6.580184E-1,-7.6941776E-1,-3.4788E-1,9.420048E-1,-1.2825042E0,-9.5608756E-2,1.194088E-1,-1.0593446E0,1.064248E0,-0E0,-1.840037E-2,-0E0,-5.7765424E-1,6.0267437E-1,-1.8275437E-1,6.481374E-1,-1.718529E-2,-0E0,1.1754668E0,2.1293743E-1,2.2454911E-1,-3.7134922E-1,-0E0,-8.976813E-1,9.7545224E-1,-0E0,-0E0,-1.0789602E-2,1.355898E-2,3.3545017E-4,1.9603088E-2,8.2616884E-1,-5.0639205E-2,5.912426E-1,6.101062E-3,-0E0,-0E0,-7.823772E-3,-5.9220362E-3,1.0932001E-1,-1.6327141E-1,-1.5896216E-2,1.6047284E-2,-0E0,-0E0,-3.1650774E-3,2.3323365E-3,-1.9327125E-4,-0E0,1.2607578E-2,-4.325056E-3,-0E0,1.0423203E-2,-0E0,-0E0,5.7079387E-3,-0E0,-5.1304805E-3],"categories":[],"categories_nodes":[],"categories_segments":[],"categories_sizes":[],"default_left":[0,0,0,0,0,0,0,0,0,0,0,0,0,0,0,0,0,0,0,0,0,0,0,0,0,0,0,0,0,0,0,0,0,0,0,0,0,0,0,0,0,0,0,0,0,0,0,0,0,0,0,0,0,0,0,0,0,0,0],"id":10,"left_children":[1,3,5,7,9,11,13,15,17,19,21,-1,-1,23,25,27,29,-1,-1,31,33,35,37,39,41,43,45,47,-1,-1,-1,-1,49,51,53,-1,-1,-1,-1,-1,55,57,-1,-1,-1,-1,-1,-1,-1,-1,-1,-1,-1,-1,-1,-1,-1,-1,-1],"loss_changes":[8.3990375E2,2.640364E2,2.4947171E2,7.3233154E1,8.918207E1,9.42749E0,1.1465858E2,2.2361122E1,1.0150093E1,4.6938416E1,7.724866E0,0E0,0E0,3.368582E1,3.574248E1,8.793491E0,1.4211998E0,0E0,0E0,2.1145935E1,1.3590887E1,2.5133402E0,2.0625792E0,5.765398E0,1.0546074E1,7.686043E0,9.9953926E-1,5.276585E-1,0E0,0E0,0E0,0E0,1.2743103E1,2.126269E0,6.6959E-1,0E0,0E0,0E0,0E0,0E0,2.7667341E0,2.6595273E0,0E0,0E0,0E0,0E0,0E0,0E0,0E0,0E0,0E0,0E0,0E0,0E0,0E0,0E0,0E0,0E0,0E0],"parents":[2147483647,0,0,1,1,2,2,3,3,4,4,5,5,6,6,7,7,8,8,9,9,10,10,13,13,14,14,15,15,16,16,19,19,20,20,21,21,22,22,23,23,24,24,25,25,26,26,27,27,32,32,33,33,34,34,40,40,41,41],"right_children":[2,4,6,8,10,12,14,16,18,20,22,-1,-1,24,26,28,30,-1,-1,32,34,36,38,40,42,44,46,48,-1,-1,-1,-1,50,52,54,-1,-1,-1,-1,-1,56,58,-1,-1,-1,-1,-1,-1,-1,-1,-1,-1,-1,-1,-1,-1,-1,-1,-1],"split_conditions":[5E0,5E0,6E0,3E0,1E0,6E0,3E0,6.7686427E-1,8.8E-1,5E0,3E0,-1.840037E-2,-0E0,7E0,8E0,1E0,2E0,-1.718529E-2,-0E0,3E0,6.0871434E-1,2E0,3E0,6.0871434E-1,2E0,3E0,3E0,7.409091E1,-1.0789602E-2,1.355898E-2,3.3545017E-4,1.9603088E-2,4.9E-1,-9.915014E-1,6E0,6.101062E-3,-0E0,-0E0,-7.823772E-3,-5.9220362E-3,4.58E0,7E0,-1.5896216E-2,1.6047284E-2,-0E0,-0E0,-3.1650774E-3,2.3323365E-3,-1.9327125E-4,-0E0,1.2607578E-2,-4.325056E-3,-0E0,1.0423203E-2,-0E0,-0E0,5.7079387E-3,-0E0,-5.1304805E-3],"split_indices":[99,98,98,99,56,49,49,84,84,55,99,0,0,99,99,56,99,0,0,99,84,56,55,84,55,55,55,105,0,0,0,0,84,85,54,0,0,0,0,0,91,54,0,0,0,0,0,0,0,0,0,0,0,0,0,0,0,0,0],"split_type":[0,0,0,0,0,0,0,0,0,0,0,0,0,0,0,0,0,0,0,0,0,0,0,0,0,0,0,0,0,0,0,0,0,0,0,0,0,0,0,0,0,0,0,0,0,0,0,0,0,0,0,0,0,0,0,0,0,0,0],"sum_hessian":[1.6557959E3,8.996706E2,7.561253E2,1.908937E2,7.087769E2,4.2023123E2,3.3589407E2,1.0884119E2,8.205251E1,6.334661E2,7.531077E1,4.019968E2,1.8234428E1,2.0669113E2,1.2920293E2,5.9424343E1,4.9416843E1,6.657246E1,1.5480061E1,5.499264E2,8.353972E1,3.6144047E1,3.9166725E1,8.086013E1,1.25831E2,8.523859E1,4.3964344E1,4.39457E1,1.54786415E1,2.1947237E1,2.7469604E1,3.106344E2,2.39292E2,3.6428085E1,4.7111633E1,2.067515E1,1.5468897E1,1.696764E1,2.2199083E1,2.5438993E1,5.542114E1,4.1659832E1,8.417117E1,6.625549E1,1.8983093E1,2.7236242E1,1.67281E1,1.5978028E1,2.7967674E1,2.446593E1,2.1482607E2,2.0468744E1,1.5959341E1,2.9658318E1,1.7453314E1,3.7439972E1,1.7981165E1,1.5963495E1,2.5696337E1],"tree_param":{"num_deleted":"0","num_feature":"116","num_nodes":"59","size_leaf_vector":"1"}},{"base_weights":[-2.2565736E-3,6.5423065E-1,-7.76788E-1,-1.0213967E-1,9.092628E-1,-1.0647408E0,-2.2869048E-1,-1.2820718E-2,2.3314556E-1,-0E0,1.1183549E0,-1.860126E-2,-5.927014E-1,-1.41205955E-2,4.3714464E-1,4.5964354E-1,-6.8881055E-3,-3.1944636E-1,5.0038284E-1,1.168636E0,-0E0,-7.615438E-1,-0E0,2.9863985E-4,7.999034E-1,1.155522E-2,-0E0,9.8011464E-2,-1.2114849E-2,1.0752802E-2,-0E0,1.6826192E-2,-0E0,-1.3795097E-1,-1.396034E-2,6.778413E-4,-2.7311167E-3,8.1037255E-3,-6.593021E-3,1.5316083E-2,1.5138925E-4,-1.30133E-3,2.1640637E-3,3.0845166E-3,-0E0,-4.010536E-3,-0E0],"categories":[],"categories_nodes":[],"categories_segments":[],"categories_sizes":[],"default_left":[0,0,0,0,0,0,0,0,0,0,0,0,0,0,0,0,0,0,0,0,0,0,0,0,0,0,0,0,0,0,0,0,0,0,0,0,0,0,0,0,0,0,0,0,0,0,0],"id":11,"left_children":[1,3,5,7,9,11,13,-1,15,17,19,-1,21,-1,23,25,-1,27,29,31,-1,33,35,37,39,-1,41,43,-1,-1,-1,-1,-1,45,-1,-1,-1,-1,-1,-1,-1,-1,-1,-1,-1,-1,-1],"loss_changes":[8.5523364E2,1.8174026E2,1.1021503E2,6.740737E1,1.378772E2,4.3718323E1,1.5359825E2,0E0,2.516433E1,1.9060091E1,3.130841E1,0E0,1.7915085E1,0E0,1.6181242E1,2.0186125E1,0E0,2.6975185E1,3.6036005E0,1.4881592E1,0E0,1.1833923E1,8.6737466E-1,2.4042057E1,6.2637177E0,0E0,1.0066622E0,8.898921E-1,0E0,0E0,0E0,0E0,0E0,2.1150484E0,0E0,0E0,0E0,0E0,0E0,0E0,0E0,0E0,0E0,0E0,0E0,0E0,0E0],"parents":[2147483647,0,0,1,1,2,2,3,3,4,4,5,5,6,6,8,8,9,9,10,10,12,12,14,14,15,15,17,17,18,18,19,19,21,21,22,22,23,23,24,24,26,26,27,27,33,33],"right_children":[2,4,6,8,10,12,14,-1,16,18,20,-1,22,-1,24,26,-1,28,30,32,-1,34,36,38,40,-1,42,44,-1,-1,-1,-1,-1,46,-1,-1,-1,-1,-1,-1,-1,-1,-1,-1,-1,-1,-1],"split_conditions":[5E0,2.55E0,3.81E0,5E0,5E0,6E0,6E0,-1.2820718E-2,1E0,-2.43E0,2E0,-1.860126E-2,-5.62E0,-1.41205955E-2,1E0,3E0,-6.8881055E-3,3E0,2E0,3E0,-0E0,7E0,8E0,7E0,8E0,1.155522E-2,6E0,-3.4372647E0,-1.2114849E-2,1.0752802E-2,-0E0,1.6826192E-2,-0E0,2E0,-1.396034E-2,6.778413E-4,-2.7311167E-3,8.1037255E-3,-6.593021E-3,1.5316083E-2,1.5138925E-4,-1.30133E-3,2.1640637E-3,3.0845166E-3,-0E0,-4.010536E-3,-0E0],"split_indices":[99,91,91,98,98,98,98,0,56,92,56,0,92,0,100,99,0,99,99,96,0,99,99,99,99,0,98,92,0,0,0,0,0,22,0,0,0,0,0,0,0,0,0,0,0,0,0],"split_type":[0,0,0,0,0,0,0,0,0,0,0,0,0,0,0,0,0,0,0,0,0,0,0,0,0,0,0,0,0,0,0,0,0,0,0,0,0,0,0,0,0,0,0,0,0,0,0],"sum_hessian":[1.6744604E3,9.001625E2,7.74298E2,2.1839394E2,6.8176855E2,4.9509262E2,2.7920535E2,7.0055305E1,1.4833864E2,1.2176461E2,5.6000397E2,2.9975854E2,1.9533408E2,1.3383725E2,1.4536812E2,1.233922E2,2.4946438E1,8.336312E1,3.840149E1,5.355523E2,2.445164E1,1.4816182E2,4.7172256E1,7.853029E1,6.683783E1,6.547809E1,5.7914112E1,3.9217304E1,4.4145817E1,2.0675636E1,1.7725851E1,5.120852E2,2.3467115E1,5.285753E1,9.53043E1,2.9198587E1,1.7973667E1,4.360359E1,3.49267E1,3.936332E1,2.7474506E1,3.096214E1,2.6951975E1,2.3731804E1,1.54855E1,3.5657772E1,1.7199757E1],"tree_param":{"num_deleted":"0","num_feature":"116","num_nodes":"47","size_leaf_vector":"1"}},{"base_weights":[-0E0,6.431343E-1,-7.534387E-1,-3.634582E-1,9.261037E-1,-1.2400962E0,-1.08846374E-1,-7.549471E-1,3.8859153E-1,1.0429285E0,-1.6100946E-1,-4.3737582E-5,-1.7611695E-2,-6.066462E-1,4.2103213E-1,-8.598528E-1,-0E0,9.881768E-3,-0E0,-0E0,1.0843384E0,-7.3684747E-3,3.9874218E-4,-0E0,-8.088123E-1,-0E0,5.195955E-1,-0E0,-1.3429431E-2,1.688534E-2,6.6977155E-1,-8.877814E-1,-0E0,6.818324E-1,-0E0,3.075355E-4,1.4028134E-2,-1.4401607E-2,-0E0,1.4185103E-2,-0E0],"categories":[],"categories_nodes":[],"categories_segments":[],"categories_sizes":[],"default_left":[0,0,0,0,0,0,0,0,0,0,0,0,0,0,0,0,0,0,0,0,0,0,0,0,0,0,0,0,0,0,0,0,0,0,0,0,0,0,0,0,0],"id":12,"left_children":[1,3,5,7,9,11,13,15,17,19,21,-1,-1,23,25,27,-1,-1,-1,-1,29,-1,-1,-1,31,-1,33,-1,-1,-1,35,37,-1,39,-1,-1,-1,-1,-1,-1,-1],"loss_changes":[8.115095E2,2.647211E2,2.282132E2,6.1277855E1,9.949811E1,8.236084E-1,9.237687E1,1.0763527E1,1.0147602E1,3.5703857E1,9.068318E0,0E0,0E0,2.3322144E1,9.462736E0,2.4688873E0,0E0,0E0,0E0,0E0,1.4221619E1,0E0,0E0,0E0,5.830696E0,0E0,1.4638184E1,0E0,0E0,0E0,2.806269E1,9.552834E0,0E0,2.6193455E1,0E0,0E0,0E0,0E0,0E0,0E0,0E0],"parents":[2147483647,0,0,1,1,2,2,3,3,4,4,5,5,6,6,7,7,8,8,9,9,10,10,13,13,14,14,15,15,20,20,24,24,26,26,30,30,31,31,33,33],"right_children":[2,4,6,8,10,12,14,16,18,20,22,-1,-1,24,26,28,-1,-1,-1,-1,30,-1,-1,-1,32,-1,34,-1,-1,-1,36,38,-1,40,-1,-1,-1,-1,-1,-1,-1],"split_conditions":[5E0,5E0,6E0,-6.3897765E-1,3E0,8.0833336E1,-5.73E0,8.8E-1,5E0,3.2705563E-1,6E0,-4.3737582E-5,-1.7611695E-2,6E0,6.182898E-1,6.257143E1,-0E0,9.881768E-3,-0E0,-0E0,6E0,-7.3684747E-3,3.9874218E-4,-0E0,1.06E-1,-0E0,1E0,-0E0,-1.3429431E-2,1.688534E-2,6E0,3.7872543E0,-0E0,8E0,-0E0,3.075355E-4,1.4028134E-2,-1.4401607E-2,-0E0,1.4185103E-2,-0E0],"split_indices":[99,98,98,85,96,0,92,84,114,84,98,0,0,114,84,105,0,0,0,0,114,0,0,0,88,0,96,0,0,0,98,91,0,99,0,0,0,0,0,0,0],"split_type":[0,0,0,0,0,0,0,0,0,0,0,0,0,0,0,0,0,0,0,0,0,0,0,0,0,0,0,0,0,0,0,0,0,0,0,0,0,0,0,0,0],"sum_hessian":[1.6706993E3,9.0561475E2,7.6508453E2,1.9150209E2,7.141127E2,4.265099E2,3.3857465E2,1.3388667E2,5.7615414E1,6.5246893E2,6.164375E1,1.5145182E1,4.1136472E2,1.8322104E2,1.553536E2,1.1715834E2,1.6728336E1,3.564712E1,2.1968292E1,1.871645E1,6.337525E2,3.567885E1,2.5964901E1,4.5659973E1,1.3756107E2,1.9212992E1,1.3614062E2,2.1702375E1,9.545596E1,4.6449805E2,1.6925444E2,1.211225E2,1.6438574E1,1.0943216E2,2.670846E1,6.807939E1,1.0117505E2,9.7700806E1,2.342169E1,7.2964645E1,3.6467514E1],"tree_param":{"num_deleted":"0","num_feature":"116","num_nodes":"41","size_leaf_vector":"1"}},{"base_weights":[-0E0,6.432625E-1,-7.6167166E-1,-3.348849E-1,9.15054E-1,-1.2230073E0,-1.5027572E-1,1.2758462E-1,-1.4185789E-2,1.7433112E-2,1.0651691E0,-1.2776791E0,-3.971488E-3,-6.2878555E-1,5.687036E-1,-2.8970188E-1,6.0954213E-1,4.2552057E-1,-3.6320737E-1,1.1193733E0,-0E0,-0E0,-1.8367173E-2,-2.561426E-2,-9.298467E-1,9.436495E-1,-0E0,-0E0,-7.5883684E-3,1.2722427E-2,2.1349234E-4,8.787324E-3,-0E0,-0E0,-9.65256E-3,1.8697705E-2,7.738604E-1,-7.055844E-3,1.763613E-1,-1.3980809E-2,-0E0,-0E0,1.56067135E-2,-0E0,-4.3421485E-3,2.32723E-3,1.5478739E-2,-0E0,5.4888795E-3],"categories":[],"categories_nodes":[],"categories_segments":[],"categories_sizes":[],"default_left":[0,0,0,0,0,0,0,0,0,0,0,0,0,0,0,0,0,0,0,0,0,0,0,0,0,0,0,0,0,0,0,0,0,0,0,0,0,0,0,0,0,0,0,0,0,0,0,0,0],"id":13,"left_children":[1,3,5,7,9,11,13,15,-1,17,19,21,-1,23,25,27,29,31,33,35,-1,-1,-1,37,39,41,43,-1,-1,-1,-1,-1,-1,-1,-1,-1,45,-1,47,-1,-1,-1,-1,-1,-1,-1,-1,-1,-1],"loss_changes":[8.1887256E2,2.4745428E2,2.0250272E2,6.9088135E1,8.6915955E1,6.69989E0,1.1849015E2,2.5287981E1,0E0,1.873631E1,3.8109375E1,1.1332642E1,0E0,2.9932549E1,3.463015E1,6.1221213E0,2.60532E0,3.7833385E0,6.763098E0,2.2460327E1,0E0,0E0,0E0,1.1361969E1,2.3105164E0,1.1503761E1,1.7842828E0,0E0,0E0,0E0,0E0,0E0,0E0,0E0,0E0,0E0,3.8761124E1,0E0,3.2276812E0,0E0,0E0,0E0,0E0,0E0,0E0,0E0,0E0,0E0,0E0],"parents":[2147483647,0,0,1,1,2,2,3,3,4,4,5,5,6,6,7,7,9,9,10,10,11,11,13,13,14,14,15,15,16,16,17,17,18,18,19,19,23,23,24,24,25,25,26,26,36,36,38,38],"right_children":[2,4,6,8,10,12,14,16,-1,18,20,22,-1,24,26,28,30,32,34,36,-1,-1,-1,38,40,42,44,-1,-1,-1,-1,-1,-1,-1,-1,-1,46,-1,48,-1,-1,-1,-1,-1,-1,-1,-1,-1,-1],"split_conditions":[5E0,5E0,6E0,3E0,2.15E0,5E0,3E0,3.24E0,-1.4185789E-2,4E0,2E0,5E0,-3.971488E-3,7E0,8E0,7.6375E1,2E0,4E0,3E0,3E0,-0E0,-0E0,-1.8367173E-2,2.78E0,5.02E0,2.9383307E0,9E0,-0E0,-7.5883684E-3,1.2722427E-2,2.1349234E-4,8.787324E-3,-0E0,-0E0,-9.65256E-3,1.8697705E-2,6E0,-7.055844E-3,9.005E1,-1.3980809E-2,-0E0,-0E0,1.56067135E-2,-0E0,-4.3421485E-3,2.32723E-3,1.5478739E-2,-0E0,5.4888795E-3],"split_indices":[99,98,98,99,91,49,49,91,0,55,56,114,0,99,99,105,99,99,99,99,0,0,0,91,91,91,99,0,0,0,0,0,0,0,0,0,98,0,106,0,0,0,0,0,0,0,0,0,0],"split_type":[0,0,0,0,0,0,0,0,0,0,0,0,0,0,0,0,0,0,0,0,0,0,0,0,0,0,0,0,0,0,0,0,0,0,0,0,0,0,0,0,0,0,0,0,0,0,0,0,0],"sum_hessian":[1.6665128E3,9.052222E2,7.612906E2,1.8942575E2,7.157965E2,4.2389792E2,3.373927E2,1.0627884E2,8.3146904E1,1.1166081E2,6.041357E2,3.9048456E2,3.341334E1,2.1036655E2,1.2702614E2,4.741811E1,5.8860733E1,6.5265045E1,4.639577E1,5.7720636E2,2.6929312E1,1.6908838E1,3.7357574E2,8.1058784E1,1.2930777E2,8.333084E1,4.36953E1,1.5234367E1,3.2183743E1,2.790077E1,3.0959965E1,3.781369E1,2.7451353E1,2.1453283E1,2.4942488E1,3.3078387E2,2.4642253E2,3.6124798E1,4.4933983E1,1.13078705E2,1.622906E1,1.5719167E1,6.761167E1,2.7966389E1,1.5728914E1,9.895266E1,1.4746986E2,1.7227444E1,2.770654E1],"tree_param":{"num_deleted":"0","num_feature":"116","num_nodes":"49","size_leaf_vector":"1"}},{"base_weights":[1.2898632E-2,4.631565E-1,-5.361936E-1,6.923032E-1,-4.3047562E-1,-8.5713327E-1,4.4484338E-1,9.386478E-1,-2.6448257E-2,1.6769141E-1,-7.874867E-1,-1.17968485E-1,-1.0804099E0,8.5503757E-1,-0E0,3.005864E-1,1.0896989E0,-4.208087E-1,3.9074194E-1,-0E0,1.042084E-2,-0E0,-9.159329E-1,5.953189E-2,-9.700121E-3,-1.745083E-2,-6.4001167E-1,9.60392E-1,-0E0,-8.153137E-3,1.9185363E-1,5.5382425E-1,-0E0,1.8025009E-2,6.987912E-1,-5.895018E-1,-0E0,5.992225E-1,-0E0,-1.5193529E-2,-0E0,-0E0,8.583914E-3,-9.68677E-4,-1.2282705E-2,1.546847E-2,-0E0,-0E0,7.2888783E-3,9.000369E-3,-0E0,-2.5260488E-3,-0E0,1.0867976E-2,-0E0,-1.01630185E-2,-0E0,-0E0,1.0271973E-2,1.981363E-3,-2.3092343E-3,-2.982802E-3,-0E0],"categories":[],"categories_nodes":[],"categories_segments":[],"categories_sizes":[],"default_left":[0,0,0,0,0,0,0,0,0,0,0,0,0,0,0,0,0,0,0,0,0,0,0,0,0,0,0,0,0,0,0,0,0,0,0,0,0,0,0,0,0,0,0,0,0,0,0,0,0,0,0,0,0,0,0,0,0,0,0,0,0,0,0],"id":14,"left_children":[1,3,5,7,9,11,13,15,17,19,21,23,25,27,29,31,33,35,37,-1,-1,-1,39,41,-1,-1,43,45,-1,-1,47,49,51,-1,53,55,-1,57,-1,-1,-1,59,-1,61,-1,-1,-1,-1,-1,-1,-1,-1,-1,-1,-1,-1,-1,-1,-1,-1,-1,-1,-1],"loss_changes":[4.102643E2,1.920368E2,2.3769106E2,1.3995071E2,4.4805767E1,8.206427E1,3.9159195E1,4.0746185E1,3.0797363E1,9.894396E0,6.661728E0,2.0624035E1,1.2702484E1,4.053688E0,1.2225768E1,1.3464055E1,1.4665466E1,9.246431E0,8.176157E0,0E0,0E0,0E0,1.3126579E1,7.245887E0,0E0,0E0,1.34244E1,6.8696136E0,0E0,0E0,3.7554512E0,2.400507E0,8.8097394E-1,0E0,8.667061E0,4.8431435E0,0E0,2.1239014E0,0E0,0E0,0E0,2.1638336E0,0E0,1.5095552E0,0E0,0E0,0E0,0E0,0E0,0E0,0E0,0E0,0E0,0E0,0E0,0E0,0E0,0E0,0E0,0E0,0E0,0E0,0E0],"parents":[2147483647,0,0,1,1,2,2,3,3,4,4,5,5,6,6,7,7,8,8,9,9,10,10,11,11,12,12,13,13,14,14,15,15,16,16,17,17,18,18,22,22,23,23,26,26,27,27,30,30,31,31,32,32,34,34,35,35,37,37,41,41,43,43],"right_children":[2,4,6,8,10,12,14,16,18,20,22,24,26,28,30,32,34,36,38,-1,-1,-1,40,42,-1,-1,44,46,-1,-1,48,50,52,-1,54,56,-1,58,-1,-1,-1,60,-1,62,-1,-1,-1,-1,-1,-1,-1,-1,-1,-1,-1,-1,-1,-1,-1,-1,-1,-1,-1],"split_conditions":[6E0,5E0,4E0,5E0,3E0,5E0,2E0,5.6E-1,3E0,3.61E0,-4.4E-1,1E0,3.81E0,1.2E1,3.1E0,3E0,3E0,5.4907537E-1,2E0,-0E0,1.042084E-2,-0E0,1.8E-1,2E0,-9.700121E-3,-1.745083E-2,7E0,7E0,-0E0,-8.153137E-3,3E0,5E0,1.5E1,1.8025009E-2,1E0,1.43E0,-0E0,-3.8E-1,-0E0,-1.5193529E-2,-0E0,1E0,8.583914E-3,1E0,-1.2282705E-2,1.546847E-2,-0E0,-0E0,7.2888783E-3,9.000369E-3,-0E0,-2.5260488E-3,-0E0,1.0867976E-2,-0E0,-1.01630185E-2,-0E0,-0E0,1.0271973E-2,1.981363E-3,-2.3092343E-3,-2.982802E-3,-0E0],"split_indices":[114,55,49,99,99,99,55,84,49,91,115,96,91,54,91,99,99,64,55,0,0,0,69,97,0,0,99,99,0,0,97,63,60,0,96,67,0,69,0,0,0,55,0,71,0,0,0,0,0,0,0,0,0,0,0,0,0,0,0,0,0,0,0],"split_type":[0,0,0,0,0,0,0,0,0,0,0,0,0,0,0,0,0,0,0,0,0,0,0,0,0,0,0,0,0,0,0,0,0,0,0,0,0,0,0,0,0,0,0,0,0,0,0,0,0,0,0,0,0,0,0,0,0,0,0,0,0,0,0],"sum_hessian":[1.6567738E3,9.1964124E2,7.3713257E2,7.405288E2,1.7911243E2,5.6266547E2,1.7446709E2,5.603214E2,1.802074E2,5.7953453E1,1.2115897E2,1.4092455E2,4.217409E2,9.884481E1,7.562227E1,1.20302956E2,4.400185E2,1.0383126E2,7.637613E1,3.9858627E1,1.8094828E1,2.4352365E1,9.680661E1,9.759753E1,4.3327023E1,2.851878E2,1.3655313E2,8.219083E1,1.6653986E1,2.7628836E1,4.7993435E1,7.745706E1,4.284589E1,2.7012277E2,1.6989569E2,7.821072E1,2.562055E1,5.3716404E1,2.2659723E1,7.8637985E1,1.816862E1,8.0212E1,1.7385532E1,4.8467796E1,8.8085335E1,6.6482056E1,1.5708769E1,3.0098377E1,1.7895058E1,6.2049843E1,1.540722E1,2.4168453E1,1.8677439E1,1.5023505E2,1.9660648E1,5.932822E1,1.8882494E1,1.5182101E1,3.8534306E1,2.2658916E1,5.755308E1,3.0311277E1,1.8156519E1],"tree_param":{"num_deleted":"0","num_feature":"116","num_nodes":"63","size_leaf_vector":"1"}},{"base_weights":[2.1412475E-3,-4.7228095E-1,6.6238904E-1,-9.2483467E-1,9.181653E-2,-2.7841142E-1,8.572101E-1,-0E0,-1.0273235E0,5.18185E-1,-4.8642862E-1,-6.781639E-1,7.058372E-3,9.696447E-1,-1.6005987E-1,-2.4023186E-3,5.4296325E-3,-1.746976E-2,-5.984262E-1,-1.7305982E-1,8.1655866E-1,-9.261613E-1,-0E0,-1.1895911E-2,-0E0,6.375935E-1,1.1715915E0,-7.2249323E-3,-0E0,-6.2408075E-2,-7.5100917E-1,-5.2120656E-1,1.3104373E-3,9.1174185E-1,1.1840654E-3,-1.4704977E-2,-9.688817E-4,2.8422388E-1,-2.7558638E-3,1.407793E-1,9.620674E-1,1.6906003E-2,-0E0,-5.797634E-3,-0E0,-0E0,-1.3645559E-2,-0E0,-1.0768985E-2,-0E0,1.421404E-2,6.352775E-3,-0E0,6.561645E-3,-3.104106E-3,1.5851013E-2,1.251074E-3],"categories":[],"categories_nodes":[],"categories_segments":[],"categories_sizes":[],"default_left":[0,0,0,0,0,0,0,0,0,0,0,0,0,0,0,0,0,0,0,0,0,0,0,0,0,0,0,0,0,0,0,0,0,0,0,0,0,0,0,0,0,0,0,0,0,0,0,0,0,0,0,0,0,0,0,0,0],"id":15,"left_children":[1,3,5,7,9,11,13,15,17,19,21,23,-1,25,27,-1,-1,-1,29,31,33,35,37,-1,-1,39,41,-1,-1,43,45,47,-1,49,-1,-1,-1,51,-1,53,55,-1,-1,-1,-1,-1,-1,-1,-1,-1,-1,-1,-1,-1,-1,-1,-1],"loss_changes":[5.19224E2,2.5116899E2,1.3397525E2,5.514154E1,1.0397638E2,3.8200882E1,7.497745E1,4.5716963E0,2.8474915E1,5.7964203E1,4.2975113E1,5.748535E0,0E0,1.7603638E1,5.842476E0,0E0,0E0,0E0,7.809387E0,1.0396875E1,3.6046982E0,2.633667E-1,5.0119095E0,0E0,0E0,2.6065926E1,5.9531555E0,0E0,0E0,4.665441E0,1.7578331E1,4.948784E0,0E0,1.1891235E1,0E0,0E0,0E0,2.498141E0,0E0,1.494887E1,7.6952515E0,0E0,0E0,0E0,0E0,0E0,0E0,0E0,0E0,0E0,0E0,0E0,0E0,0E0,0E0,0E0,0E0],"parents":[2147483647,0,0,1,1,2,2,3,3,4,4,5,5,6,6,7,7,8,8,9,9,10,10,11,11,13,13,14,14,18,18,19,19,20,20,21,21,22,22,25,25,26,26,29,29,30,30,31,31,33,33,37,37,39,39,40,40],"right_children":[2,4,6,8,10,12,14,16,18,20,22,24,-1,26,28,-1,-1,-1,30,32,34,36,38,-1,-1,40,42,-1,-1,44,46,48,-1,50,-1,-1,-1,52,-1,54,56,-1,-1,-1,-1,-1,-1,-1,-1,-1,-1,-1,-1,-1,-1,-1,-1],"split_conditions":[3E0,-5.33E0,5E0,5E0,6E0,-6.1E-1,3E0,1.3E1,6E0,5E0,6E0,8.519231E-1,7.058372E-3,6E0,6E0,-2.4023186E-3,5.4296325E-3,-1.746976E-2,2E0,-6.3E-1,5E0,7.6E1,3E0,-1.1895911E-2,-0E0,-8.728977E-1,1.19E1,-7.2249323E-3,-0E0,-7E-2,6E0,5E0,1.3104373E-3,4E0,1.1840654E-3,-1.4704977E-2,-9.688817E-4,7.8E1,-2.7558638E-3,6E0,6E0,1.6906003E-2,-0E0,-5.797634E-3,-0E0,-0E0,-1.3645559E-2,-0E0,-1.0768985E-2,-0E0,1.421404E-2,6.352775E-3,-0E0,6.561645E-3,-3.104106E-3,1.5851013E-2,1.251074E-3],"split_indices":[49,92,98,114,114,85,96,48,98,98,98,84,0,98,98,0,0,0,55,85,55,15,55,0,0,85,93,0,0,42,114,114,0,48,0,0,0,11,0,114,114,0,0,0,0,0,0,0,0,0,0,0,0,0,0,0,0],"split_type":[0,0,0,0,0,0,0,0,0,0,0,0,0,0,0,0,0,0,0,0,0,0,0,0,0,0,0,0,0,0,0,0,0,0,0,0,0,0,0,0,0,0,0,0,0,0,0,0,0,0,0,0,0,0,0,0,0],"sum_hessian":[1.6467723E3,9.5065967E2,6.9611273E2,5.3548126E2,4.1517838E2,1.1121815E2,5.848946E2,4.977023E1,4.8571103E2,2.4818292E2,1.6699544E2,8.1599655E1,2.9618492E1,5.34844E2,5.0050625E1,2.8371296E1,2.1398933E1,3.009266E2,1.8478444E2,6.597655E1,1.8220638E2,9.423789E1,7.275754E1,5.8449326E1,2.315033E1,2.2348027E2,3.113637E2,2.4116514E1,2.593411E1,5.4981686E1,1.2980276E2,4.2321487E1,2.3655064E1,1.4965251E2,3.255386E1,7.216637E1,2.207153E1,4.4347652E1,2.8409887E1,1.0087225E2,1.2260802E2,2.944635E2,1.6900192E1,2.5609652E1,2.9372034E1,3.61437E1,9.365906E1,1.621355E1,2.6107937E1,1.9090853E1,1.3056166E2,2.765367E1,1.6693983E1,6.557835E1,3.5293907E1,9.276653E1,2.9841478E1],"tree_param":{"num_deleted":"0","num_feature":"116","num_nodes":"57","size_leaf_vector":"1"}},{"base_weights":[1.3563714E-3,6.3925415E-1,-7.358316E-1,-3.0989105E-1,9.053136E-1,-1.207499E0,-1.1115082E-1,-7.0411915E-1,4.134606E-1,1.0141481E0,-4.5439184E-1,-4.7901028E-4,-1.7288411E-2,4.730035E-1,-3.9282903E-1,-1.1127226E-1,-1.4487053E-2,-0E0,1.1092561E-2,1.0616271E0,-0E0,-9.758025E-3,-0E0,7.2041166E-1,-6.9570483E-4,-8.077043E-1,8.715168E-2,-9.178272E-3,-0E0,-0E0,1.0946455E0,-0E0,1.3046958E-2,-1.2615187E-2,-0E0,-9.4728105E-2,1.0018146E-2,5.2437843E-3,-0E0,1.7832244E-2,1.1231225E-2,-4.622566E-3,-0E0],"categories":[],"categories_nodes":[],"categories_segments":[],"categories_sizes":[],"default_left":[0,0,0,0,0,0,0,0,0,0,0,0,0,0,0,0,0,0,0,0,0,0,0,0,0,0,0,0,0,0,0,0,0,0,0,0,0,0,0,0,0,0,0],"id":16,"left_children":[1,3,5,7,9,11,13,15,17,19,21,-1,-1,23,25,27,-1,-1,-1,29,-1,-1,-1,31,-1,33,35,-1,37,-1,39,-1,-1,-1,-1,41,-1,-1,-1,-1,-1,-1,-1],"loss_changes":[7.7790063E2,2.3203491E2,2.1206454E2,5.769419E1,1.1090753E2,4.602234E0,5.552916E1,1.5516235E1,1.115429E1,3.4576782E1,4.691905E0,0E0,0E0,1.9253918E1,5.4651188E1,9.264795E0,0E0,0E0,0E0,2.3346313E1,0E0,0E0,0E0,6.443325E0,0E0,5.663231E0,1.7775446E1,0E0,2.8851035E0,0E0,1.1151428E1,0E0,0E0,0E0,0E0,4.064701E0,0E0,0E0,0E0,0E0,0E0,0E0,0E0],"parents":[2147483647,0,0,1,1,2,2,3,3,4,4,5,5,6,6,7,7,8,8,9,9,10,10,13,13,14,14,15,15,19,19,23,23,25,25,26,26,28,28,30,30,35,35],"right_children":[2,4,6,8,10,12,14,16,18,20,22,-1,-1,24,26,28,-1,-1,-1,30,-1,-1,-1,32,-1,34,36,-1,38,-1,40,-1,-1,-1,-1,42,-1,-1,-1,-1,-1,-1,-1],"split_conditions":[5E0,5E0,6E0,-6.3897765E-1,4E0,5E0,6E0,3E0,6.7686427E-1,2E0,6.8E-1,-4.7901028E-4,-1.7288411E-2,5E0,-5.76E0,4.7025496E-1,-1.4487053E-2,-0E0,1.1092561E-2,3.2705563E-1,-0E0,-9.758025E-3,-0E0,2E0,-6.9570483E-4,4E0,4E0,-9.178272E-3,5E0,-0E0,3E0,-0E0,1.3046958E-2,-1.2615187E-2,-0E0,8E0,1.0018146E-2,5.2437843E-3,-0E0,1.7832244E-2,1.1231225E-2,-4.622566E-3,-0E0],"split_indices":[99,98,98,85,96,114,114,99,84,56,84,0,0,55,92,84,0,0,0,84,0,0,0,49,0,49,49,0,114,0,99,0,0,0,0,48,0,0,0,0,0,0,0],"split_type":[0,0,0,0,0,0,0,0,0,0,0,0,0,0,0,0,0,0,0,0,0,0,0,0,0,0,0,0,0,0,0,0,0,0,0,0,0,0,0,0,0,0,0],"sum_hessian":[1.6507688E3,8.91785E2,7.589838E2,1.8767041E2,7.0411456E2,4.2274707E2,3.3623676E2,1.2965169E2,5.8018723E1,6.587505E2,4.5364067E1,1.9143587E1,4.036035E2,9.829623E1,2.3794055E2,5.7899406E1,7.175227E1,2.6680588E1,3.1338135E1,6.3159186E2,2.7158674E1,2.7151493E1,1.8212572E1,7.784775E1,2.0448477E1,1.3681273E2,1.01127815E2,2.0440653E1,3.7458755E1,1.8201828E1,6.1339E2,2.5451542E1,5.2396206E1,1.15365295E2,2.1447437E1,6.9091446E1,3.2036366E1,1.7728153E1,1.9730602E1,3.495737E2,2.638163E2,4.0160408E1,2.893104E1],"tree_param":{"num_deleted":"0","num_feature":"116","num_nodes":"43","size_leaf_vector":"1"}},{"base_weights":[-6.206725E-3,5.97073E-1,-7.255509E-1,7.432714E-1,-5.550109E-1,-1.7648225E-1,-1.0309628E0,-1.541433E-1,9.825117E-1,-1.3877163E-2,2.8826287E-3,-8.7119055E-1,3.995161E-1,-1.810475E-2,-5.6825167E-1,2.9663867E-1,-9.060499E-1,1.7216384E-2,6.125135E-1,-1.4086673E-2,-0E0,-1.4692146E-1,8.1594414E-1,-0E0,-1.3405183E-2,-2.2195582E-3,5.442024E-1,-1.5434702E-2,-0E0,1.0673836E-1,9.180257E-1,-5.912411E-3,-0E0,1.4212612E-2,1.6510866E-6,-3.3751893E-1,3.3395225E-1,1.1955354E-2,-0E0,8.21033E-3,-8.69106E-4,-0E0,1.4058995E-2,-0E0,-6.0770763E-3,6.5918495E-3,-0E0],"categories":[],"categories_nodes":[],"categories_segments":[],"categories_sizes":[],"default_left":[0,0,0,0,0,0,0,0,0,0,0,0,0,0,0,0,0,0,0,0,0,0,0,0,0,0,0,0,0,0,0,0,0,0,0,0,0,0,0,0,0,0,0,0,0,0,0],"id":17,"left_children":[1,3,5,7,9,11,13,15,17,-1,-1,19,21,-1,23,25,27,-1,29,-1,-1,31,33,35,-1,-1,37,-1,-1,39,41,-1,-1,-1,-1,43,45,-1,-1,-1,-1,-1,-1,-1,-1,-1,-1],"loss_changes":[7.166684E2,1.5269086E2,1.1579721E2,1.7921964E2,3.950363E1,1.192992E2,4.0091248E1,6.1240116E1,4.0811584E1,0E0,0E0,1.7625626E1,4.0657642E1,0E0,4.1797974E1,1.4549703E1,6.87307E0,0E0,3.349608E1,0E0,0E0,6.159623E0,6.553234E0,9.580938E0,0E0,0E0,1.1035622E1,0E0,0E0,1.460528E1,6.276184E0,0E0,0E0,0E0,0E0,3.686762E-1,9.768224E-1,0E0,0E0,0E0,0E0,0E0,0E0,0E0,0E0,0E0,0E0],"parents":[2147483647,0,0,1,1,2,2,3,3,4,4,5,5,6,6,7,7,8,8,11,11,12,12,14,14,15,15,16,16,18,18,21,21,22,22,23,23,26,26,29,29,30,30,35,35,36,36],"right_children":[2,4,6,8,10,12,14,16,18,-1,-1,20,22,-1,24,26,28,-1,30,-1,-1,32,34,36,-1,-1,38,-1,-1,40,42,-1,-1,-1,-1,44,46,-1,-1,-1,-1,-1,-1,-1,-1,-1,-1],"split_conditions":[5E0,3E0,2E0,5E0,6E0,6E0,6E0,3E0,3E0,-1.3877163E-2,2.8826287E-3,5E0,2E0,-1.810475E-2,7E0,4.7025496E-1,8.4210527E-1,1.7216384E-2,6E0,-1.4086673E-2,-0E0,-4.67E0,8E0,3E0,-1.3405183E-2,-2.2195582E-3,5E0,-1.5434702E-2,-0E0,1E0,2.5E-1,-5.912411E-3,-0E0,1.4212612E-2,1.6510866E-6,1E0,3E-3,1.1955354E-2,-0E0,8.21033E-3,-8.69106E-4,-0E0,1.4058995E-2,-0E0,-6.0770763E-3,6.5918495E-3,-0E0],"split_indices":[99,96,55,98,98,98,98,99,99,0,0,49,49,0,99,84,84,0,98,0,0,92,99,91,0,0,114,0,0,55,83,0,0,0,0,27,88,0,0,0,0,0,0,0,0,0,0],"split_type":[0,0,0,0,0,0,0,0,0,0,0,0,0,0,0,0,0,0,0,0,0,0,0,0,0,0,0,0,0,0,0,0,0,0,0,0,0,0,0,0,0,0,0,0,0,0,0],"sum_hessian":[1.6434287E3,8.8719336E2,7.562353E2,7.951295E2,9.206381E1,2.8243973E2,4.737956E2,1.5955618E2,6.3557336E2,6.538142E1,2.66824E1,1.3456468E2,1.4787505E2,2.8462415E2,1.8917143E2,9.3199554E1,6.6356636E1,3.594676E2,2.7610574E2,1.16598206E2,1.7966476E1,5.525539E1,9.261966E1,7.964185E1,1.0952958E2,2.0208097E1,7.2991455E1,4.9163727E1,1.7192911E1,1.1653609E2,1.5956966E2,3.8531284E1,1.6724104E1,6.467064E1,2.7949018E1,4.127086E1,3.8371E1,4.28054E1,3.0186054E1,4.2498882E1,7.403721E1,2.163477E1,1.3793489E2,1.5657209E1,2.5613651E1,2.2172773E1,1.6198223E1],"tree_param":{"num_deleted":"0","num_feature":"116","num_nodes":"47","size_leaf_vector":"1"}},{"base_weights":[-0E0,-5.4741573E-1,6.629361E-1,-8.1434345E-1,8.366108E-2,3.1317985E-1,1.0407077E0,9.548992E-2,-9.334892E-1,4.5286804E-1,-2.9391587E-1,6.335017E-1,-1.9073233E-1,-0E0,1.0691725E0,-1.5752426E-1,8.174124E-3,-1.1639512E0,-4.994522E-1,-6.3832146E-3,7.6733804E-1,-1.2580913E-2,1.3687345E-1,-1.8834768E-2,8.824228E-1,-7.022379E-1,2.3098335E-1,-0E0,1.6855357E-2,-4.8612854E-3,-0E0,-1.6789263E-1,-1.7142488E-2,-0E0,-9.3080765E-1,-0E0,8.7956905E-1,-3.8942073E-3,4.7242266E-1,1.5168346E-1,-8.475868E-3,9.864537E-1,-0E0,-0E0,-1.1779832E-2,9.168565E-3,-0E0,5.5383225E-3,-3.1445308E-3,-4.3611075E-3,-0E0,-5.8035604E-3,2.5450718E-3,-1.4210713E-2,-0E0,1.5207179E-2,3.4602394E-3,9.512181E-3,-0E0,-0E0,5.6729033E-3,1.51424715E-2,1.1069654E-3,-2.2814218E-3,-0E0],"categories":[],"categories_nodes":[],"categories_segments":[],"categories_sizes":[],"default_left":[0,0,0,0,0,0,0,0,0,0,0,0,0,0,0,0,0,0,0,0,0,0,0,0,0,0,0,0,0,0,0,0,0,0,0,0,0,0,0,0,0,0,0,0,0,0,0,0,0,0,0,0,0,0,0,0,0,0,0,0,0,0,0,0,0],"id":18,"left_children":[1,3,5,7,9,11,13,15,17,19,21,23,25,-1,27,29,-1,31,33,-1,35,-1,37,39,41,43,45,47,-1,-1,-1,49,-1,51,53,-1,55,-1,57,59,-1,61,-1,-1,-1,-1,63,-1,-1,-1,-1,-1,-1,-1,-1,-1,-1,-1,-1,-1,-1,-1,-1,-1,-1],"loss_changes":[6.038749E2,1.5995822E2,8.6473236E1,7.823453E1,3.8393456E1,7.019385E1,2.0076294E0,1.2684159E1,4.165677E1,4.5549152E1,3.8545143E1,5.0285736E1,3.6976032E1,0E0,3.8995544E1,1.5358968E0,0E0,1.0660004E1,3.978025E1,0E0,8.9123E0,0E0,1.0956969E1,1.0886608E1,1.314534E1,5.3302956E0,1.1962255E1,6.1058726E0,0E0,0E0,0E0,8.7728626E-1,0E0,1.0798269E1,6.3951874E-1,0E0,5.0927734E-1,0E0,3.4252138E0,2.6848643E0,0E0,4.812317E0,0E0,0E0,0E0,0E0,6.1913395E-1,0E0,0E0,0E0,0E0,0E0,0E0,0E0,0E0,0E0,0E0,0E0,0E0,0E0,0E0,0E0,0E0,0E0,0E0],"parents":[2147483647,0,0,1,1,2,2,3,3,4,4,5,5,6,6,7,7,8,8,9,9,10,10,11,11,12,12,14,14,15,15,17,17,18,18,20,20,22,22,23,23,24,24,25,25,26,26,27,27,31,31,33,33,34,34,36,36,38,38,39,39,41,41,46,46],"right_children":[2,4,6,8,10,12,14,16,18,20,22,24,26,-1,28,30,-1,32,34,-1,36,-1,38,40,42,44,46,48,-1,-1,-1,50,-1,52,54,-1,56,-1,58,60,-1,62,-1,-1,-1,-1,64,-1,-1,-1,-1,-1,-1,-1,-1,-1,-1,-1,-1,-1,-1,-1,-1,-1,-1],"split_conditions":[-4.57E0,3E0,4E0,5E0,6E0,6E0,1.2E-1,5.6E-1,6E0,5E0,6E0,5E0,6E0,-0E0,5E0,1E1,8.174124E-3,3E0,7E0,-6.3832146E-3,4.8E-1,-1.2580913E-2,-7.31E0,3E0,1E0,4E0,6E0,3E0,1.6855357E-2,-4.8612854E-3,-0E0,9.2E-1,-1.7142488E-2,2.2640362E0,9.160305E-1,-0E0,5E0,-3.8942073E-3,7E0,3.9E0,-8.475868E-3,5E0,-0E0,-0E0,-1.1779832E-2,9.168565E-3,1E0,5.5383225E-3,-3.1445308E-3,-4.3611075E-3,-0E0,-5.8035604E-3,2.5450718E-3,-1.4210713E-2,-0E0,1.5207179E-2,3.4602394E-3,9.512181E-3,-0E0,-0E0,5.6729033E-3,1.51424715E-2,1.1069654E-3,-2.2814218E-3,-0E0],"split_indices":[92,49,49,114,114,114,46,84,98,98,98,98,98,0,98,48,0,99,99,0,84,0,92,99,96,99,99,99,0,0,0,67,0,91,84,0,99,0,99,91,0,99,0,0,0,0,76,0,0,0,0,0,0,0,0,0,0,0,0,0,0,0,0,0,0],"split_type":[0,0,0,0,0,0,0,0,0,0,0,0,0,0,0,0,0,0,0,0,0,0,0,0,0,0,0,0,0,0,0,0,0,0,0,0,0,0,0,0,0,0,0,0,0,0,0,0,0,0,0,0,0,0,0,0,0,0,0,0,0,0,0,0,0],"sum_hessian":[1.6579432E3,9.063966E2,7.5154663E2,6.4655707E2,2.5983948E2,4.0527032E2,3.462763E2,6.6089096E1,5.80468E2,1.43284E2,1.1655549E2,2.5838403E2,1.468863E2,1.6576159E1,3.2970013E2,3.257961E1,3.3509483E1,3.625415E2,2.179265E2,2.9042253E1,1.1424175E2,5.5850433E1,6.0705055E1,6.1953983E1,1.9643004E2,7.532054E1,7.156576E1,4.5804993E1,2.8389514E2,1.7159271E1,1.5420339E1,3.1599777E1,3.309417E2,1.1116291E2,1.0676359E2,1.6410027E1,9.783172E1,1.5198695E1,4.550636E1,3.7611374E1,2.4342613E1,1.7016086E2,2.6269178E1,1.6661575E1,5.8658966E1,3.4147316E1,3.741844E1,3.0102589E1,1.5702402E1,1.6169859E1,1.5429917E1,4.6740253E1,6.442265E1,8.9186905E1,1.7576683E1,6.105656E1,3.677516E1,2.7783867E1,1.7722494E1,1.8465082E1,1.914629E1,1.4379205E2,2.63688E1,2.04545E1,1.6963943E1],"tree_param":{"num_deleted":"0","num_feature":"116","num_nodes":"65","size_leaf_vector":"1"}},{"base_weights":[9.04341E-4,6.1368984E-1,-7.002732E-1,-2.875799E-1,8.645172E-1,-1.1452659E0,-1.1400025E-1,-0E0,-1.3513911E-2,9.6198225E-1,-4.001827E-1,-1.200005E0,-2.5852872E-3,-5.234109E-1,4.8481533E-1,4.6051043E-1,-1.1502139E-2,1.6682649E-2,6.201555E-1,-7.982685E-3,-0E0,-0E0,-1.7186722E-2,-0E0,-8.2836765E-1,1.1433791E-2,-0E0,1.0896989E-2,-0E0,1.7020911E-1,8.948421E-1,-1.8157072E-1,1.4573587E-1,-1.2759095E-2,-0E0,-0E0,-2.5638624E-3,-7.930749E-4,7.4505704E-3,4.102794E-3,1.6324986E-2,-5.971636E-3,-0E0,-0E0,4.7659124E-3],"categories":[],"categories_nodes":[],"categories_segments":[],"categories_sizes":[],"default_left":[0,0,0,0,0,0,0,0,0,0,0,0,0,0,0,0,0,0,0,0,0,0,0,0,0,0,0,0,0,0,0,0,0,0,0,0,0,0,0,0,0,0,0,0,0],"id":19,"left_children":[1,3,5,7,9,11,13,15,-1,17,19,21,-1,23,25,27,-1,-1,29,-1,-1,-1,-1,31,33,-1,35,-1,-1,37,39,41,43,-1,-1,-1,-1,-1,-1,-1,-1,-1,-1,-1,-1],"loss_changes":[7.080408E2,2.0648389E2,1.8711295E2,2.9398407E1,9.27442E1,9.103577E0,8.456971E1,5.7785233E1,0E0,3.44469E1,2.641872E0,6.4506836E0,0E0,3.009832E1,2.7010208E1,1.3862621E1,0E0,0E0,2.574366E1,0E0,0E0,0E0,0E0,2.5279148E0,4.949478E0,0E0,6.723828E-1,0E0,0E0,1.4824989E1,1.3434814E1,4.740366E0,1.6009748E0,0E0,0E0,0E0,0E0,0E0,0E0,0E0,0E0,0E0,0E0,0E0,0E0],"parents":[2147483647,0,0,1,1,2,2,3,3,4,4,5,5,6,6,7,7,9,9,10,10,11,11,13,13,14,14,15,15,18,18,23,23,24,24,26,26,29,29,30,30,31,31,32,32],"right_children":[2,4,6,8,10,12,14,16,-1,18,20,22,-1,24,26,28,-1,-1,30,-1,-1,-1,-1,32,34,-1,36,-1,-1,38,40,42,44,-1,-1,-1,-1,-1,-1,-1,-1,-1,-1,-1,-1],"split_conditions":[5E0,5E0,6E0,1E0,4E0,5E0,3E0,3E0,-1.3513911E-2,3E0,6.6090715E-1,5E0,-2.5852872E-3,7E0,8E0,5E0,-1.1502139E-2,1.6682649E-2,3E0,-7.982685E-3,-0E0,-0E0,-1.7186722E-2,1E0,3E0,1.1433791E-2,9E0,1.0896989E-2,-0E0,6E0,6E0,9.642857E1,8E0,-1.2759095E-2,-0E0,-0E0,-2.5638624E-3,-7.930749E-4,7.4505704E-3,4.102794E-3,1.6324986E-2,-5.971636E-3,-0E0,-0E0,4.7659124E-3],"split_indices":[99,98,98,96,96,49,49,99,0,99,65,114,0,99,99,114,0,0,49,0,0,0,0,100,100,0,99,0,0,98,98,106,48,0,0,0,0,0,0,0,0,0,0,0,0],"split_type":[0,0,0,0,0,0,0,0,0,0,0,0,0,0,0,0,0,0,0,0,0,0,0,0,0,0,0,0,0,0,0,0,0,0,0,0,0,0,0,0,0,0,0,0,0],"sum_hessian":[1.6443734E3,8.84594E2,7.597794E2,1.8461063E2,6.999834E2,4.2167303E2,3.3810638E2,1.3950879E2,4.510183E1,6.571656E2,4.281779E1,3.893291E2,3.2343937E1,2.1002956E2,1.2807684E2,8.441583E1,5.5092953E1,3.698963E2,2.872693E2,2.7606632E1,1.5211158E1,1.6380077E1,3.7294904E2,8.391274E1,1.2611681E2,8.316867E1,4.4908176E1,5.0247E1,3.4168835E1,1.2307818E2,1.6419112E2,5.1274876E1,3.2637863E1,1.08733154E2,1.738366E1,2.7692026E1,1.7216152E1,6.1818417E1,6.1259766E1,6.383176E1,1.0035935E2,3.286123E1,1.8413645E1,1.5187884E1,1.744998E1],"tree_param":{"num_deleted":"0","num_feature":"116","num_nodes":"45","size_leaf_vector":"1"}},{"base_weights":[-0E0,5.863203E-1,-6.9336724E-1,-2.9933172E-1,8.340996E-1,-1.1412997E0,-1.0204786E-1,-6.53499E-1,4.3679285E-1,-0E0,9.731299E-1,-0E0,-1.6258305E-2,-5.204133E-1,3.4689766E-1,-8.889244E-1,-0E0,9.9612195E-3,-0E0,2.8318602E-1,-6.0837944E-3,1.1872703E0,6.2506896E-1,-0E0,-7.403838E-1,7.391332E-1,-7.121418E-2,-0E0,-1.362085E-2,4.1284968E-4,-3.8211239E-3,-0E0,4.627181E-1,2.2429014E-5,1.7026065E-2,-0E0,7.371066E-1,-3.9349095E-4,2.3604652E-3,-1.2624321E-2,-0E0,-0E0,8.2973844E-1,-2.0063348E-1,-0E0,1.0972305E-2,-0E0,2.0899822E-3,1.4592129E-2,1.331227E-2,-0E0,-0E0,-6.076539E-3],"categories":[],"categories_nodes":[],"categories_segments":[],"categories_sizes":[],"default_left":[0,0,0,0,0,0,0,0,0,0,0,0,0,0,0,0,0,0,0,0,0,0,0,0,0,0,0,0,0,0,0,0,0,0,0,0,0,0,0,0,0,0,0,0,0,0,0,0,0,0,0,0,0],"id":20,"left_children":[1,3,5,7,9,11,13,15,17,19,21,-1,-1,23,25,27,29,-1,-1,31,-1,33,35,37,39,41,43,-1,-1,-1,-1,-1,45,-1,-1,-1,47,-1,-1,-1,-1,-1,49,51,-1,-1,-1,-1,-1,-1,-1,-1,-1],"loss_changes":[6.712279E2,2.0196933E2,1.8864893E2,5.216892E1,7.604001E1,3.5396729E0,6.545929E1,1.5667259E1,7.3645964E0,1.2998479E1,2.6309204E1,0E0,0E0,2.4915386E1,3.1459562E1,5.3852844E-1,1.9015074E0,0E0,0E0,6.334215E0,0E0,3.1262512E0,1.9191261E1,9.430293E-1,1.2563194E1,2.118782E0,1.3289416E0,0E0,0E0,0E0,0E0,0E0,1.2448093E1,0E0,0E0,0E0,2.7883316E1,0E0,0E0,0E0,0E0,0E0,2.694027E0,2.2498255E0,0E0,0E0,0E0,0E0,0E0,0E0,0E0,0E0,0E0],"parents":[2147483647,0,0,1,1,2,2,3,3,4,4,5,5,6,6,7,7,8,8,9,9,10,10,13,13,14,14,15,15,16,16,19,19,21,21,22,22,23,23,24,24,25,25,26,26,32,32,36,36,42,42,43,43],"right_children":[2,4,6,8,10,12,14,16,18,20,22,-1,-1,24,26,28,30,-1,-1,32,-1,34,36,38,40,42,44,-1,-1,-1,-1,-1,46,-1,-1,-1,48,-1,-1,-1,-1,-1,50,52,-1,-1,-1,-1,-1,-1,-1,-1,-1],"split_conditions":[5E0,5E0,6E0,-6.1E-1,-6.17E0,8E1,-5.73E0,3.94E0,5E0,6E0,3E0,-0E0,-1.6258305E-2,6E0,7E0,6.257143E1,3E0,9.9612195E-3,-0E0,1.17E0,-6.0837944E-3,1.64E0,2.55E0,2.23E0,3.7872543E0,3.18E0,9.725E1,-0E0,-1.362085E-2,4.1284968E-4,-3.8211239E-3,-0E0,4E0,2.2429014E-5,1.7026065E-2,-0E0,6E0,-3.9349095E-4,2.3604652E-3,-1.2624321E-2,-0E0,-0E0,3E0,2E0,-0E0,1.0972305E-2,-0E0,2.0899822E-3,1.4592129E-2,1.331227E-2,-0E0,-0E0,-6.076539E-3],"split_indices":[99,98,98,85,92,0,92,91,114,114,99,0,0,114,99,105,99,0,0,91,0,91,91,91,91,91,106,0,0,0,0,0,55,0,0,0,98,0,0,0,0,0,55,55,0,0,0,0,0,0,0,0,0],"split_type":[0,0,0,0,0,0,0,0,0,0,0,0,0,0,0,0,0,0,0,0,0,0,0,0,0,0,0,0,0,0,0,0,0,0,0,0,0,0,0,0,0,0,0,0,0,0,0,0,0,0,0,0,0],"sum_hessian":[1.6459315E3,8.925092E2,7.5342236E2,1.8696756E2,7.055416E2,4.18528E2,3.3489432E2,1.3477544E2,5.2192123E1,1.07608215E2,5.979334E2,1.5245094E1,4.0328293E2,1.8361612E2,1.5127821E2,9.144419E1,4.3331245E1,3.225819E1,1.9933933E1,7.452014E1,3.3088074E1,3.5003503E2,2.4789839E2,4.879274E1,1.3482338E2,8.822128E1,6.3056923E1,1.5651213E1,7.579298E1,2.0960634E1,2.2370613E1,1.8689259E1,5.5830883E1,1.7313398E1,3.3272165E2,3.505812E1,2.1284026E2,1.917036E1,2.962238E1,1.0455408E2,3.0269308E1,1.5687171E1,7.253411E1,3.8631878E1,2.4425049E1,3.7647118E1,1.8183767E1,8.4990524E1,1.2784974E2,5.7062485E1,1.5471628E1,2.0704584E1,1.7927294E1],"tree_param":{"num_deleted":"0","num_feature":"116","num_nodes":"53","size_leaf_vector":"1"}},{"base_weights":[-0E0,-5.139456E-1,6.356987E-1,7.5964354E-2,-8.6258334E-1,-2.1011001E-1,8.3271927E-1,3.161555E-1,-1.1768626E-2,-9.936132E-1,-2.9821685E-2,2.4274826E-1,-1.2256766E-2,1.0596161E0,3.253582E-2,-4.2612627E-1,5.858843E-1,-1.6700266E-2,-6.1993444E-1,-8.424869E-3,2.4973463E-1,5.222814E-1,-0E0,1.5401434E-2,-0E0,-5.519966E-1,4.6822393E-1,-0E0,-1.1765023E-2,8.3126867E-1,-8.850057E-2,-1.2589181E-2,-1.243366E-2,-0E0,7.421243E-3,9.191107E-3,-0E0,-0E0,-9.725113E-3,1.0625961E-2,-0E0,1.4050846E-2,2.0445676E-3,-5.035047E-3,-0E0,-5.7662763E-3,1.0766892E-3,-0E0,-1.3511769E-3],"categories":[],"categories_nodes":[],"categories_segments":[],"categories_sizes":[],"default_left":[0,0,0,0,0,0,0,0,0,0,0,0,0,0,0,0,0,0,0,0,0,0,0,0,0,0,0,0,0,0,0,0,0,0,0,0,0,0,0,0,0,0,0,0,0,0,0,0,0],"id":21,"left_children":[1,3,5,7,9,11,13,15,-1,17,19,21,-1,23,25,27,29,-1,31,-1,33,35,-1,-1,-1,37,39,-1,-1,41,43,45,-1,-1,-1,-1,-1,-1,-1,-1,47,-1,-1,-1,-1,-1,-1,-1,-1],"loss_changes":[5.3547986E2,1.952525E2,1.2741318E2,6.932716E1,5.4363434E1,4.602456E1,9.883505E1,5.6814972E1,0E0,1.9315857E1,1.8339493E1,7.5177236E0,0E0,2.261444E1,3.661304E1,1.479972E1,4.1782135E1,0E0,2.4180573E1,0E0,7.304632E0,1.778059E-1,0E0,0E0,0E0,1.9430065E0,1.4335083E1,0E0,0E0,8.9991455E0,3.0182967E0,5.8017154E0,0E0,0E0,0E0,0E0,0E0,0E0,0E0,0E0,1.9131139E-1,0E0,0E0,0E0,0E0,0E0,0E0,0E0,0E0],"parents":[2147483647,0,0,1,1,2,2,3,3,4,4,5,5,6,6,7,7,9,9,10,10,11,11,13,13,14,14,15,15,16,16,18,18,20,20,21,21,25,25,26,26,29,29,30,30,31,31,40,40],"right_children":[2,4,6,8,10,12,14,16,-1,18,20,22,-1,24,26,28,30,-1,32,-1,34,36,-1,-1,-1,38,40,-1,-1,42,44,46,-1,-1,-1,-1,-1,-1,-1,-1,48,-1,-1,-1,-1,-1,-1,-1,-1],"split_conditions":[-4.529449E0,5E0,5E0,1E0,4E0,3E0,5E0,5E0,-1.1768626E-2,6E0,6E0,5E0,-1.2256766E-2,3E0,6E0,3E0,5E0,-1.6700266E-2,7E0,-8.424869E-3,-7.39E0,7.7333336E1,-0E0,1.5401434E-2,-0E0,1E0,7E0,-0E0,-1.1765023E-2,6E0,2.07E0,2.33481E0,-1.243366E-2,-0E0,7.421243E-3,9.191107E-3,-0E0,-0E0,-9.725113E-3,1.0625961E-2,1.16E2,1.4050846E-2,2.0445676E-3,-5.035047E-3,-0E0,-5.7662763E-3,1.0766892E-3,-0E0,-1.3511769E-3],"split_indices":[92,99,98,56,49,99,99,98,0,98,98,114,0,96,98,99,55,0,99,0,92,1,0,0,0,55,99,0,0,114,91,91,0,0,0,0,0,0,0,0,0,0,0,0,0,0,0,0,0],"split_type":[0,0,0,0,0,0,0,0,0,0,0,0,0,0,0,0,0,0,0,0,0,0,0,0,0,0,0,0,0,0,0,0,0,0,0,0,0,0,0,0,0,0,0,0,0,0,0,0,0],"sum_hessian":[1.6362455E3,9.110828E2,7.2516266E2,3.295203E2,5.8156256E2,1.2825102E2,5.969116E2,2.705332E2,5.8987103E1,4.926186E2,8.894395E1,6.939267E1,5.8858353E1,4.555194E2,1.4139218E2,6.2707905E1,2.0782529E2,2.989271E2,1.9369151E2,3.8747223E1,5.019672E1,4.0463505E1,2.8929163E1,4.3732816E2,1.8191265E1,5.1165493E1,9.022669E1,2.792589E1,3.4782017E1,1.6181212E2,4.6013165E1,7.1113045E1,1.2257847E2,1.5451677E1,3.474504E1,2.480875E1,1.5654753E1,1.6134706E1,3.5030785E1,5.7059834E1,3.3166862E1,1.1706465E2,4.474747E1,2.3397202E1,2.2615963E1,2.9781399E1,4.1331646E1,1.5464761E1,1.77021E1],"tree_param":{"num_deleted":"0","num_feature":"116","num_nodes":"49","size_leaf_vector":"1"}},{"base_weights":[-0E0,5.5993253E-1,-6.7699224E-1,7.0325357E-1,-5.569505E-1,-8.759598E-1,1.2146835E-1,-1.6575055E-1,9.3701696E-1,-1.297738E-2,8.1101776E-4,-1.170878E0,-4.131731E-1,-4.8663318E-1,6.407358E-1,2.505594E-1,-8.6005455E-1,1.1949456E0,5.6684834E-1,-1.686328E-2,-2.6151175E-3,3.3455785E-2,-7.746485E-1,-9.178016E-3,-0E0,-0E0,1.1811038E-2,-1.2223435E-3,4.920249E-1,-1.4968717E-2,-0E0,1.710061E-2,-0E0,3.906266E-2,8.953961E-1,-4.6920474E-3,4.0825438E-1,-8.690458E-1,-0E0,1.08650895E-2,-0E0,7.188354E-3,-1.6672089E-3,-0E0,1.3785494E-2,8.201673E-3,-0E0,-0E0,-1.3229688E-2],"categories":[],"categories_nodes":[],"categories_segments":[],"categories_sizes":[],"default_left":[0,0,0,0,0,0,0,0,0,0,0,0,0,0,0,0,0,0,0,0,0,0,0,0,0,0,0,0,0,0,0,0,0,0,0,0,0,0,0,0,0,0,0,0,0,0,0,0,0],"id":22,"left_children":[1,3,5,7,9,11,13,15,17,-1,-1,19,21,23,25,27,29,31,33,-1,-1,35,37,-1,-1,-1,-1,-1,39,-1,-1,-1,-1,41,43,-1,45,47,-1,-1,-1,-1,-1,-1,-1,-1,-1,-1,-1],"loss_changes":[6.2007935E2,1.4444269E2,1.2562851E2,1.6892123E2,2.9981789E1,6.708209E1,4.7068638E1,5.3096287E1,4.2815186E1,0E0,0E0,3.078003E-1,4.7520363E1,4.377343E0,1.3684185E1,1.15901575E1,9.0281105E0,4.903595E0,4.002327E1,0E0,0E0,1.545474E1,9.271385E0,0E0,0E0,0E0,0E0,0E0,8.504414E0,0E0,0E0,0E0,0E0,1.2912225E1,6.721756E0,0E0,4.797039E0,1.5089569E0,0E0,0E0,0E0,0E0,0E0,0E0,0E0,0E0,0E0,0E0,0E0],"parents":[2147483647,0,0,1,1,2,2,3,3,4,4,5,5,6,6,7,7,8,8,11,11,12,12,13,13,14,14,15,15,16,16,17,17,18,18,21,21,22,22,28,28,33,33,34,34,36,36,37,37],"right_children":[2,4,6,8,10,12,14,16,18,-1,-1,20,22,24,26,28,30,32,34,-1,-1,36,38,-1,-1,-1,-1,-1,40,-1,-1,-1,-1,42,44,-1,46,48,-1,-1,-1,-1,-1,-1,-1,-1,-1,-1,-1],"split_conditions":[5E0,3E0,4E0,5E0,6E0,6E0,6E0,3E0,3E0,-1.297738E-2,8.1101776E-4,1.7E1,7E0,2.4E1,2.96E0,2.3690965E0,8.4210527E-1,5.862069E-1,6E0,-1.686328E-2,-2.6151175E-3,2.78E0,5.25E0,-9.178016E-3,-0E0,-0E0,1.1811038E-2,-1.2223435E-3,5E0,-1.4968717E-2,-0E0,1.710061E-2,-0E0,1E0,2.5E-1,-4.6920474E-3,1.8E-1,6E0,-0E0,1.08650895E-2,-0E0,7.188354E-3,-1.6672089E-3,-0E0,1.3785494E-2,8.201673E-3,-0E0,-0E0,-1.3229688E-2],"split_indices":[99,96,49,98,98,98,98,99,99,0,0,48,99,86,91,91,84,101,98,0,0,91,91,0,0,0,0,0,114,0,0,0,0,55,83,0,45,114,0,0,0,0,0,0,0,0,0,0,0],"split_type":[0,0,0,0,0,0,0,0,0,0,0,0,0,0,0,0,0,0,0,0,0,0,0,0,0,0,0,0,0,0,0,0,0,0,0,0,0,0,0,0,0,0,0,0,0,0,0,0,0],"sum_hessian":[1.6280134E3,8.848695E2,7.431439E2,7.9232404E2,9.2545494E1,6.038109E2,1.3933301E2,1.598743E2,6.324497E2,6.589822E1,2.6647278E1,3.543036E2,2.4950734E2,5.6188137E1,8.314487E1,9.2821976E1,6.705233E1,3.547609E2,2.7768884E2,3.3136847E2,2.2935116E1,1.0143582E2,1.4807152E2,3.9588043E1,1.6600094E1,1.766993E1,6.547494E1,2.368337E1,6.913861E1,4.989344E1,1.715889E1,3.3975516E2,1.5005749E1,1.1830182E2,1.5938701E2,3.8970432E1,6.246539E1,1.2938019E2,1.8691336E1,3.9952225E1,2.9186384E1,4.2365444E1,7.593638E1,2.2319939E1,1.3706708E2,4.2555916E1,1.9909473E1,1.9641691E1,1.09738495E2],"tree_param":{"num_deleted":"0","num_feature":"116","num_nodes":"49","size_leaf_vector":"1"}},{"base_weights":[-8.175675E-5,5.6090534E-1,-6.7723244E-1,-3.0206224E-1,8.04847E-1,-1.5842251E-2,-8.0742665E-2,1.1854619E-1,-9.405806E-1,9.2391837E-1,-2.4280213E-1,4.1541654E-1,-5.7679904E-1,-2.7317348E-1,5.529592E-1,-1.5062087E-2,-0E0,1.1524188E-1,1.0046291E0,-9.103783E-3,6.5607106E-4,-1.82248E-1,7.857458E-1,-0E0,-1.2612934E-2,-0E0,-5.3817877E-3,-0E0,1.0192999E-2,-0E0,3.0034283E-1,1.7006326E-2,6.703959E-1,-0E0,-5.173999E-3,-0E0,8.97994E-1,1.0656269E-1,-5.1843263E-3,7.2894003E-3,-0E0,1.6057445E-3,1.343163E-2,1.4623773E-3,1.5418795E-2,-0E0,4.3673823E-3],"categories":[],"categories_nodes":[],"categories_segments":[],"categories_sizes":[],"default_left":[0,0,0,0,0,0,0,0,0,0,0,0,0,0,0,0,0,0,0,0,0,0,0,0,0,0,0,0,0,0,0,0,0,0,0,0,0,0,0,0,0,0,0,0,0,0,0],"id":23,"left_children":[1,3,5,7,9,-1,11,13,15,17,19,21,23,25,27,-1,-1,29,31,-1,-1,33,35,37,-1,-1,-1,-1,-1,-1,39,-1,41,-1,-1,-1,43,45,-1,-1,-1,-1,-1,-1,-1,-1,-1],"loss_changes":[6.2237134E2,1.9198135E2,1.936828E2,5.8594322E1,9.418683E1,0E0,8.5053444E1,2.1301258E1,4.6044846E0,3.1114014E1,1.3418722E1,4.1475803E1,3.0591583E1,1.1563222E0,4.9818745E0,0E0,0E0,3.5877175E0,2.1582703E1,0E0,0E0,1.605093E0,6.6418304E0,3.8848517E0,0E0,0E0,0E0,0E0,0E0,0E0,2.8700633E0,0E0,2.9831566E1,0E0,0E0,0E0,3.8377686E0,2.5234873E0,0E0,0E0,0E0,0E0,0E0,0E0,0E0,0E0,0E0],"parents":[2147483647,0,0,1,1,2,2,3,3,4,4,6,6,7,7,8,8,9,9,10,10,11,11,12,12,13,13,14,14,17,17,18,18,21,21,22,22,23,23,30,30,32,32,36,36,37,37],"right_children":[2,4,6,8,10,-1,12,14,16,18,20,22,24,26,28,-1,-1,30,32,-1,-1,34,36,38,-1,-1,-1,-1,-1,-1,40,-1,42,-1,-1,-1,44,46,-1,-1,-1,-1,-1,-1,-1,-1,-1],"split_conditions":[5E0,5E0,6E0,3E0,3E0,-1.5842251E-2,7E0,3.18E0,8.7E-1,1.96E0,6E0,2.84E0,2E0,7.971429E1,6.7686427E-1,-1.5062087E-2,-0E0,5E0,3E0,-9.103783E-3,6.5607106E-4,1E0,4.2307693E-1,9E0,-1.2612934E-2,-0E0,-5.3817877E-3,-0E0,1.0192999E-2,-0E0,3E0,1.7006326E-2,6E0,-0E0,-5.173999E-3,-0E0,8.8818184E1,5.5E-1,-5.1843263E-3,7.2894003E-3,-0E0,1.6057445E-3,1.343163E-2,1.4623773E-3,1.5418795E-2,-0E0,4.3673823E-3],"split_indices":[99,98,98,99,96,0,99,91,84,91,98,91,55,105,84,0,0,48,99,0,0,96,61,99,0,0,0,0,0,0,99,0,98,0,0,0,106,61,0,0,0,0,0,0,0,0,0],"split_type":[0,0,0,0,0,0,0,0,0,0,0,0,0,0,0,0,0,0,0,0,0,0,0,0,0,0,0,0,0,0,0,0,0,0,0,0,0,0,0,0,0,0,0,0,0,0,0],"sum_hessian":[1.6302594E3,8.8451184E2,7.457476E2,1.8657478E2,6.97937E2,4.113904E2,3.3435718E2,1.0520209E2,8.13727E1,6.347842E2,6.315288E1,1.5821306E2,1.7614412E2,4.4831974E1,6.0370113E1,6.4965805E1,1.6406898E1,6.8416435E1,5.6636774E2,3.775409E1,2.539879E1,5.1651546E1,1.06561516E2,6.8768105E1,1.0737602E2,1.5955645E1,2.887633E1,1.766496E1,4.270515E1,2.084116E1,4.757527E1,3.236308E2,2.4273692E2,2.9565956E1,2.208559E1,1.7362566E1,8.919895E1,4.745594E1,2.1312162E1,2.4408684E1,2.316659E1,9.5870705E1,1.4686623E2,2.8452343E1,6.074661E1,1.8609247E1,2.8846693E1],"tree_param":{"num_deleted":"0","num_feature":"116","num_nodes":"47","size_leaf_vector":"1"}},{"base_weights":[1.9807103E-3,-4.427171E-1,6.193021E-1,5.8063644E-1,-7.592662E-1,8.9932173E-1,-0E0,-0E0,8.17108E-1,-1.0024514E0,-3.748502E-1,9.7522765E-1,-0E0,3.4045237E-1,-6.3582695E-1,1.0484247E-3,-2.8225777E-3,8.833778E-1,-0E0,-1.0241681E0,-0E0,-4.8802018E-1,-0E0,1.0339503E0,2.3468811E-2,7.0433974E-1,-6.725332E-2,-1.0370897E-2,-0E0,-0E0,9.592788E-1,-0E0,-1.0476965E0,-0E0,-6.4773524E-1,3.020643E-3,-6.2284095E-4,1.707973E-1,1.0823472E0,1.3496364E-3,-0E0,-0E0,1.2267472E-2,-4.15915E-3,-0E0,1.4593926E-2,-0E0,-6.324031E-4,-1.5120249E-2,-5.567293E-3,4.4032075E-3,-1.24937175E-2,-9.369268E-4,3.5395697E-3,-0E0,3.7648792E-3,1.6491434E-2],"categories":[],"categories_nodes":[],"categories_segments":[],"categories_sizes":[],"default_left":[0,0,0,0,0,0,0,0,0,0,0,0,0,0,0,0,0,0,0,0,0,0,0,0,0,0,0,0,0,0,0,0,0,0,0,0,0,0,0,0,0,0,0,0,0,0,0,0,0,0,0,0,0,0,0,0,0],"id":24,"left_children":[1,3,5,7,9,11,13,15,17,19,21,23,-1,25,27,-1,-1,29,-1,31,-1,33,35,37,39,41,43,-1,-1,-1,45,-1,47,49,51,-1,-1,53,55,-1,-1,-1,-1,-1,-1,-1,-1,-1,-1,-1,-1,-1,-1,-1,-1,-1,-1],"loss_changes":[4.5038632E2,3.0785123E2,1.1978418E2,3.3247116E1,5.4453613E1,3.7143738E1,4.7842518E1,1.4936264E0,5.6450806E0,2.4046326E0,1.5652351E1,1.5163116E1,0E0,2.7403038E1,2.4444237E0,0E0,0E0,5.4713516E0,0E0,2.7436829E0,0E0,1.645877E1,1.6318073E0,5.223755E0,1.7481641E-1,4.1665382E0,2.6485069E0,0E0,0E0,0E0,1.8349915E0,0E0,4.321228E0,9.296697E0,1.6637436E1,0E0,0E0,2.4445176E-1,1.6790863E1,0E0,0E0,0E0,0E0,0E0,0E0,0E0,0E0,0E0,0E0,0E0,0E0,0E0,0E0,0E0,0E0,0E0,0E0],"parents":[2147483647,0,0,1,1,2,2,3,3,4,4,5,5,6,6,7,7,8,8,9,9,10,10,11,11,13,13,14,14,17,17,19,19,21,21,22,22,23,23,24,24,25,25,26,26,30,30,32,32,33,33,34,34,37,37,38,38],"right_children":[2,4,6,8,10,12,14,16,18,20,22,24,-1,26,28,-1,-1,30,-1,32,-1,34,36,38,40,42,44,-1,-1,-1,46,-1,48,50,52,-1,-1,54,56,-1,-1,-1,-1,-1,-1,-1,-1,-1,-1,-1,-1,-1,-1,-1,-1,-1,-1],"split_conditions":[3E0,3E0,5E0,2.31E0,-5.73E0,3E0,3E0,8.9117645E1,1E0,5.2E-1,5.64E0,1E0,-0E0,9E0,1.7E-1,1.0484247E-3,-2.8225777E-3,-2E1,-0E0,2.0749832E1,-0E0,1E0,2E0,4.7025496E-1,8.250356E-1,8.8E1,1E0,-1.0370897E-2,-0E0,-0E0,6E0,-0E0,5E0,6E0,6E0,3.020643E-3,-6.2284095E-4,6.741593E0,5E0,1.3496364E-3,-0E0,-0E0,1.2267472E-2,-4.15915E-3,-0E0,1.4593926E-2,-0E0,-6.324031E-4,-1.5120249E-2,-5.567293E-3,4.4032075E-3,-1.24937175E-2,-9.369268E-4,3.5395697E-3,-0E0,3.7648792E-3,1.6491434E-2],"split_indices":[49,99,99,91,92,96,55,105,56,69,91,56,0,54,69,0,0,20,0,5,0,55,55,84,44,106,100,0,0,0,94,0,114,98,98,0,0,93,98,0,0,0,0,0,0,0,0,0,0,0,0,0,0,0,0,0,0],"split_type":[0,0,0,0,0,0,0,0,0,0,0,0,0,0,0,0,0,0,0,0,0,0,0,0,0,0,0,0,0,0,0,0,0,0,0,0,0,0,0,0,0,0,0,0,0,0,0,0,0,0,0,0,0,0,0,0,0],"sum_hessian":[1.6294537E3,9.390303E2,6.904234E2,2.1453278E2,7.244975E2,4.7411407E2,2.1630933E2,5.772584E1,1.5680695E2,4.2665643E2,2.978411E2,4.418384E2,3.227568E1,1.4214757E2,7.416176E1,2.8214577E1,2.9511265E1,1.4101212E2,1.5794826E1,4.1093515E2,1.5721272E1,2.4035088E2,5.7490204E1,4.069462E2,3.4892216E1,8.5871635E1,5.6275932E1,5.7870808E1,1.6290955E1,1.5890674E1,1.2512144E2,1.5868259E1,3.950669E2,6.5838066E1,1.7451282E2,3.084713E1,2.6643074E1,3.222157E1,3.747246E2,1.819556E1,1.6696655E1,2.6436697E1,5.943494E1,3.0086386E1,2.6189545E1,1.0630427E2,1.8817171E1,2.3003784E1,3.720631E2,3.4123756E1,3.171431E1,1.1022153E2,6.429129E1,1.6914228E1,1.5307341E1,5.2355877E1,3.2236874E2],"tree_param":{"num_deleted":"0","num_feature":"116","num_nodes":"57","size_leaf_vector":"1"}},{"base_weights":[1.9968087E-4,5.597002E-1,-6.554149E-1,-2.8215158E-1,8.0211776E-1,-1.0950218E0,-7.918217E-2,1.3187975E-1,-9.2573464E-1,9.038605E-1,-4.4693765E-1,-1.1212994E0,-0E0,4.1046625E-1,-5.756426E-1,3.9417017E-1,-8.538662E-3,-1.4364659E-2,-0E0,9.696504E-1,-0E0,-9.140664E-3,-0E0,-1.1452569E0,-0E0,-0E0,9.233407E-1,-8.027334E-1,-0E0,1.1074213E-2,-0E0,1.2036165E0,6.2515473E-1,-1.3657129E-2,5.8086603E-3,-0E0,-1.1697816E0,-5.2250023E-3,1.8934613E-1,1.7841533E-4,1.4908455E-2,-1.2209735E-2,-0E0,-1.4324085E-1,-0E0,1.7178584E-2,-0E0,2.1487703E-3,1.2495771E-2,-2.5031199E-3,-0E0,-1.6782079E-2,-8.066615E-4,-0E0,6.0543953E-3,-3.968E-3,-0E0],"categories":[],"categories_nodes":[],"categories_segments":[],"categories_sizes":[],"default_left":[0,0,0,0,0,0,0,0,0,0,0,0,0,0,0,0,0,0,0,0,0,0,0,0,0,0,0,0,0,0,0,0,0,0,0,0,0,0,0,0,0,0,0,0,0,0,0,0,0,0,0,0,0,0,0,0,0],"id":25,"left_children":[1,3,5,7,9,11,13,15,17,19,21,23,-1,25,27,29,-1,-1,-1,31,33,-1,-1,35,-1,37,39,41,43,-1,-1,45,47,49,-1,-1,51,-1,53,-1,-1,-1,-1,55,-1,-1,-1,-1,-1,-1,-1,-1,-1,-1,-1,-1,-1],"loss_changes":[5.9715094E2,1.863718E2,1.7735373E2,5.8683395E1,9.391495E1,3.0573425E0,8.318672E1,2.0235987E1,8.5889435E-1,3.0419128E1,4.426811E0,9.5373535E-1,0E0,3.9240818E1,1.8408134E1,1.3762007E1,0E0,0E0,0E0,2.9700745E1,3.8269355E0,0E0,0E0,6.430664E-1,0E0,7.34177E0,4.575653E-1,2.9089813E0,7.5621897E-1,0E0,0E0,8.3081055E-1,2.377964E1,6.5441895E-1,0E0,0E0,2.15979E0,0E0,4.383175E0,0E0,0E0,0E0,0E0,7.441711E-1,0E0,0E0,0E0,0E0,0E0,0E0,0E0,0E0,0E0,0E0,0E0,0E0,0E0],"parents":[2147483647,0,0,1,1,2,2,3,3,4,4,5,5,6,6,7,7,8,8,9,9,10,10,11,11,13,13,14,14,15,15,19,19,20,20,23,23,25,25,26,26,27,27,28,28,31,31,32,32,33,33,36,36,38,38,43,43],"right_children":[2,4,6,8,10,12,14,16,18,20,22,24,-1,26,28,30,-1,-1,-1,32,34,-1,-1,36,-1,38,40,42,44,-1,-1,46,48,50,-1,-1,52,-1,54,-1,-1,-1,-1,56,-1,-1,-1,-1,-1,-1,-1,-1,-1,-1,-1,-1,-1],"split_conditions":[5E0,5E0,6E0,3E0,4E0,3E0,7E0,1E0,4.8E0,1E0,2.82E0,6E0,-0E0,3E0,3.95E0,2E0,-8.538662E-3,-1.4364659E-2,-0E0,3E0,4E0,-9.140664E-3,-0E0,5E0,-0E0,2.84E0,-6.17E0,9.2E-1,3E0,1.1074213E-2,-0E0,1E1,6E0,1E1,5.8086603E-3,-0E0,1.7E1,-5.2250023E-3,6E0,1.7841533E-4,1.4908455E-2,-1.2209735E-2,-0E0,7.6099426E-1,-0E0,1.7178584E-2,-0E0,2.1487703E-3,1.2495771E-2,-2.5031199E-3,-0E0,-1.6782079E-2,-8.066615E-4,-0E0,6.0543953E-3,-3.968E-3,-0E0],"split_indices":[99,98,98,99,96,38,99,56,91,56,91,49,0,49,91,99,0,0,0,99,49,0,0,114,0,91,92,84,49,0,0,94,98,48,0,0,48,0,48,0,0,0,0,44,0,0,0,0,0,0,0,0,0,0,0,0,0],"split_type":[0,0,0,0,0,0,0,0,0,0,0,0,0,0,0,0,0,0,0,0,0,0,0,0,0,0,0,0,0,0,0,0,0,0,0,0,0,0,0,0,0,0,0,0,0,0,0,0,0,0,0,0,0,0,0,0,0],"sum_hessian":[1.6249763E3,8.844484E2,7.4052783E2,1.8925822E2,6.951902E2,4.0975183E2,3.30776E2,1.0785811E2,8.140011E1,6.502402E2,4.4950066E1,3.9308026E2,1.6671568E1,1.5754134E2,1.7323468E2,8.9714714E1,1.8143396E1,6.5993805E1,1.5406304E1,5.9700134E2,5.323881E1,2.9755268E1,1.5194799E1,3.7742355E2,1.5656729E1,8.251673E1,7.5024605E1,1.1635774E2,5.6876938E1,4.188861E1,4.7826103E1,3.358636E2,2.6113776E2,3.3898247E1,1.9340565E1,1.5300054E1,3.6212347E2,3.740733E1,4.5109398E1,1.93799E1,5.5644707E1,1.0110622E2,1.5251524E1,3.419455E1,2.2682386E1,3.208388E2,1.5024793E1,1.0919896E2,1.5193878E2,1.7846943E1,1.6051306E1,3.4320987E2,1.8913626E1,1.5453562E1,2.9655836E1,1.585667E1,1.8337881E1],"tree_param":{"num_deleted":"0","num_feature":"116","num_nodes":"57","size_leaf_vector":"1"}},{"base_weights":[-1.8085568E-3,-6.1481357E-1,4.7061083E-1,-8.3337563E-1,-0E0,1.3557644E-1,8.9367425E-1,-8.7970376E-1,-0E0,1.7616293E-1,-3.9765263E-1,-3.5310693E-2,8.667512E-1,9.689059E-1,1.21420726E-1,-0E0,-9.6718705E-1,4.884779E-1,-9.995778E-2,-8.186347E-3,-0E0,3.3374098E-1,-5.619127E-1,-0E0,1.4143374E-2,1.41070215E-2,8.550294E-4,5.5330372E-3,-0E0,-2.8238331E-3,3.7337076E-3,-9.955587E-1,-0E0,-0E0,6.888673E-1,-2.8995404E-1,-0E0,-6.1769374E-3,6.754513E-1,-6.3448805E-1,-0E0,-0E0,-1.4154992E-2,-0E0,1.1675518E-2,-5.956096E-3,-0E0,-2.895727E-3,3.0850566E-3,-0E0,1.0814118E-2,-1.0632326E-2,-0E0],"categories":[],"categories_nodes":[],"categories_segments":[],"categories_sizes":[],"default_left":[0,0,0,0,0,0,0,0,0,0,0,0,0,0,0,0,0,0,0,0,0,0,0,0,0,0,0,0,0,0,0,0,0,0,0,0,0,0,0,0,0,0,0,0,0,0,0,0,0,0,0,0,0],"id":26,"left_children":[1,3,5,7,9,11,13,15,-1,17,19,21,23,25,27,29,31,33,35,-1,-1,37,39,-1,-1,-1,-1,-1,-1,-1,-1,41,-1,-1,43,45,-1,47,49,51,-1,-1,-1,-1,-1,-1,-1,-1,-1,-1,-1,-1,-1],"loss_changes":[4.7004578E2,9.8164215E1,1.186987E2,2.6575134E1,1.2598217E1,7.268874E1,1.2303375E1,4.049051E1,0E0,1.5377581E1,3.6292067E0,8.311885E1,5.320511E0,3.4482727E0,2.1278667E0,2.8007367E0,9.947449E0,6.7582035E0,2.9035783E0,0E0,0E0,3.3415337E1,9.752895E0,0E0,0E0,0E0,0E0,0E0,0E0,0E0,0E0,5.8483887E-1,0E0,0E0,7.1909523E-1,8.07477E-1,0E0,4.9138837E0,4.6186676E0,6.937172E0,0E0,0E0,0E0,0E0,0E0,0E0,0E0,0E0,0E0,0E0,0E0,0E0,0E0],"parents":[2147483647,0,0,1,1,2,2,3,3,4,4,5,5,6,6,7,7,9,9,10,10,11,11,12,12,13,13,14,14,15,15,16,16,17,17,18,18,21,21,22,22,31,31,34,34,35,35,37,37,38,38,39,39],"right_children":[2,4,6,8,10,12,14,16,-1,18,20,22,24,26,28,30,32,34,36,-1,-1,38,40,-1,-1,-1,-1,-1,-1,-1,-1,42,-1,-1,44,46,-1,48,50,52,-1,-1,-1,-1,-1,-1,-1,-1,-1,-1,-1,-1,-1],"split_conditions":[-5.31E0,3E0,4E0,2E0,4E0,1E0,4E0,5E0,-0E0,6E0,6E0,6E0,3E0,1E0,5E0,1.2E1,9.25E1,0E0,5E0,-8.186347E-3,-0E0,1.1E1,1.07333336E2,-0E0,1.4143374E-2,1.41070215E-2,8.550294E-4,5.5330372E-3,-0E0,-2.8238331E-3,3.7337076E-3,9.5E1,-0E0,-0E0,-4.4E-1,-6.68E0,-0E0,1E0,7.1333336E1,-3.15E0,-0E0,-0E0,-1.4154992E-2,-0E0,1.1675518E-2,-5.956096E-3,-0E0,-2.895727E-3,3.0850566E-3,-0E0,1.0814118E-2,-1.0632326E-2,-0E0],"split_indices":[92,49,49,50,55,50,55,114,0,114,48,114,48,56,114,48,4,38,49,0,0,48,106,0,0,0,0,0,0,0,0,12,0,0,69,92,0,100,106,92,0,0,0,0,0,0,0,0,0,0,0,0,0],"split_type":[0,0,0,0,0,0,0,0,0,0,0,0,0,0,0,0,0,0,0,0,0,0,0,0,0,0,0,0,0,0,0,0,0,0,0,0,0,0,0,0,0,0,0,0,0,0,0,0,0,0,0,0,0],"sum_hessian":[1.6132623E3,7.1018353E2,9.0307874E2,5.2665247E2,1.8353113E2,5.179277E2,3.8515106E2,5.0670978E2,1.994266E1,1.331819E2,5.0349224E1,4.1178415E2,1.0614355E2,3.396137E2,4.553736E1,4.4694733E1,4.6201505E2,7.6987526E1,5.6194374E1,3.2169605E1,1.8179623E1,2.3253021E2,1.7925394E2,2.4225613E1,8.191793E1,3.1437595E2,2.523777E1,1.5355974E1,3.0181385E1,2.2982983E1,2.1711748E1,4.459439E2,1.6071154E1,2.535789E1,5.1629635E1,3.886901E1,1.7325361E1,1.0454076E2,1.2798945E2,1.6424377E2,1.5010164E1,1.6791168E1,4.291527E2,1.6538343E1,3.509129E1,2.0888758E1,1.7980253E1,7.674774E1,2.779302E1,2.392346E1,1.0406599E2,1.2477056E2,3.9473217E1],"tree_param":{"num_deleted":"0","num_feature":"116","num_nodes":"53","size_leaf_vector":"1"}},{"base_weights":[-0E0,-4.8821273E-1,5.9163195E-1,5.0514534E-2,-8.102218E-1,9.975852E-1,1.7802301E-1,-2.7959427E-1,6.832005E-1,-1.5580741E-2,-3.3442873E-1,3.1507555E-1,1.5728068E-2,-3.959894E-1,7.533331E-1,-3.0404773E-2,-1.2977587E-2,1.1744462E-2,-0E0,-0E0,-6.673311E-1,-0E0,8.060408E-3,-0E0,-6.3403994E-1,8.190984E-1,-0E0,3.6334327E-1,-4.2961994E-1,3.961111E-1,-2.1800865E-1,-0E0,-8.1481516E-1,-2.1980498E-3,1.4761099E-1,-7.23877E-1,-0E0,1.3841255E-2,-0E0,-0E0,7.835879E-3,-0E0,-9.508793E-3,-0E0,1.0298857E-2,-5.9333094E-3,-0E0,-1.25623075E-2,-0E0,5.1841596E-3,-0E0,-1.1208215E-2,-0E0],"categories":[],"categories_nodes":[],"categories_segments":[],"categories_sizes":[],"default_left":[0,0,0,0,0,0,0,0,0,0,0,0,0,0,0,0,0,0,0,0,0,0,0,0,0,0,0,0,0,0,0,0,0,0,0,0,0,0,0,0,0,0,0,0,0,0,0,0,0,0,0,0,0],"id":27,"left_children":[1,3,5,7,9,11,13,15,17,-1,19,21,-1,23,25,27,-1,-1,-1,29,31,-1,-1,33,35,37,-1,39,41,43,45,-1,47,-1,49,51,-1,-1,-1,-1,-1,-1,-1,-1,-1,-1,-1,-1,-1,-1,-1,-1,-1],"loss_changes":[4.687674E2,1.624696E2,1.1124432E2,7.251251E1,6.9414215E1,1.7696808E1,1.280274E2,2.4853395E1,1.565604E1,0E0,2.9482054E1,8.033014E0,0E0,1.9083286E1,8.900787E0,2.6623476E1,0E0,0E0,0E0,1.09924755E1,8.988647E0,0E0,0E0,1.5684822E0,6.1619797E0,2.6777405E1,0E0,6.353882E0,1.53161125E1,7.7485843E0,5.390439E0,0E0,8.636017E-1,0E0,3.1593924E0,2.708126E0,0E0,0E0,0E0,0E0,0E0,0E0,0E0,0E0,0E0,0E0,0E0,0E0,0E0,0E0,0E0,0E0,0E0],"parents":[2147483647,0,0,1,1,2,2,3,3,4,4,5,5,6,6,7,7,8,8,10,10,11,11,13,13,14,14,15,15,19,19,20,20,23,23,24,24,25,25,27,27,28,28,29,29,30,30,32,32,34,34,35,35],"right_children":[2,4,6,8,10,12,14,16,18,-1,20,22,-1,24,26,28,-1,-1,-1,30,32,-1,-1,34,36,38,-1,40,42,44,46,-1,48,-1,50,52,-1,-1,-1,-1,-1,-1,-1,-1,-1,-1,-1,-1,-1,-1,-1,-1,-1],"split_conditions":[-4.57E0,5E0,3E0,6E0,6E0,5E0,6E0,1E0,5E0,-1.5580741E-2,3E0,-6.3897765E-1,1.5728068E-2,1E0,7E0,3E0,-1.2977587E-2,1.1744462E-2,-0E0,7E0,6E0,-0E0,8.060408E-3,5E0,4.5E-1,7E0,-0E0,1E1,1E0,3E0,3E0,-0E0,2.5E1,-2.1980498E-3,6E0,1.5E1,-0E0,1.3841255E-2,-0E0,-0E0,7.835879E-3,-0E0,-9.508793E-3,-0E0,1.0298857E-2,-5.9333094E-3,-0E0,-1.25623075E-2,-0E0,5.1841596E-3,-0E0,-1.1208215E-2,-0E0],"split_indices":[92,99,