{"learner":{"attributes":{"best_iteration":"633","best_score":"0.8915653979238755"},"feature_names":["p1_mean_hp","p1_mean_atk","p1_mean_def","p1_mean_spa","p1_mean_spe","p1_std_hp","p1_std_spe","p1_max_spe","p1_min_hp","p2_lead_hp","p2_lead_atk","p2_lead_def","p2_lead_spa","p2_lead_spe","p2_lead_bulk","p2_lead_special_bulk","p1_lead_hp","p1_lead_spe","p1_lead_spa","p1_lead_atk","speed_advantage","speed_advantage_binary","speed_tier","max_speed_edge","speed_tier_10","speed_tier_20","team_type_diversity","p1_lead_type_advantage","team_max_type_mult","turn1_p1_hp","turn1_p2_hp","turn1_hp_diff","first_move_power","first_move_priority","first_move_category","p1_moved_first","p1_moved_first_t3","p1_moved_first_t5","initiative_net_t5","turn3_hp_diff","turn3_p1_hp","turn3_p2_hp","turn5_hp_diff","turn5_p1_hp","turn5_p2_hp","turn10_hp_diff","turn10_p1_hp","turn10_p2_hp","p2_turns_par","p2_turns_slp","p2_turns_frz","p2_turns_psn","p2_turns_brn","p2_turns_tox","p1_turns_par","p1_turns_slp","p1_turns_frz","p1_turns_psn","p1_turns_brn","p1_stab_turns_t5","p1_stab_turns","p1_stab_share","p2_stab_lead_turns_t5","p2_stab_lead_turns","p1_damage_dealt_t5","p1_damage_dealt_t10","p1_damage_taken_t5","p1_damage_taken_t10","damage_diff_t5","damage_diff_t10","p2_turns_slp_t5","p2_turns_slp_t10","p1_turns_slp_t5","p1_turns_slp_t10","p2_turns_par_t5","p2_turns_par_t10","p1_turns_par_t5","p1_turns_par_t10","p2_turns_frz_t5","p2_turns_frz_t10","p1_turns_frz_t5","p1_turns_frz_t10","hp_ahead_share_t10","hp_ahead_share_t20","max_hp_diff","min_hp_diff","argmax_hp_diff","argmin_hp_diff","hp_diff_slope_1_5","hp_diff_slope_6_10","hp_diff_slope_11_20","hp_advantage_area_pos","hp_advantage_area_neg","hp_advantage_area_abs","p2_first_status_turn","p2_first_status_type_code","p1_immobilized_turns","p2_immobilized_turns","p2_pokemon_used","p1_faints","p2_faints","p1_share_status_moves","p2_share_status_moves","p1_priority_moves","p2_priority_moves","p1_mean_base_power","p2_mean_base_power","team_super_effective_count","team_has_any_2x","p1_lead_defensive_risk_max","p1_total_boosts_turn10","p2_total_boosts_turn10","p1_total_boosts_turn20","p2_total_boosts_turn20","p1_pokemon_used","momentum_turn5_15"],"feature_types":["float","float","float","float","float","float","float","int","int","int","int","int","int","int","float","float","int","int","int","int","int","int","int","int","int","int","int","float","float","float","float","float","int","int","int","int","int","int","int","float","float","float","float","float","float","float","float","float","int","int","int","int","int","int","int","int","int","int","int","int","int","float","int","int","float","float","float","float","float","float","int","int","int","int","int","int","int","int","int","int","int","int","float","float","float","float","int","int","float","float","float","float","float","float","int","int","int","int","int","int","int","float","float","int","int","float","float","int","int","float","int","int","int","int","int","float"],"gradient_booster":{"model":{"cats":{"enc":[],"feature_segments":[],"sorted_idx":[]},"gbtree_model_param":{"num_parallel_tree":"1","num_trees":"734"},"iteration_indptr":[0,1,2,3,4,5,6,7,8,9,10,11,12,13,14,15,16,17,18,19,20,21,22,23,24,25,26,27,28,29,30,31,32,33,34,35,36,37,38,39,40,41,42,43,44,45,46,47,48,49,50,51,52,53,54,55,56,57,58,59,60,61,62,63,64,65,66,67,68,69,70,71,72,73,74,75,76,77,78,79,80,81,82,83,84,85,86,87,88,89,90,91,92,93,94,95,96,97,98,99,100,101,102,103,104,105,106,107,108,109,110,111,112,113,114,115,116,117,118,119,120,121,122,123,124,125,126,127,128,129,130,131,132,133,134,135,136,137,138,139,140,141,142,143,144,145,146,147,148,149,150,151,152,153,154,155,156,157,158,159,160,161,162,163,164,165,166,167,168,169,170,171,172,173,174,175,176,177,178,179,180,181,182,183,184,185,186,187,188,189,190,191,192,193,194,195,196,197,198,199,200,201,202,203,204,205,206,207,208,209,210,211,212,213,214,215,216,217,218,219,220,221,222,223,224,225,226,227,228,229,230,231,232,233,234,235,236,237,238,239,240,241,242,243,244,245,246,247,248,249,250,251,252,253,254,255,256,257,258,259,260,261,262,263,264,265,266,267,268,269,270,271,272,273,274,275,276,277,278,279,280,281,282,283,284,285,286,287,288,289,290,291,292,293,294,295,296,297,298,299,300,301,302,303,304,305,306,307,308,309,310,311,312,313,314,315,316,317,318,319,320,321,322,323,324,325,326,327,328,329,330,331,332,333,334,335,336,337,338,339,340,341,342,343,344,345,346,347,348,349,350,351,352,353,354,355,356,357,358,359,360,361,362,363,364,365,366,367,368,369,370,371,372,373,374,375,376,377,378,379,380,381,382,383,384,385,386,387,388,389,390,391,392,393,394,395,396,397,398,399,400,401,402,403,404,405,406,407,408,409,410,411,412,413,414,415,416,417,418,419,420,421,422,423,424,425,426,427,428,429,430,431,432,433,434,435,436,437,438,439,440,441,442,443,444,445,446,447,448,449,450,451,452,453,454,455,456,457,458,459,460,461,462,463,464,465,466,467,468,469,470,471,472,473,474,475,476,477,478,479,480,481,482,483,484,485,486,487,488,489,490,491,492,493,494,495,496,497,498,499,500,501,502,503,504,505,506,507,508,509,510,511,512,513,514,515,516,517,518,519,520,521,522,523,524,525,526,527,528,529,530,531,532,533,534,535,536,537,538,539,540,541,542,543,544,545,546,547,548,549,550,551,552,553,554,555,556,557,558,559,560,561,562,563,564,565,566,567,568,569,570,571,572,573,574,575,576,577,578,579,580,581,582,583,584,585,586,587,588,589,590,591,592,593,594,595,596,597,598,599,600,601,602,603,604,605,606,607,608,609,610,611,612,613,614,615,616,617,618,619,620,621,622,623,624,625,626,627,628,629,630,631,632,633,634,635,636,637,638,639,640,641,642,643,644,645,646,647,648,649,650,651,652,653,654,655,656,657,658,659,660,661,662,663,664,665,666,667,668,669,670,671,672,673,674,675,676,677,678,679,680,681,682,683,684,685,686,687,688,689,690,691,692,693,694,695,696,697,698,699,700,701,702,703,704,705,706,707,708,709,710,711,712,713,714,715,716,717,718,719,720,721,722,723,724,725,726,727,728,729,730,731,732,733,734],"tree_info":[0,0,0,0,0,0,0,0,0,0,0,0,0,0,0,0,0,0,0,0,0,0,0,0,0,0,0,0,0,0,0,0,0,0,0,0,0,0,0,0,0,0,0,0,0,0,0,0,0,0,0,0,0,0,0,0,0,0,0,0,0,0,0,0,0,0,0,0,0,0,0,0,0,0,0,0,0,0,0,0,0,0,0,0,0,0,0,0,0,0,0,0,0,0,0,0,0,0,0,0,0,0,0,0,0,0,0,0,0,0,0,0,0,0,0,0,0,0,0,0,0,0,0,0,0,0,0,0,0,0,0,0,0,0,0,0,0,0,0,0,0,0,0,0,0,0,0,0,0,0,0,0,0,0,0,0,0,0,0,0,0,0,0,0,0,0,0,0,0,0,0,0,0,0,0,0,0,0,0,0,0,0,0,0,0,0,0,0,0,0,0,0,0,0,0,0,0,0,0,0,0,0,0,0,0,0,0,0,0,0,0,0,0,0,0,0,0,0,0,0,0,0,0,0,0,0,0,0,0,0,0,0,0,0,0,0,0,0,0,0,0,0,0,0,0,0,0,0,0,0,0,0,0,0,0,0,0,0,0,0,0,0,0,0,0,0,0,0,0,0,0,0,0,0,0,0,0,0,0,0,0,0,0,0,0,0,0,0,0,0,0,0,0,0,0,0,0,0,0,0,0,0,0,0,0,0,0,0,0,0,0,0,0,0,0,0,0,0,0,0,0,0,0,0,0,0,0,0,0,0,0,0,0,0,0,0,0,0,0,0,0,0,0,0,0,0,0,0,0,0,0,0,0,0,0,0,0,0,0,0,0,0,0,0,0,0,0,0,0,0,0,0,0,0,0,0,0,0,0,0,0,0,0,0,0,0,0,0,0,0,0,0,0,0,0,0,0,0,0,0,0,0,0,0,0,0,0,0,0,0,0,0,0,0,0,0,0,0,0,0,0,0,0,0,0,0,0,0,0,0,0,0,0,0,0,0,0,0,0,0,0,0,0,0,0,0,0,0,0,0,0,0,0,0,0,0,0,0,0,0,0,0,0,0,0,0,0,0,0,0,0,0,0,0,0,0,0,0,0,0,0,0,0,0,0,0,0,0,0,0,0,0,0,0,0,0,0,0,0,0,0,0,0,0,0,0,0,0,0,0,0,0,0,0,0,0,0,0,0,0,0,0,0,0,0,0,0,0,0,0,0,0,0,0,0,0,0,0,0,0,0,0,0,0,0,0,0,0,0,0,0,0,0,0,0,0,0,0,0,0,0,0,0,0,0,0,0,0,0,0,0,0,0,0,0,0,0,0,0,0,0,0,0,0,0,0,0,0,0,0,0,0,0,0,0,0,0,0,0,0,0,0,0,0,0,0,0,0,0,0,0,0,0,0,0,0,0,0,0,0,0,0,0,0,0,0,0,0,0,0,0,0,0,0,0,0,0,0,0,0,0,0,0,0,0,0,0,0,0,0,0,0,0,0,0,0,0,0,0,0,0,0,0,0,0,0,0,0,0,0,0,0,0,0,0,0,0,0,0,0,0,0,0,0,0,0,0,0,0,0,0,0,0,0,0,0,0,0,0,0,0,0,0,0,0,0,0,0,0,0,0,0,0,0,0,0,0,0,0,0,0,0,0,0,0,0,0,0,0,0,0,0,0,0],"trees":[{"base_weights":[-5.3537292E-3,-6.1785024E-1,8.2842E-1,-1.0450431E0,6.2205256E-3,-1.2433667E-1,1.0445288E0,-1.1061783E0,-0E0,-5.3108215E-1,5.2825856E-1,-5.776717E-1,5.823354E-1,1.089617E0,-0E0,-1.17576E0,-0E0,-6.551128E-1,-0E0,6.4207774E-1,-2.3229921E-4,-0E0,-7.31467E-1,1.0440656E-2,-0E0,1.2957741E0,6.9540066E-1,-1.2277229E0,-2.0451118E-1,-0E0,-8.56401E-1,9.1734016E-1,-0E0,-1.2077147E-2,-0E0,1.8602045E-2,-0E0,8.79265E-1,1.54579915E-2,-1.0257341E-2,-1.8497927E-2,-5.8856015E-3,-0E0,-1.3939598E-2,-0E0,1.223977E-3,1.4189953E-2,-0E0,-2.6006878E-3,5.4047783E-3,1.4931191E-2,-0E0,5.1798276E-3],"categories":[],"categories_nodes":[],"categories_segments":[],"categories_sizes":[],"default_left":[0,0,0,0,0,0,0,0,0,0,0,0,0,0,0,0,0,0,0,0,0,0,0,0,0,0,0,0,0,0,0,0,0,0,0,0,0,0,0,0,0,0,0,0,0,0,0,0,0,0,0,0,0],"id":0,"left_children":[1,3,5,7,9,11,13,15,-1,17,19,21,23,25,-1,27,-1,29,-1,31,-1,-1,33,-1,-1,35,37,39,41,-1,43,45,47,-1,-1,-1,-1,49,51,-1,-1,-1,-1,-1,-1,-1,-1,-1,-1,-1,-1,-1,-1],"loss_changes":[8.490524E2,2.6724088E2,1.527215E2,3.7778687E1,1.0924699E2,4.054938E1,3.4856445E1,4.945813E1,0E0,1.7649887E1,1.8502205E1,8.618834E0,3.2182503E-1,2.5060486E1,0E0,1.272406E1,0E0,1.8748589E1,0E0,3.855565E1,0E0,0E0,2.4670334E0,0E0,0E0,7.506775E0,1.8508087E1,2.4318848E0,1.9323133E0,0E0,7.272194E0,1.0666962E0,1.1019619E0,0E0,0E0,0E0,0E0,4.714508E-1,3.6670601E0,0E0,0E0,0E0,0E0,0E0,0E0,0E0,0E0,0E0,0E0,0E0,0E0,0E0,0E0],"parents":[2147483647,0,0,1,1,2,2,3,3,4,4,5,5,6,6,7,7,9,9,10,10,11,11,12,12,13,13,15,15,17,17,19,19,22,22,25,25,26,26,27,27,28,28,30,30,31,31,32,32,37,37,38,38],"right_children":[2,4,6,8,10,12,14,16,-1,18,20,22,24,26,-1,28,-1,30,-1,32,-1,-1,34,-1,-1,36,38,40,42,-1,44,46,48,-1,-1,-1,-1,50,52,-1,-1,-1,-1,-1,-1,-1,-1,-1,-1,-1,-1,-1,-1],"split_conditions":[-4.42E0,6E0,5E0,1.8E1,-6.54E0,-2.32E0,4E0,3E0,-0E0,2E0,1E0,2.2222222E-1,5.217391E-1,1E0,-0E0,1E0,-0E0,2E0,-0E0,4E0,-2.3229921E-4,-0E0,2E0,1.0440656E-2,-0E0,9E0,3E0,1E0,5E0,-0E0,1E1,5.738189E-1,3.2755405E1,-1.2077147E-2,-0E0,1.8602045E-2,-0E0,6E0,9E0,-1.0257341E-2,-1.8497927E-2,-5.8856015E-3,-0E0,-1.3939598E-2,-0E0,1.223977E-3,1.4189953E-2,-0E0,-2.6006878E-3,5.4047783E-3,1.4931191E-2,-0E0,5.1798276E-3],"split_indices":[92,98,98,48,92,92,96,97,0,97,56,102,102,67,0,50,0,55,0,55,0,0,71,0,0,94,55,55,48,0,48,84,6,0,0,0,0,98,48,0,0,0,0,0,0,0,0,0,0,0,0,0,0],"split_type":[0,0,0,0,0,0,0,0,0,0,0,0,0,0,0,0,0,0,0,0,0,0,0,0,0,0,0,0,0,0,0,0,0,0,0,0,0,0,0,0,0,0,0,0,0,0,0,0,0,0,0,0,0],"sum_hessian":[1.661E3,9.6425E2,6.9675E2,5.8E2,3.8425E2,1.2125E2,5.755E2,5.4825E2,3.175E1,1.8075E2,2.035E2,8.2E1,3.925E1,5.58E2,1.75E1,5.2075E2,2.75E1,1.59E2,2.175E1,1.8175E2,2.175E1,1.575E1,6.625E1,2.325E1,1.6E1,3.4725E2,2.1075E2,4.8475E2,3.6E1,4.15E1,1.175E2,1.335E2,4.825E1,4.975E1,1.65E1,3.315E2,1.575E1,1.5475E2,5.6E1,1.005E2,3.8425E2,1.725E1,1.875E1,9.275E1,2.475E1,2.475E1,1.0875E2,1.925E1,2.9E1,5.9E1,9.575E1,3.2E1,2.4E1],"tree_param":{"num_deleted":"0","num_feature":"116","num_nodes":"53","size_leaf_vector":"1"}},{"base_weights":[1.0434429E-2,7.3815364E-1,-8.285131E-1,-1.4050232E-2,1.0254588E0,-1.1662937E0,-0E0,2.0455031E-1,-1.3974065E-2,1.1316594E0,-0E0,-1.210474E0,-0E0,3.6425203E-1,-5.106839E-1,6.2646765E-1,-6.72934E-1,1.3715011E0,6.9324315E-1,-3.7855355E-3,2.4536109E-1,-1.2493387E0,-0E0,7.9464495E-1,-6.6906423E-3,-1.1693184E-2,-0E0,-0E0,9.7693896E-1,-1.2030028E-2,-0E0,-0E0,1.962983E-2,2.9606687E-2,9.129272E-1,5.248296E-3,-0E0,-1.2784318E0,-8.124161E-4,-0E0,1.2564785E-2,-2.342822E-3,1.6096082E-4,1.4489873E-3,-2.0345105E-3,-0E0,1.5204645E-2,-2.7828151E-3,7.289E-3,5.6545075E-4,1.4325184E-2,-1.8164946E-2,-0E0],"categories":[],"categories_nodes":[],"categories_segments":[],"categories_sizes":[],"default_left":[0,0,0,0,0,0,0,0,0,0,0,0,0,0,0,0,0,0,0,0,0,0,0,0,0,0,0,0,0,0,0,0,0,0,0,0,0,0,0,0,0,0,0,0,0,0,0,0,0,0,0,0,0],"id":1,"left_children":[1,3,5,7,9,11,13,15,-1,17,19,21,-1,23,25,27,29,31,33,-1,35,37,-1,39,-1,-1,41,43,45,-1,-1,-1,-1,47,49,-1,-1,51,-1,-1,-1,-1,-1,-1,-1,-1,-1,-1,-1,-1,-1,-1,-1],"loss_changes":[1.0239305E3,2.047337E2,2.1744214E2,6.0497723E1,6.969281E1,2.7024475E1,4.2454376E1,7.2672905E1,0E0,4.169281E1,4.576338E0,2.095459E1,0E0,5.271156E1,1.2781176E1,3.1238426E1,2.7931595E0,6.0646973E0,2.4983978E1,0E0,1.174262E0,5.3322754E0,0E0,5.190033E0,0E0,0E0,6.572916E-1,8.563765E-1,6.854782E-1,0E0,0E0,0E0,0E0,1.117838E1,6.473114E0,0E0,0E0,4.437561E0,0E0,0E0,0E0,0E0,0E0,0E0,0E0,0E0,0E0,0E0,0E0,0E0,0E0,0E0,0E0],"parents":[2147483647,0,0,1,1,2,2,3,3,4,4,5,5,6,6,7,7,9,9,10,10,11,11,13,13,14,14,15,15,16,16,17,17,18,18,20,20,21,21,23,23,26,26,27,27,28,28,33,33,34,34,37,37],"right_children":[2,4,6,8,10,12,14,16,-1,18,20,22,-1,24,26,28,30,32,34,-1,36,38,-1,40,-1,-1,42,44,46,-1,-1,-1,-1,48,50,-1,-1,52,-1,-1,-1,-1,-1,-1,-1,-1,-1,-1,-1,-1,-1,-1,-1],"split_conditions":[5E0,-5.28E0,3E0,1E0,1E0,2E0,7E0,5E0,-1.3974065E-2,3E0,-3.81E0,-3.0448523E0,-0E0,3E0,3.95E0,5.7E-1,6.49264E-1,4E-1,7E-1,-3.7855355E-3,4.2105263E-1,5.4907537E-1,-0E0,1E0,-6.6906423E-3,-1.1693184E-2,1E0,4E0,1E1,-1.2030028E-2,-0E0,-0E0,1.962983E-2,1E0,1E0,5.248296E-3,-0E0,6.1E0,-8.124161E-4,-0E0,1.2564785E-2,-2.342822E-3,1.6096082E-4,1.4489873E-3,-2.0345105E-3,-0E0,1.5204645E-2,-2.7828151E-3,7.289E-3,5.6545075E-4,1.4325184E-2,-1.8164946E-2,-0E0],"split_indices":[99,92,49,56,56,50,99,55,0,99,92,92,0,55,91,84,65,84,84,0,102,68,0,48,0,0,100,99,60,0,0,0,0,100,49,0,0,91,0,0,0,0,0,0,0,0,0,0,0,0,0,0,0],"split_type":[0,0,0,0,0,0,0,0,0,0,0,0,0,0,0,0,0,0,0,0,0,0,0,0,0,0,0,0,0,0,0,0,0,0,0,0,0,0,0,0,0,0,0,0,0,0,0,0,0,0,0,0,0],"sum_hessian":[1.6731671E3,9.019537E2,7.712134E2,2.4123903E2,6.6071466E2,5.477232E2,2.234902E2,1.9174171E2,4.949731E1,5.964677E2,6.424698E1,5.2672375E2,2.0999441E1,1.3174396E2,9.174623E1,1.3699516E2,5.4746548E1,3.684794E2,2.279883E2,2.599895E1,3.824803E1,5.0772458E2,1.899918E1,9.449556E1,3.72484E1,5.0497932E1,4.12483E1,4.9498238E1,8.7496925E1,3.599755E1,1.8748999E1,1.5999187E1,3.5248022E2,6.774686E1,1.6024144E2,2.2998796E1,1.5249235E1,4.8797543E2,1.9749142E1,1.5249295E1,7.924627E1,2.0499197E1,2.0749102E1,2.6999235E1,2.2499004E1,1.7249413E1,7.024751E1,3.4748444E1,3.2998413E1,2.8248732E1,1.319927E2,4.722262E2,1.574923E1],"tree_param":{"num_deleted":"0","num_feature":"116","num_nodes":"53","size_leaf_vector":"1"}},{"base_weights":[-2.9649169E-3,-2.8713018E-1,1.015696E0,-6.7829686E-1,7.4655443E-1,-0E0,1.1708214E0,-1.1545339E0,-3.0447844E-1,8.4659535E-1,-0E0,2.5687164E-3,-4.9604615E-3,1.2247878E0,9.112721E-4,-0E0,-1.2443856E0,2.2719549E-1,-8.335336E-1,1.0764757E0,-5.3545505E-2,1.8431317E-2,-0E0,-8.449668E-1,-1.988868E-2,5.005912E-1,-1.2438555E-2,-2.7943635E-1,-1.1034193E0,1.6395617E-2,3.1468794E-1,1.3946242E-3,-3.5831994E-1,-1.2743008E-2,-0E0,9.804848E-3,-5.6040485E-4,-7.050622E-3,9.483133E-4,-1.627343E-2,-0E0,8.70269E-3,-0E0,-8.26643E-3,-0E0],"categories":[],"categories_nodes":[],"categories_segments":[],"categories_sizes":[],"default_left":[0,0,0,0,0,0,0,0,0,0,0,0,0,0,0,0,0,0,0,0,0,0,0,0,0,0,0,0,0,0,0,0,0,0,0,0,0,0,0,0,0,0,0,0,0],"id":2,"left_children":[1,3,5,7,9,11,13,15,17,19,-1,-1,-1,21,-1,-1,23,25,27,29,31,-1,-1,33,-1,35,-1,37,39,-1,41,-1,43,-1,-1,-1,-1,-1,-1,-1,-1,-1,-1,-1,-1],"loss_changes":[4.7622617E2,5.308989E2,5.901239E1,1.5652515E2,3.1830505E1,3.7242208E0,6.6446533E0,4.0006836E1,1.6117096E2,7.5743744E1,0E0,0E0,0E0,3.3239594E1,0E0,0E0,3.7207642E0,7.984417E1,2.9316742E1,5.450653E0,5.2365623E0,0E0,0E0,4.394722E0,0E0,3.0681301E1,0E0,1.2577385E1,3.6724854E0,0E0,6.9408717E0,0E0,3.6589818E0,0E0,0E0,0E0,0E0,0E0,0E0,0E0,0E0,0E0,0E0,0E0,0E0],"parents":[2147483647,0,0,1,1,2,2,3,3,4,4,5,5,6,6,7,7,8,8,9,9,13,13,16,16,17,17,18,18,19,19,20,20,23,23,25,25,27,27,28,28,30,30,32,32],"right_children":[2,4,6,8,10,12,14,16,18,20,-1,-1,-1,22,-1,-1,24,26,28,30,32,-1,-1,34,-1,36,-1,38,40,-1,42,-1,44,-1,-1,-1,-1,-1,-1,-1,-1,-1,-1,-1,-1],"split_conditions":[2E0,-3.81E0,-6.12E0,-6.67E0,1E0,3E0,5E0,3E0,5E0,6E0,-0E0,2.5687164E-3,-4.9604615E-3,7E0,9.112721E-4,-0E0,6E0,1E0,2E0,4E0,1E0,1.8431317E-2,-0E0,6.4E-1,-1.988868E-2,5E0,-1.2438555E-2,2.5E1,4E-1,1.6395617E-2,3E0,1.3946242E-3,9.470588E1,-1.2743008E-2,-0E0,9.804848E-3,-5.6040485E-4,-7.050622E-3,9.483133E-4,-1.627343E-2,-0E0,8.70269E-3,-0E0,-8.26643E-3,-0E0],"split_indices":[97,92,92,92,56,55,55,99,99,99,0,0,0,99,0,0,114,56,55,55,55,0,0,64,0,55,0,86,69,0,99,0,106,0,0,0,0,0,0,0,0,0,0,0,0],"split_type":[0,0,0,0,0,0,0,0,0,0,0,0,0,0,0,0,0,0,0,0,0,0,0,0,0,0,0,0,0,0,0,0,0,0,0,0,0,0,0,0,0,0,0,0,0],"sum_hessian":[1.6627198E3,1.3085309E3,3.54189E2,9.5634357E2,3.521873E2,4.524712E1,3.0894186E2,4.0741754E2,5.48926E2,3.1768942E2,3.4497868E1,2.6248661E1,1.8998459E1,2.8644495E2,2.249692E1,3.1246218E1,3.7617133E2,2.6597034E2,2.8295572E2,2.6069336E2,5.699606E1,2.644458E2,2.1999144E1,1.3822319E2,2.3794814E2,2.2147592E2,4.4494415E1,1.0548902E2,1.7746669E2,2.1870018E2,4.1993176E1,1.9248352E1,3.7747707E1,1.22975586E2,1.52476015E1,1.727307E2,4.8745216E1,7.899185E1,2.6497173E1,1.6096884E2,1.6497843E1,2.6494423E1,1.54987545E1,2.2498737E1,1.5248968E1],"tree_param":{"num_deleted":"0","num_feature":"116","num_nodes":"45","size_leaf_vector":"1"}},{"base_weights":[4.2031222E-4,-5.951037E-1,8.3943534E-1,-6.259394E-2,-1.051362E0,1.098632E0,2.5552514E-1,2.2681288E-1,-8.330032E-1,-1.2077597E0,-2.8251542E-2,1.1541024E0,-0E0,-2.1426179E-1,1.3449642E-2,-1.0377495E-1,7.4203336E-1,-9.636716E-1,-0E0,-1.8858373E-2,-6.9887197E-1,-2.428353E-1,3.2593287E-3,5.943486E-1,1.7544048E-2,-4.6047053E-1,1.7089982E-1,-3.8171816E-1,1.22715E-1,1.0066668E0,-0E0,-1.4927691E-3,-1.1122354E0,-0E0,-8.311222E-1,-0E0,-8.27559E-3,-0E0,1.0074748E-2,-0E0,-5.9857017E-1,-0E0,5.416622E-3,-9.047941E-3,-0E0,-2.1558146E-3,5.890925E-3,4.9107324E-4,1.691037E-2,2.825214E-3,-3.1986364E-4,-5.568977E-4,-1.7410683E-2,-1.3429304E-2,-0E0,-9.657491E-3,-0E0],"categories":[],"categories_nodes":[],"categories_segments":[],"categories_sizes":[],"default_left":[0,0,0,0,0,0,0,0,0,0,0,0,0,0,0,0,0,0,0,0,0,0,0,0,0,0,0,0,0,0,0,0,0,0,0,0,0,0,0,0,0,0,0,0,0,0,0,0,0,0,0,0,0,0,0,0,0],"id":3,"left_children":[1,3,5,7,9,11,13,15,17,19,21,23,-1,25,-1,27,29,31,-1,-1,33,35,-1,37,-1,39,41,43,45,47,49,-1,51,-1,53,-1,-1,-1,-1,-1,55,-1,-1,-1,-1,-1,-1,-1,-1,-1,-1,-1,-1,-1,-1,-1,-1],"loss_changes":[8.4449084E2,2.2769534E2,9.381021E1,1.0947918E2,7.158734E1,3.502588E1,8.445932E1,6.2359077E1,1.3559456E1,1.1427429E1,4.683839E0,7.982727E0,0E0,1.5514797E1,0E0,1.46366005E1,2.2157463E1,3.3727722E0,0E0,0E0,9.076042E0,9.060638E0,0E0,6.095295E0,0E0,8.402992E0,2.2244062E0,1.3350541E1,1.0128459E1,8.212326E0,1.1870236E0,0E0,1.2854233E0,0E0,3.326294E0,0E0,0E0,0E0,0E0,0E0,2.372776E0,0E0,0E0,0E0,0E0,0E0,0E0,0E0,0E0,0E0,0E0,0E0,0E0,0E0,0E0,0E0,0E0],"parents":[2147483647,0,0,1,1,2,2,3,3,4,4,5,5,6,6,7,7,8,8,9,9,10,10,11,11,13,13,15,15,16,16,17,17,20,20,21,21,23,23,25,25,26,26,27,27,28,28,29,29,30,30,32,32,34,34,40,40],"right_children":[2,4,6,8,10,12,14,16,18,20,22,24,-1,26,-1,28,30,32,-1,-1,34,36,-1,38,-1,40,42,44,46,48,50,-1,52,-1,54,-1,-1,-1,-1,-1,56,-1,-1,-1,-1,-1,-1,-1,-1,-1,-1,-1,-1,-1,-1,-1,-1],"split_conditions":[-4.39E0,6E0,6E0,5E0,4E0,3E0,4E0,3E0,-5.14E0,-5.71E0,4E0,1E0,-0E0,-2.756242E0,1.3449642E-2,1.1E1,1.2E1,5E0,-0E0,-1.8858373E-2,-2.9E-1,2E0,3.2593287E-3,3.3E0,1.7544048E-2,2E0,9.2190266E-2,7.357357E-1,-6.7E0,5.8E-1,3.7931034E-1,-1.4927691E-3,-4.4020355E-1,-0E0,2.5E1,-0E0,-8.27559E-3,-0E0,1.0074748E-2,-0E0,2.3E-1,-0E0,5.416622E-3,-9.047941E-3,-0E0,-2.1558146E-3,5.890925E-3,4.9107324E-4,1.691037E-2,2.825214E-3,-3.1986364E-4,-5.568977E-4,-1.7410683E-2,-1.3429304E-2,-0E0,-9.657491E-3,-0E0],"split_indices":[92,114,114,55,49,96,49,49,92,92,97,49,0,92,0,48,54,114,0,0,42,55,0,91,0,54,69,84,92,84,102,0,115,0,23,0,0,0,0,0,42,0,0,0,0,0,0,0,0,0,0,0,0,0,0,0,0],"split_type":[0,0,0,0,0,0,0,0,0,0,0,0,0,0,0,0,0,0,0,0,0,0,0,0,0,0,0,0,0,0,0,0,0,0,0,0,0,0,0,0,0,0,0,0,0,0,0,0,0,0,0,0,0,0,0,0,0],"sum_hessian":[1.6803828E3,9.7691486E2,7.03468E2,4.6138208E2,5.155328E2,4.747901E2,2.2867789E2,3.281766E2,1.3320549E2,4.3904935E2,7.6483444E1,4.5629346E2,1.849666E1,1.3096848E2,9.770941E1,1.9045135E2,1.3772525E2,1.13458855E2,1.974663E1,3.243326E2,1.1471673E2,6.1235622E1,1.5247823E1,8.822132E1,3.680721E2,9.398092E1,3.698756E1,1.0271989E2,8.773147E1,9.548167E1,4.224358E1,2.6493084E1,8.6965775E1,2.1244005E1,9.3472725E1,2.7495241E1,3.374038E1,1.7745735E1,7.0475586E1,1.5996503E1,7.798442E1,1.7245768E1,1.974179E1,6.547996E1,3.7239925E1,3.0492428E1,5.7239044E1,2.4997253E1,7.048441E1,2.5996088E1,1.6247494E1,1.7743874E1,6.92219E1,7.2478966E1,2.0993757E1,6.2487144E1,1.5497273E1],"tree_param":{"num_deleted":"0","num_feature":"116","num_nodes":"57","size_leaf_vector":"1"}},{"base_weights":[-0E0,6.9859713E-1,-8.0658376E-1,-4.1723415E-1,1.0143023E0,-1.3148007E0,-1.3673817E-1,-7.283801E-1,7.883397E-3,1.1506268E0,-2.8082123E-1,-1.3595165E0,-0E0,-6.3561964E-1,6.2058544E-1,-8.940059E-1,-0E0,2.7540943E-1,1.235349E0,-9.589553E-3,-0E0,-6.497609E-4,-1.3865428E0,-9.151439E-1,-1.8883012E-2,9.5244163E-1,-3.6618754E-3,-1.0352226E0,-0E0,-0E0,4.7212854E-1,3.9887684E-3,1.2783666E0,-1.0452747E-3,-1.9778235E-2,-3.2132206E-4,-1.4944447E-2,1.8215829E-3,-2.4165125E-1,-0E0,1.54239265E-2,-0E0,-2.423824E-3,-0E0,-1.6401751E-2,9.81205E-3,-0E0,2.069062E-2,1.28965685E-2,-0E0,-7.6750237E-3],"categories":[],"categories_nodes":[],"categories_segments":[],"categories_sizes":[],"default_left":[0,0,0,0,0,0,0,0,0,0,0,0,0,0,0,0,0,0,0,0,0,0,0,0,0,0,0,0,0,0,0,0,0,0,0,0,0,0,0,0,0,0,0,0,0,0,0,0,0,0,0],"id":4,"left_children":[1,3,5,7,9,11,13,15,-1,17,19,21,-1,23,25,27,-1,29,31,-1,-1,-1,33,35,37,39,41,43,-1,-1,45,-1,47,-1,-1,-1,-1,-1,49,-1,-1,-1,-1,-1,-1,-1,-1,-1,-1,-1,-1],"loss_changes":[9.4575183E2,3.2531525E2,2.5012527E2,6.2231064E1,1.3455518E2,1.8471863E1,1.3152898E2,1.9043587E1,0E0,3.366278E1,1.3150536E1,1.5071411E0,0E0,2.8790031E1,3.579864E1,1.4147362E1,0E0,6.898065E0,8.635376E0,0E0,0E0,0E0,3.0170288E0,9.402527E0,3.7716978E0,1.0575615E1,6.7680854E-1,1.1046959E1,0E0,0E0,4.3124056E0,0E0,1.4321228E1,0E0,0E0,0E0,0E0,0E0,6.6834373E0,0E0,0E0,0E0,0E0,0E0,0E0,0E0,0E0,0E0,0E0,0E0,0E0],"parents":[2147483647,0,0,1,1,2,2,3,3,4,4,5,5,6,6,7,7,9,9,10,10,11,11,13,13,14,14,15,15,17,17,18,18,22,22,23,23,24,24,25,25,26,26,27,27,30,30,32,32,38,38],"right_children":[2,4,6,8,10,12,14,16,-1,18,20,22,-1,24,26,28,-1,30,32,-1,-1,-1,34,36,38,40,42,44,-1,-1,46,-1,48,-1,-1,-1,-1,-1,50,-1,-1,-1,-1,-1,-1,-1,-1,-1,-1,-1,-1],"split_conditions":[5E0,5E0,6E0,-2.32E0,3E0,6E0,3E0,1.6E1,7.883397E-3,-6.37E0,6E0,8E1,-0E0,-5.74E0,3E0,1E0,-0E0,1.2E0,1.9481782E0,-9.589553E-3,-0E0,-6.497609E-4,5E0,6E0,6E0,2.93E0,6.6666664E1,2E0,-0E0,-0E0,8.727735E-1,3.9887684E-3,3E0,-1.0452747E-3,-1.9778235E-2,-3.2132206E-4,-1.4944447E-2,1.8215829E-3,7E0,-0E0,1.54239265E-2,-0E0,-2.423824E-3,-0E0,-1.6401751E-2,9.81205E-3,-0E0,2.069062E-2,1.28965685E-2,-0E0,-7.6750237E-3],"split_indices":[99,98,98,92,96,49,49,48,0,92,98,0,0,92,55,97,0,91,91,0,0,0,114,114,114,91,2,99,0,0,40,0,99,0,0,0,0,0,99,0,0,0,0,0,0,0,0,0,0,0,0],"split_type":[0,0,0,0,0,0,0,0,0,0,0,0,0,0,0,0,0,0,0,0,0,0,0,0,0,0,0,0,0,0,0,0,0,0,0,0,0,0,0,0,0,0,0,0,0,0,0,0,0,0,0],"sum_hessian":[1.6744574E3,9.022012E2,7.722562E2,1.9242686E2,7.097743E2,4.2992828E2,3.4232797E2,1.5370444E2,3.872242E1,6.487998E2,6.0974495E1,4.1193378E2,1.7994503E1,2.138745E2,1.2845348E2,1.2496054E2,2.8743906E1,6.773299E1,5.8106683E2,3.573355E1,2.5240944E1,1.5241285E1,3.966925E2,1.361397E2,7.7734795E1,9.246521E1,3.5988262E1,1.0571793E2,1.9242607E1,1.5494727E1,5.223826E1,3.523904E1,5.4582776E2,1.6494658E1,3.8019785E2,2.9486183E1,1.0665351E2,2.274595E1,5.4988846E1,1.5996375E1,7.6468834E1,1.6245272E1,1.9742989E1,1.649571E1,8.922222E1,3.0744072E1,2.1494186E1,3.232068E2,2.2262099E2,2.4495495E1,3.0493351E1],"tree_param":{"num_deleted":"0","num_feature":"116","num_nodes":"51","size_leaf_vector":"1"}},{"base_weights":[1.5809122E-3,4.719167E-1,-6.233866E-1,-1.4158747E-2,1.0389282E0,-9.447407E-1,2.4690652E-1,9.6466905E-1,-6.8279225E-1,1.3310863E0,-1.4967561E-1,-2.213105E-1,-1.2638828E0,8.396994E-1,-3.9312688E-1,-0E0,1.0605686E0,-7.012501E-2,-1.0388178E0,5.8247936E-3,1.9485513E-2,-8.686642E-3,3.1884383E-2,-7.0175433E-1,5.133309E-1,-1.8084781E-2,-4.6767519E-4,-0E0,1.4721679E-2,-1.1947912E-2,2.519307E-3,5.0138223E-1,1.7481139E-2,-7.308973E-1,1.5558636E-1,-1.1083113E0,-3.1045024E-4,3.421709E-3,-0E0,-0E0,-8.7037164E-1,9.510617E-3,-0E0,-0E0,9.081588E-3,-1.3261211E-2,-0E0,6.470239E-3,-0E0,-1.643089E-2,-7.6975895E-4,-1.3852419E-2,-0E0],"categories":[],"categories_nodes":[],"categories_segments":[],"categories_sizes":[],"default_left":[0,0,0,0,0,0,0,0,0,0,0,0,0,0,0,0,0,0,0,0,0,0,0,0,0,0,0,0,0,0,0,0,0,0,0,0,0,0,0,0,0,0,0,0,0,0,0,0,0,0,0,0,0],"id":5,"left_children":[1,3,5,7,9,11,13,15,17,19,21,23,25,27,29,-1,31,33,35,-1,-1,-1,37,39,41,-1,-1,-1,-1,-1,-1,43,-1,45,47,49,-1,-1,-1,-1,51,-1,-1,-1,-1,-1,-1,-1,-1,-1,-1,-1,-1],"loss_changes":[4.9300748E2,2.761398E2,2.0663208E2,3.3635895E2,1.6943555E2,1.0801886E2,7.589088E1,2.007228E1,5.8031296E1,4.5930176E0,1.2831669E1,6.4107346E1,2.5081177E0,1.8945732E1,2.9021366E1,0E0,2.609558E0,2.4526052E1,2.9690552E0,0E0,0E0,0E0,1.9907687E0,8.030117E0,3.7419567E0,0E0,0E0,0E0,0E0,0E0,0E0,4.711025E0,0E0,1.9739037E0,7.7272286E0,1.0523529E0,0E0,0E0,0E0,0E0,3.4138184E0,0E0,0E0,0E0,0E0,0E0,0E0,0E0,0E0,0E0,0E0,0E0,0E0],"parents":[2147483647,0,0,1,1,2,2,3,3,4,4,5,5,6,6,7,7,8,8,9,9,10,10,11,11,12,12,13,13,14,14,16,16,17,17,18,18,22,22,23,23,24,24,31,31,33,33,34,34,35,35,40,40],"right_children":[2,4,6,8,10,12,14,16,18,20,22,24,26,28,30,-1,32,34,36,-1,-1,-1,38,40,42,-1,-1,-1,-1,-1,-1,44,-1,46,48,50,-1,-1,-1,-1,52,-1,-1,-1,-1,-1,-1,-1,-1,-1,-1,-1,-1],"split_conditions":[3E0,6E0,-8.4E-1,3E0,7E0,5E0,3E0,1.7685347E0,5E0,2.15E0,3.25E0,6E0,1.54E0,5E0,6E0,-0E0,5E0,5E0,2E0,5.8247936E-3,1.9485513E-2,-8.686642E-3,9E0,5E0,6E0,-1.8084781E-2,-4.6767519E-4,-0E0,1.4721679E-2,-1.1947912E-2,2.519307E-3,3.32E0,1.7481139E-2,3.8E0,1E0,5.751236E0,-3.1045024E-4,3.421709E-3,-0E0,-0E0,3.95E0,9.510617E-3,-0E0,-0E0,9.081588E-3,-1.3261211E-2,-0E0,6.470239E-3,-0E0,-1.643089E-2,-7.6975895E-4,-1.3852419E-2,-0E0],"split_indices":[55,98,85,99,99,99,99,91,99,91,91,98,65,98,98,0,98,98,70,0,0,0,54,114,114,0,0,0,0,0,0,91,0,91,55,91,0,0,0,0,91,0,0,0,0,0,0,0,0,0,0,0,0],"split_type":[0,0,0,0,0,0,0,0,0,0,0,0,0,0,0,0,0,0,0,0,0,0,0,0,0,0,0,0,0,0,0,0,0,0,0,0,0,0,0,0,0,0,0,0,0,0,0,0,0,0,0,0,0],"sum_hessian":[1.676572E3,9.6530676E2,7.112652E2,5.1251086E2,4.527959E2,5.2692126E2,1.8434393E2,2.020082E2,3.1050262E2,3.6934286E2,8.345304E1,1.713978E2,3.555235E2,1.02648674E2,8.169527E1,1.7495111E1,1.8451309E2,1.2467775E2,1.8582489E2,3.5731922E1,3.3361093E2,3.521988E1,4.8233162E1,1.1118287E2,6.0214928E1,3.3878653E2,1.6736946E1,2.174124E1,8.090744E1,5.3208874E1,2.8486391E1,6.19609E1,1.22552185E2,4.0485374E1,8.4192375E1,1.6533662E2,2.0488268E1,3.1240053E1,1.6993109E1,2.9237442E1,8.194543E1,4.0974724E1,1.9240202E1,1.524459E1,4.6716312E1,2.49904E1,1.5494974E1,4.296779E1,4.1224586E1,1.465922E2,1.8744421E1,6.5705635E1,1.623979E1],"tree_param":{"num_deleted":"0","num_feature":"116","num_nodes":"53","size_leaf_vector":"1"}},{"base_weights":[-0E0,-5.200643E-1,7.2575724E-1,-8.545223E-1,2.2545483E-2,-2.8098422E-1,9.2624354E-1,-1.0251229E0,-0E0,-4.7273853E-1,6.842978E-1,-7.134436E-1,8.340276E-3,1.0837965E0,4.186566E-2,-1.073698E0,-0E0,2.2661284E-1,-1.6017751E-1,-7.237517E-1,-0E0,8.0506176E-1,-0E0,-0E0,-9.1681415E-1,-0E0,1.1328547E0,-3.959044E-2,8.114681E-3,-0E0,-1.1625447E0,5.431347E-1,-9.131416E-4,-0E0,-4.311549E-3,-0E0,-1.4818599E-2,5.3137825E-3,-5.0222394E-3,1.056969E0,-1.0568397E-3,-0E0,-1.7029243E-2,1.2749676E0,-0E0,6.0189683E-3,-1.1106494E-2,-4.8705554E-3,2.816559E-4,-1.9289317E-2,-1.0270827E-2,-0E0,9.671604E-3,-8.042337E-3,2.8350393E-3,7.681137E-4,1.7848471E-2,1.28165325E-2,2.063884E-2,-7.021761E-3,2.1445293E-3],"categories":[],"categories_nodes":[],"categories_segments":[],"categories_sizes":[],"default_left":[0,0,0,0,0,0,0,0,0,0,0,0,0,0,0,0,0,0,0,0,0,0,0,0,0,0,0,0,0,0,0,0,0,0,0,0,0,0,0,0,0,0,0,0,0,0,0,0,0,0,0,0,0,0,0,0,0,0,0,0,0],"id":6,"left_children":[1,3,5,7,9,11,13,15,17,19,21,23,-1,25,27,29,-1,31,33,35,37,39,-1,-1,41,-1,43,45,-1,47,49,51,-1,-1,-1,53,-1,-1,-1,55,-1,-1,-1,57,59,-1,-1,-1,-1,-1,-1,-1,-1,-1,-1,-1,-1,-1,-1,-1,-1],"loss_changes":[6.34843E2,1.8392496E2,1.4914108E2,9.583368E1,1.21660065E2,4.4704613E1,7.286182E1,2.2959656E1,4.089531E0,2.5358215E1,1.5449532E1,1.0125828E1,0E0,2.8199524E1,9.474588E0,3.9360107E1,0E0,9.854932E0,1.3003225E0,2.801609E1,9.964409E0,4.074952E1,0E0,0E0,1.4545883E1,0E0,8.1880005E1,3.147613E1,0E0,2.4409862E0,2.0132446E1,5.0908375E-1,0E0,0E0,0E0,7.900476E0,0E0,0E0,0E0,1.4299133E1,0E0,0E0,0E0,5.8098145E0,5.6614256E0,0E0,0E0,0E0,0E0,0E0,0E0,0E0,0E0,0E0,0E0,0E0,0E0,0E0,0E0,0E0,0E0],"parents":[2147483647,0,0,1,1,2,2,3,3,4,4,5,5,6,6,7,7,8,8,9,9,10,10,11,11,13,13,14,14,15,15,17,17,18,18,19,19,20,20,21,21,24,24,26,26,27,27,29,29,30,30,31,31,35,35,39,39,43,43,44,44],"right_children":[2,4,6,8,10,12,14,16,18,20,22,24,-1,26,28,30,-1,32,34,36,38,40,-1,-1,42,-1,44,46,-1,48,50,52,-1,-1,-1,54,-1,-1,-1,56,-1,-1,-1,58,60,-1,-1,-1,-1,-1,-1,-1,-1,-1,-1,-1,-1,-1,-1,-1,-1],"split_conditions":[3E0,1.1E1,5E0,-7.5E-1,-9.90099E-1,-6.11898E-1,4E0,1E0,3E0,1E0,1E0,2.3333333E-1,8.340276E-3,-1.1601461E0,8E0,3E0,-0E0,5E0,3E0,5E0,6E0,5E0,-0E0,-0E0,3E0,-0E0,7E0,5E0,8.114681E-3,5.2E-1,6E0,6.75E1,-9.131416E-4,-0E0,-4.311549E-3,5E0,-1.4818599E-2,5.3137825E-3,-5.0222394E-3,5E0,-1.0568397E-3,-0E0,-1.7029243E-2,6E0,6E0,6.0189683E-3,-1.1106494E-2,-4.8705554E-3,2.816559E-4,-1.9289317E-2,-1.0270827E-2,-0E0,9.671604E-3,-8.042337E-3,2.8350393E-3,7.681137E-4,1.7848471E-2,1.28165325E-2,2.063884E-2,-7.021761E-3,2.1445293E-3],"split_indices":[49,48,98,85,85,85,55,79,55,38,56,102,0,69,48,99,0,99,99,99,99,99,0,0,99,0,99,99,0,84,98,2,0,0,0,98,0,0,0,98,0,0,0,98,98,0,0,0,0,0,0,0,0,0,0,0,0,0,0,0,0],"split_type":[0,0,0,0,0,0,0,0,0,0,0,0,0,0,0,0,0,0,0,0,0,0,0,0,0,0,0,0,0,0,0,0,0,0,0,0,0,0,0,0,0,0,0,0,0,0,0,0,0,0,0,0,0,0,0,0,0,0,0,0,0],"sum_hessian":[1.6725903E3,9.6883984E2,7.037504E2,6.088069E2,3.60033E2,1.0916321E2,5.945872E2,5.13415E2,9.539187E1,1.9849213E2,1.6154086E2,8.044226E1,2.8720945E1,4.954415E2,9.914575E1,4.8769147E2,2.5723518E1,5.592514E1,3.946673E1,1.3156915E2,6.692297E1,1.3981026E2,2.1730604E1,2.0732979E1,5.970928E1,2.0233498E1,4.75208E2,7.3672386E1,2.5473362E1,4.2962708E1,4.4472876E2,4.0683712E1,1.5241427E1,1.7235596E1,2.2231134E1,4.7212387E1,8.435676E1,3.5216476E1,3.1706497E1,1.1633283E2,2.3477425E1,1.7491598E1,4.221768E1,4.249856E2,5.0222404E1,3.8708027E1,3.4964363E1,1.7239727E1,2.572298E1,2.746974E2,1.7003139E2,1.5722952E1,2.496076E1,1.6989101E1,3.0223288E1,2.9235426E1,8.7097404E1,1.7721617E2,2.4776942E2,1.6233604E1,3.39888E1],"tree_param":{"num_deleted":"0","num_feature":"116","num_nodes":"61","size_leaf_vector":"1"}},{"base_weights":[-3.1092032E-3,4.8192742E-1,-6.2098837E-1,1.1351303E0,-1.1836915E-2,-9.641799E-1,4.4944263E-1,-0E0,1.2795763E0,-6.4546883E-1,8.4789044E-1,-1.3594885E0,-4.0069127E-1,-1.6669671E-1,9.4445145E-1,-4.487619E-3,3.1060632E-3,5.4254746E-1,2.014538E-2,-1.693191E-2,-2.119657E-1,1.0532808E0,-5.0917927E-2,-1.4081008E0,-3.1887795E-4,-9.396561E-1,1.2787364E-1,-9.130268E-3,3.9212774E-3,-0E0,1.5836533E-2,-0E0,1.2862967E-2,2.2249341E-1,-7.0251405E-1,1.1813661E0,-0E0,-2.9959492E-3,-0E0,-0E0,-2.0321254E-2,-1.012127E0,-0E0,5.0032055E-1,-6.8474873E-3,3.170641E-3,-0E0,1.0751437E-2,-0E0,-0E0,-1.2490637E-2,1.741216E-3,1.790769E-2,-2.7003167E-3,-1.6099352E-2,-0E0,8.953467E-3],"categories":[],"categories_nodes":[],"categories_segments":[],"categories_sizes":[],"default_left":[0,0,0,0,0,0,0,0,0,0,0,0,0,0,0,0,0,0,0,0,0,0,0,0,0,0,0,0,0,0,0,0,0,0,0,0,0,0,0,0,0,0,0,0,0,0,0,0,0,0,0,0,0,0,0,0,0],"id":7,"left_children":[1,3,5,7,9,11,13,15,17,19,21,23,25,27,29,-1,-1,31,-1,-1,33,35,37,39,-1,41,43,-1,-1,-1,-1,45,-1,47,49,51,-1,-1,-1,-1,-1,53,-1,55,-1,-1,-1,-1,-1,-1,-1,-1,-1,-1,-1,-1,-1],"loss_changes":[5.0156506E2,3.092292E2,2.7856036E2,6.709961E1,2.8431857E2,1.093869E2,6.105333E1,3.6896536E0,2.391864E1,6.2450043E1,4.928253E1,7.958435E0,7.8361046E1,1.9705772E1,2.0629555E1,0E0,0E0,9.155739E0,0E0,0E0,4.4719612E1,2.3962646E1,7.4819314E-1,9.56134E0,0E0,2.5113144E0,2.8186792E1,0E0,0E0,0E0,0E0,1.3140335E0,0E0,1.6950672E1,7.204632E0,4.652542E0,0E0,0E0,0E0,0E0,0E0,6.8426514E-1,0E0,2.6297817E0,0E0,0E0,0E0,0E0,0E0,0E0,0E0,0E0,0E0,0E0,0E0,0E0,0E0],"parents":[2147483647,0,0,1,1,2,2,3,3,4,4,5,5,6,6,7,7,8,8,9,9,10,10,11,11,12,12,13,13,14,14,17,17,20,20,21,21,22,22,23,23,25,25,26,26,31,31,33,33,34,34,35,35,41,41,43,43],"right_children":[2,4,6,8,10,12,14,16,18,20,22,24,26,28,30,-1,-1,32,-1,-1,34,36,38,40,-1,42,44,-1,-1,-1,-1,46,-1,48,50,52,-1,-1,-1,-1,-1,54,-1,56,-1,-1,-1,-1,-1,-1,-1,-1,-1,-1,-1,-1,-1],"split_conditions":[6E0,3E0,4E0,1.79E0,6E0,6E0,6E0,5E0,5E0,5E0,5E0,-2.8568728E0,-5.76E0,-3.7298548E0,-6.34E0,-4.487619E-3,3.1060632E-3,-6.11898E-1,2.014538E-2,-1.693191E-2,5E0,7E0,-6.42E0,3E0,-3.1887795E-4,4.02E0,8E0,-9.130268E-3,3.9212774E-3,-0E0,1.5836533E-2,5E0,1.2862967E-2,1E0,1E0,2.3076346E0,-0E0,-2.9959492E-3,-0E0,-0E0,-2.0321254E-2,2E0,-0E0,-1.3E-1,-6.8474873E-3,3.170641E-3,-0E0,1.0751437E-2,-0E0,-0E0,-1.2490637E-2,1.741216E-3,1.790769E-2,-2.7003167E-3,-1.6099352E-2,-0E0,8.953467E-3],"split_indices":[114,99,49,91,98,98,98,98,98,98,55,92,92,92,92,0,0,85,0,0,99,99,92,99,0,91,99,0,0,0,0,114,0,55,55,91,0,0,0,0,0,55,0,68,0,0,0,0,0,0,0,0,0,0,0,0,0],"split_type":[0,0,0,0,0,0,0,0,0,0,0,0,0,0,0,0,0,0,0,0,0,0,0,0,0,0,0,0,0,0,0,0,0,0,0,0,0,0,0,0,0,0,0,0,0,0,0,0,0,0,0,0,0,0,0,0,0],"sum_hessian":[1.664051E3,9.2432367E2,7.3972736E2,4.0435678E2,5.1996686E2,5.66773E2,1.729543E2,4.5725037E1,3.5863174E2,3.0581607E2,2.1415079E2,3.2140067E2,2.4537239E2,6.9652855E1,1.03301445E2,1.8739256E1,2.698578E1,7.793884E1,2.806929E2,1.21081154E2,1.8473491E2,1.8217963E2,3.1971163E1,3.034198E2,1.7980852E1,1.2898389E2,1.1638849E2,4.245248E1,2.7200378E1,1.6739302E1,8.656215E1,4.198075E1,3.595809E1,8.890928E1,9.582564E1,1.6144077E2,2.0738853E1,1.5481285E1,1.6489876E1,1.5986902E1,2.874329E2,1.1325795E2,1.5725944E1,8.2159E1,3.4229492E1,2.2739584E1,1.9241169E1,3.345612E1,5.545316E1,2.8969727E1,6.685591E1,2.2735163E1,1.3870561E2,2.7212809E1,8.604514E1,2.6974651E1,5.518435E1],"tree_param":{"num_deleted":"0","num_feature":"116","num_nodes":"57","size_leaf_vector":"1"}},{"base_weights":[3.0113975E-4,-5.693023E-1,8.000619E-1,-7.7300675E-2,-9.807381E-1,1.0469134E0,2.352618E-1,1.1945922E-1,-8.205117E-1,-1.0668918E0,2.8387312E-2,1.0922139E0,-0E0,-0E0,8.062095E-1,-3.3967292E-1,9.057897E-1,-1.4649061E-2,-0E0,-1.9278798E-2,-5.7558346E-1,-0E0,2.7193055E-3,1.6973041E-1,1.7970527E-2,-5.4018605E-1,4.821319E-1,-0E0,1.5412123E-2,-8.348338E-1,-0E0,-0E0,1.3433064E-2,-9.724771E-1,-0E0,-1.882874E-1,1.0160504E-2,-0E0,-6.466709E-1,9.017114E-3,-0E0,-1.3326577E-2,-0E0,-3.3868707E-3,4.5353607E-3,-1.4805311E-2,-0E0,5.3092116E-4,-3.994077E-3,-0E0,-5.9667462E-3,-0E0,-1.0906968E-2],"categories":[],"categories_nodes":[],"categories_segments":[],"categories_sizes":[],"default_left":[0,0,0,0,0,0,0,0,0,0,0,0,0,0,0,0,0,0,0,0,0,0,0,0,0,0,0,0,0,0,0,0,0,0,0,0,0,0,0,0,0,0,0,0,0,0,0,0,0,0,0,0,0],"id":8,"left_children":[1,3,5,7,9,11,13,15,17,19,21,23,-1,25,27,29,31,-1,-1,-1,33,-1,-1,35,-1,37,39,-1,-1,41,43,-1,-1,45,47,49,-1,-1,51,-1,-1,-1,-1,-1,-1,-1,-1,-1,-1,-1,-1,-1,-1],"loss_changes":[7.7016205E2,1.8816385E2,8.639075E1,7.3666E1,5.493698E1,2.5122925E1,3.648766E1,1.3415985E2,1.6438072E1,5.6102966E1,7.284276E-1,7.018793E1,0E0,4.1958733E1,1.6795692E1,4.2533073E1,8.6862946E-1,0E0,0E0,0E0,4.1761826E1,0E0,0E0,2.3811508E1,0E0,3.8954792E0,1.7816029E0,0E0,0E0,5.5755386E0,1.0594963E1,0E0,0E0,7.562103E-1,2.4880714E0,2.9751596E0,0E0,0E0,3.4370365E0,0E0,0E0,0E0,0E0,0E0,0E0,0E0,0E0,0E0,0E0,0E0,0E0,0E0,0E0],"parents":[2147483647,0,0,1,1,2,2,3,3,4,4,5,5,6,6,7,7,8,8,9,9,10,10,11,11,13,13,14,14,15,15,16,16,20,20,23,23,25,25,26,26,29,29,30,30,33,33,34,34,35,35,38,38],"right_children":[2,4,6,8,10,12,14,16,18,20,22,24,-1,26,28,30,32,-1,-1,-1,34,-1,-1,36,-1,38,40,-1,-1,42,44,-1,-1,46,48,50,-1,-1,52,-1,-1,-1,-1,-1,-1,-1,-1,-1,-1,-1,-1,-1,-1],"split_conditions":[-4.39E0,6E0,6E0,2E0,3E0,3E0,2E0,6E0,6E0,6E0,-1.9E-1,5E0,-0E0,6E0,6E0,5E0,-8.31E0,-1.4649061E-2,-0E0,-1.9278798E-2,-6.51E0,-0E0,2.7193055E-3,-6.11898E-1,1.7970527E-2,3E0,2.2E1,-0E0,1.5412123E-2,1.6E1,-6.29E0,-0E0,1.3433064E-2,1.1E1,2E0,4.074074E-1,1.0160504E-2,-0E0,5.8E-1,9.017114E-3,-0E0,-1.3326577E-2,-0E0,-3.3868707E-3,4.5353607E-3,-1.4805311E-2,-0E0,5.3092116E-4,-3.994077E-3,-0E0,-5.9667462E-3,-0E0,-1.0906968E-2],"split_indices":[92,114,114,96,97,96,97,98,98,98,69,98,0,98,98,98,92,0,0,0,92,0,0,85,0,54,87,0,0,48,92,0,0,48,96,102,0,0,44,0,0,0,0,0,0,0,0,0,0,0,0,0,0],"split_type":[0,0,0,0,0,0,0,0,0,0,0,0,0,0,0,0,0,0,0,0,0,0,0,0,0,0,0,0,0,0,0,0,0,0,0,0,0,0,0,0,0,0,0,0,0,0,0,0,0,0,0,0,0],"sum_hessian":[1.6807035E3,9.754022E2,7.053012E2,4.557145E2,5.1968774E2,4.780101E2,2.272911E2,3.5241434E2,1.0330018E2,4.8697134E2,3.271637E1,4.6002423E2,1.7985867E1,1.542344E2,7.305671E1,2.1615253E2,1.3626181E2,7.682635E1,2.647383E1,2.8213513E2,2.0483621E2,1.5485727E1,1.7230644E1,8.990971E1,3.7011453E2,7.938108E1,7.485332E1,2.1713219E1,5.134349E1,9.458985E1,1.2156267E2,1.5236383E1,1.2102542E2,1.141868E2,9.0649414E1,4.5974007E1,4.3935707E1,1.5479588E1,6.3901497E1,4.466189E1,3.0191427E1,7.760548E1,1.6984377E1,5.7900997E1,6.3661674E1,9.5978874E1,1.8207924E1,6.4183075E1,2.6466337E1,2.2984287E1,2.2989717E1,1.5477053E1,4.8424442E1],"tree_param":{"num_deleted":"0","num_feature":"116","num_nodes":"53","size_leaf_vector":"1"}},{"base_weights":[-0E0,6.655441E-1,-7.918876E-1,-3.372986E-1,9.521469E-1,-1.2708436E0,-1.5337436E-1,-7.202378E-1,4.2322364E-1,1.0598352E0,-4.9024048E-1,-1.3181748E0,-0E0,-6.216243E-1,5.8933824E-1,-9.5436454E-1,-0E0,1.276316E-2,-0E0,1.1100118E0,-0E0,-9.126861E-3,-0E0,-1.0643661E-3,-1.88371E-2,-8.895565E-1,-5.484273E-3,8.9284337E-1,-0E0,-1.5336317E-2,-0E0,1.9458997E-3,-4.9566063E-3,1.8819168E-2,7.4885637E-1,-1.33584775E-2,-0E0,2.4851978E-1,-6.9459225E-3,-0E0,1.4645887E-2,1.7913472E-3,1.545706E-2,-0E0,7.2145145E-3],"categories":[],"categories_nodes":[],"categories_segments":[],"categories_sizes":[],"default_left":[0,0,0,0,0,0,0,0,0,0,0,0,0,0,0,0,0,0,0,0,0,0,0,0,0,0,0,0,0,0,0,0,0,0,0,0,0,0,0,0,0,0,0,0,0],"id":9,"left_children":[1,3,5,7,9,11,13,15,17,19,21,23,-1,25,27,29,31,-1,-1,33,-1,-1,-1,-1,-1,35,37,39,-1,-1,-1,-1,-1,-1,41,-1,-1,43,-1,-1,-1,-1,-1,-1,-1],"loss_changes":[8.818671E2,2.663266E2,2.2128015E2,6.056106E1,1.1699585E2,2.0153564E1,1.1957053E2,1.7492012E1,2.0056442E1,4.139044E1,1.2592745E0,3.647705E0,0E0,2.7743614E1,2.794048E1,6.818886E0,3.6398203E0,0E0,0E0,3.3934204E1,0E0,0E0,0E0,0E0,0E0,3.492958E0,1.2471482E1,9.85807E0,0E0,0E0,0E0,0E0,0E0,0E0,5.038243E1,0E0,0E0,2.8250043E0,0E0,0E0,0E0,0E0,0E0,0E0,0E0],"parents":[2147483647,0,0,1,1,2,2,3,3,4,4,5,5,6,6,7,7,8,8,9,9,10,10,11,11,13,13,14,14,15,15,16,16,19,19,25,25,26,26,27,27,34,34,37,37],"right_children":[2,4,6,8,10,12,14,16,18,20,22,24,-1,26,28,30,32,-1,-1,34,-1,-1,-1,-1,-1,36,38,40,-1,-1,-1,-1,-1,-1,42,-1,-1,44,-1,-1,-1,-1,-1,-1,-1],"split_conditions":[5E0,5E0,6E0,-6.3897765E-1,4E0,6E0,3E0,3.95E0,5E0,2E0,2.63E0,5E0,-0E0,-5.74E0,3E0,1.6E1,3E0,1.276316E-2,-0E0,3E0,-0E0,-9.126861E-3,-0E0,-1.0643661E-3,-1.88371E-2,4.02E0,7E0,2.95E0,-0E0,-1.5336317E-2,-0E0,1.9458997E-3,-4.9566063E-3,1.8819168E-2,6E0,-1.33584775E-2,-0E0,3.2147938E-1,-6.9459225E-3,-0E0,1.4645887E-2,1.7913472E-3,1.545706E-2,-0E0,7.2145145E-3],"split_indices":[99,98,98,85,96,49,49,91,114,56,91,114,0,92,55,48,99,0,0,99,0,0,0,0,0,91,99,91,0,0,0,0,0,0,98,0,0,64,0,0,0,0,0,0,0],"split_type":[0,0,0,0,0,0,0,0,0,0,0,0,0,0,0,0,0,0,0,0,0,0,0,0,0,0,0,0,0,0,0,0,0,0,0,0,0,0,0,0,0,0,0,0,0],"sum_hessian":[1.6664764E3,9.0153033E2,7.649461E2,1.9322485E2,7.083055E2,4.2744064E2,3.3750546E2,1.36561E2,5.6663853E1,6.656206E2,4.2684837E1,4.087067E2,1.8733936E1,2.147755E2,1.2272996E2,9.583576E1,4.0725246E1,3.39418E1,2.2722055E1,6.4016125E2,2.5459333E1,2.5701359E1,1.6983479E1,1.7968784E1,3.907379E2,1.3857552E2,7.619999E1,8.701982E1,3.5710136E1,7.709623E1,1.8739532E1,1.7740599E1,2.2984646E1,3.6510434E2,2.7505695E2,1.22853035E2,1.5722474E1,3.8976025E1,3.7223965E1,1.5981103E1,7.103872E1,1.1159701E2,1.6345993E2,2.1488773E1,1.7487251E1],"tree_param":{"num_deleted":"0","num_feature":"116","num_nodes":"45","size_leaf_vector":"1"}},{"base_weights":[-0E0,6.655705E-1,-7.6529604E-1,-3.1927216E-1,9.5850223E-1,-1.2297652E0,-1.4834909E-1,1.8565236E-1,-1.0300393E0,1.0448895E0,-2.4335845E-1,-1.7789837E-2,-0E0,-6.3900805E-1,6.0184336E-1,4.6761554E-1,-9.133417E-3,-1.6933827E-2,-0E0,1.1746088E0,9.51865E-2,-0E0,-6.1112153E-3,-0E0,-9.845639E-1,9.1401017E-1,-0E0,-0E0,7.123255E-1,1.9208767E-2,8.52741E-1,5.2716887E-1,-1.6023907E-1,-6.3477876E-3,1.4510557E-1,-1.6084904E-2,-2.600516E-1,1.589919E-2,-0E0,-0E0,-1.8921986E-3,1.1808179E-2,-0E0,5.649733E-4,1.3667939E-2,-0E0,1.0554231E-2,-6.4389626E-3,-0E0,-0E0,5.2422374E-3,-0E0,-5.321163E-3],"categories":[],"categories_nodes":[],"categories_segments":[],"categories_sizes":[],"default_left":[0,0,0,0,0,0,0,0,0,0,0,0,0,0,0,0,0,0,0,0,0,0,0,0,0,0,0,0,0,0,0,0,0,0,0,0,0,0,0,0,0,0,0,0,0,0,0,0,0,0,0,0,0],"id":10,"left_children":[1,3,5,7,9,11,13,15,17,19,21,-1,-1,23,25,27,-1,-1,-1,29,31,-1,-1,33,35,37,39,-1,41,-1,43,45,47,-1,49,-1,51,-1,-1,-1,-1,-1,-1,-1,-1,-1,-1,-1,-1,-1,-1,-1,-1],"loss_changes":[8.458854E2,2.6325705E2,2.0804626E2,7.953786E1,7.995856E1,1.8397034E1,1.2753418E2,2.5429445E1,1.3551117E1,6.878308E1,1.8845034E0,0E0,0E0,4.2255035E1,3.1901798E1,1.6525883E1,0E0,0E0,0E0,1.3703918E1,1.3488825E1,0E0,0E0,7.4305077E0,2.841751E0,9.804131E0,3.4809595E-1,0E0,3.420288E0,0E0,1.5907394E1,3.37951E0,3.61052E0,0E0,3.9176154E0,0E0,4.3191433E-1,0E0,0E0,0E0,0E0,0E0,0E0,0E0,0E0,0E0,0E0,0E0,0E0,0E0,0E0,0E0,0E0],"parents":[2147483647,0,0,1,1,2,2,3,3,4,4,5,5,6,6,7,7,8,8,9,9,10,10,13,13,14,14,15,15,19,19,20,20,23,23,24,24,25,25,26,26,28,28,30,30,31,31,32,32,34,34,36,36],"right_children":[2,4,6,8,10,12,14,16,18,20,22,-1,-1,24,26,28,-1,-1,-1,30,32,-1,-1,34,36,38,40,-1,42,-1,44,46,48,-1,50,-1,52,-1,-1,-1,-1,-1,-1,-1,-1,-1,-1,-1,-1,-1,-1,-1,-1],"split_conditions":[5E0,5E0,6E0,3E0,2E0,6E0,3E0,1E0,8.8E-1,5E0,3E0,-1.7789837E-2,-0E0,7E0,3E0,4.8E-1,-9.133417E-3,-1.6933827E-2,-0E0,3E0,3E0,-0E0,-6.1112153E-3,6.0823256E-1,8.880407E-1,8E0,8E0,-0E0,8.15E1,1.9208767E-2,5.738189E-1,2E0,6.3E-1,-6.3477876E-3,3.15E0,-1.6084904E-2,3E0,1.589919E-2,-0E0,-0E0,-1.8921986E-3,1.1808179E-2,-0E0,5.649733E-4,1.3667939E-2,-0E0,1.0554231E-2,-6.4389626E-3,-0E0,-0E0,5.2422374E-3,-0E0,-5.321163E-3],"split_indices":[99,98,98,99,56,49,49,56,84,55,55,0,0,99,55,84,0,0,0,99,99,0,0,84,84,99,99,0,1,0,84,49,84,0,91,0,55,0,0,0,0,0,0,0,0,0,0,0,0,0,0,0,0],"split_type":[0,0,0,0,0,0,0,0,0,0,0,0,0,0,0,0,0,0,0,0,0,0,0,0,0,0,0,0,0,0,0,0,0,0,0,0,0,0,0,0,0,0,0,0,0,0,0,0,0,0,0,0,0],"sum_hessian":[1.6556909E3,8.8689496E2,7.687959E2,1.9615073E2,6.9074426E2,4.2868033E2,3.4011557E2,1.0835158E2,8.779916E1,6.518073E2,3.893693E1,4.091966E2,1.9483728E1,2.1319339E2,1.26922195E2,9.012519E1,1.8226385E1,7.156552E1,1.6233633E1,5.6449774E2,8.730958E1,1.8973566E1,1.9963366E1,8.133902E1,1.3185437E2,9.170939E1,3.5212803E1,2.0231808E1,6.989339E1,3.232943E2,2.4120341E2,4.4618256E1,4.269132E1,2.742948E1,5.3909534E1,9.543002E1,3.6424347E1,6.548449E1,2.62249E1,1.898121E1,1.6231592E1,5.34157E1,1.6477686E1,4.292559E1,1.9827783E2,1.8461254E1,2.6157003E1,1.9719717E1,2.2971603E1,2.0444656E1,3.3464878E1,1.7980236E1,1.844411E1],"tree_param":{"num_deleted":"0","num_feature":"116","num_nodes":"53","size_leaf_vector":"1"}},{"base_weights":[-1.3137652E-2,6.242617E-1,-7.6807314E-1,-2.217803E-1,8.6560476E-1,-1.0456756E0,-2.1639104E-1,-1.3518245E-2,9.373005E-2,-1.8198712E-2,1.0804436E0,-1.84398E-2,-5.850159E-1,-9.7261125E-1,4.2761862E-1,3.0954814E-1,-6.1228084E-3,-3.6938065E-1,8.114491E-3,1.1212668E0,-0E0,-7.674188E-1,-0E0,-1.4554023E-2,-0E0,-0E0,7.8616184E-1,9.611272E-3,-0E0,-0E0,-1.20032495E-2,1.1620754E0,-0E0,-1.4695899E-1,-1.4194036E-2,1.0313465E-3,-2.242915E-3,6.485816E-3,-5.60655E-3,1.5438661E-2,-0E0,-2.579443E-3,-0E0,2.4250227E-3,-0E0,1.2487193E-2,1.8802974E-2,-3.5136014E-3,-0E0],"categories":[],"categories_nodes":[],"categories_segments":[],"categories_sizes":[],"default_left":[0,0,0,0,0,0,0,0,0,0,0,0,0,0,0,0,0,0,0,0,0,0,0,0,0,0,0,0,0,0,0,0,0,0,0,0,0,0,0,0,0,0,0,0,0,0,0,0,0],"id":11,"left_children":[1,3,5,7,9,11,13,-1,15,17,19,-1,21,23,25,27,-1,29,-1,31,-1,33,35,-1,-1,37,39,-1,41,43,-1,45,-1,47,-1,-1,-1,-1,-1,-1,-1,-1,-1,-1,-1,-1,-1,-1,-1],"loss_changes":[8.095508E2,1.9099548E2,1.0667932E2,5.4093746E1,1.449859E2,4.4950806E1,1.3945609E2,0E0,1.4208263E1,2.68145E1,3.060614E1,0E0,2.07995E1,2.3559952E0,1.8131084E1,1.6401352E1,0E0,2.4817207E1,0E0,3.2004883E1,0E0,1.3171623E1,8.1205285E-1,0E0,0E0,1.4692778E1,8.110161E0,0E0,1.0056646E0,5.945193E-1,0E0,3.6757812E0,0E0,1.3181503E0,0E0,0E0,0E0,0E0,0E0,0E0,0E0,0E0,0E0,0E0,0E0,0E0,0E0,0E0,0E0],"parents":[2147483647,0,0,1,1,2,2,3,3,4,4,5,5,6,6,8,8,9,9,10,10,12,12,13,13,14,14,15,15,17,17,19,19,21,21,22,22,25,25,26,26,28,28,29,29,31,31,33,33],"right_children":[2,4,6,8,10,12,14,-1,16,18,20,-1,22,24,26,28,-1,30,-1,32,-1,34,36,-1,-1,38,40,-1,42,44,-1,46,-1,48,-1,-1,-1,-1,-1,-1,-1,-1,-1,-1,-1,-1,-1,-1,-1],"split_conditions":[5E0,2.3076346E0,3.82E0,5E0,5E0,6E0,6E0,-1.3518245E-2,1E0,-2.32E0,3E0,-1.84398E-2,-5.74E0,4.4E-1,1E0,3E0,-6.1228084E-3,3E0,8.114491E-3,4E0,-0E0,7E0,7E0,-1.4554023E-2,-0E0,7E0,8E0,9.611272E-3,6E0,7.5063616E-1,-1.20032495E-2,6E0,-0E0,1.02E1,-1.4194036E-2,1.0313465E-3,-2.242915E-3,6.485816E-3,-5.60655E-3,1.5438661E-2,-0E0,-2.579443E-3,-0E0,2.4250227E-3,-0E0,1.2487193E-2,1.8802974E-2,-3.5136014E-3,-0E0],"split_indices":[99,91,91,98,98,98,98,0,56,92,56,0,92,68,100,99,0,99,0,96,0,99,99,0,0,99,99,0,98,43,0,98,0,93,0,0,0,0,0,0,0,0,0,0,0,0,0,0,0],"split_type":[0,0,0,0,0,0,0,0,0,0,0,0,0,0,0,0,0,0,0,0,0,0,0,0,0,0,0,0,0,0,0,0,0,0,0,0,0,0,0,0,0,0,0,0,0,0,0,0,0],"sum_hessian":[1.6743424E3,9.015613E2,7.727812E2,1.9178528E2,7.09776E2,5.0154236E2,2.7123883E2,6.3812996E1,1.2797229E2,1.3099594E2,5.7878E2,2.9773315E2,2.038092E2,1.3062064E2,1.406182E2,1.0402497E2,2.3947317E1,9.284902E1,3.8146923E1,5.615562E2,1.7223845E1,1.5264122E2,5.116798E1,1.151728E2,1.5447839E1,7.155303E1,6.9065155E1,5.3347397E1,5.0677578E1,4.44601E1,4.838892E1,5.4632477E2,1.5231464E1,5.55889E1,9.705232E1,2.9196661E1,2.1971321E1,3.8607502E1,3.2945526E1,4.0094353E1,2.8970806E1,2.6711086E1,2.3966492E1,1.6984413E1,2.7475683E1,2.5161519E2,2.9470956E2,3.789081E1,1.7698093E1],"tree_param":{"num_deleted":"0","num_feature":"116","num_nodes":"49","size_leaf_vector":"1"}},{"base_weights":[-6.8754656E-3,6.2581116E-1,-7.559268E-1,-3.9620078E-1,9.1603744E-1,-1.2093253E0,-1.5712418E-1,-7.6731455E-1,4.156492E-1,1.0384094E0,-2.349268E-1,-0E0,-1.2396135E0,-6.3385624E-1,3.60976E-1,-9.120439E-1,-0E0,1.0877342E-2,-0E0,1.0769801E0,-0E0,-8.346391E-3,-0E0,-1.3979593E-3,-1.7689558E-2,-0E0,-8.376682E-1,1.0568009E-2,4.257789E-2,-0E0,-1.4375607E-2,1.1250342E0,4.8488174E-2,-9.290374E-1,-0E0,-0E0,5.9728655E-3,1.9087095E-2,1.04881385E-2,4.687748E-3,-0E0,-1.5071581E-2,-0E0,3.0281364E-3,-4.8374324E-3],"categories":[],"categories_nodes":[],"categories_segments":[],"categories_sizes":[],"default_left":[0,0,0,0,0,0,0,0,0,0,0,0,0,0,0,0,0,0,0,0,0,0,0,0,0,0,0,0,0,0,0,0,0,0,0,0,0,0,0,0,0,0,0,0,0],"id":12,"left_children":[1,3,5,7,9,11,13,15,17,19,21,-1,23,25,27,29,-1,-1,-1,31,-1,-1,-1,-1,-1,-1,33,-1,35,-1,-1,37,39,41,-1,43,-1,-1,-1,-1,-1,-1,-1,-1,-1],"loss_changes":[7.95407E2,2.7322253E2,1.9719095E2,6.2620377E1,1.0798346E2,7.9314575E0,8.835225E1,1.4795769E1,1.1083817E1,2.8684998E1,1.0158984E1,0E0,1.1049194E0,2.4559471E1,1.260799E1,6.968788E0,0E0,0E0,0E0,2.0251648E1,0E0,0E0,0E0,0E0,0E0,0E0,8.580414E0,0E0,4.650046E0,0E0,0E0,3.183319E1,2.5434206E0,1.2239319E1,0E0,7.0895805E0,0E0,0E0,0E0,0E0,0E0,0E0,0E0,0E0,0E0],"parents":[2147483647,0,0,1,1,2,2,3,3,4,4,5,5,6,6,7,7,8,8,9,9,10,10,12,12,13,13,14,14,15,15,19,19,26,26,28,28,31,31,32,32,33,33,35,35],"right_children":[2,4,6,8,10,12,14,16,18,20,22,-1,24,26,28,30,-1,-1,-1,32,-1,-1,-1,-1,-1,-1,34,-1,36,-1,-1,38,40,42,-1,44,-1,-1,-1,-1,-1,-1,-1,-1,-1],"split_conditions":[5E0,5E0,6E0,-6.11898E-1,3E0,8.0833336E1,-5.74E0,8.574514E-1,5E0,2E0,6E0,-0E0,5E0,6E0,6E0,5.942857E1,-0E0,1.0877342E-2,-0E0,5.625E-1,-0E0,-8.346391E-3,-0E0,-1.3979593E-3,-1.7689558E-2,-0E0,1.04E-1,1.0568009E-2,3.7931034E-1,-0E0,-1.4375607E-2,3E0,3E0,3.8E0,-0E0,7E0,5.9728655E-3,1.9087095E-2,1.04881385E-2,4.687748E-3,-0E0,-1.5071581E-2,-0E0,3.0281364E-3,-4.8374324E-3],"split_indices":[99,98,98,85,96,0,92,84,114,56,98,0,114,114,114,105,0,0,0,101,0,0,0,0,0,0,88,0,102,0,0,99,99,91,0,99,0,0,0,0,0,0,0,0,0],"split_type":[0,0,0,0,0,0,0,0,0,0,0,0,0,0,0,0,0,0,0,0,0,0,0,0,0,0,0,0,0,0,0,0,0,0,0,0,0,0,0,0,0,0,0,0,0],"sum_hessian":[1.67056E3,8.992806E2,7.712795E2,1.917484E2,7.0753217E2,4.2874487E2,3.4253464E2,1.3938101E2,5.2367382E1,6.469125E2,6.0619686E1,1.5662578E1,4.1308228E2,1.8721983E2,1.553148E2,1.15664314E2,2.37167E1,3.1158358E1,2.1209026E1,6.259491E2,2.0963411E1,3.5421078E1,2.5198606E1,1.8444332E1,3.9463794E2,4.6158363E1,1.4106148E2,5.4769764E1,1.00545044E2,1.9216463E1,9.644785E1,5.8932306E2,3.6626053E1,1.2412301E2,1.6938467E1,7.685755E1,2.3687492E1,3.370092E2,2.5231386E2,2.0647396E1,1.5978658E1,1.0142793E2,2.2695078E1,3.5660034E1,4.1197517E1],"tree_param":{"num_deleted":"0","num_feature":"116","num_nodes":"45","size_leaf_vector":"1"}},{"base_weights":[1.6622706E-3,6.388081E-1,-7.248855E-1,-3.3786148E-1,9.116052E-1,-1.1868418E0,-1.18327476E-1,1.3666739E-1,-1.4001017E-2,1.0322303E0,-0E0,-1.2371842E0,-0E0,-5.818652E-1,5.754968E-1,-2.7433014E-1,8.702374E-3,1.145328E0,1.480617E-1,-3.6210564E-1,1.9373806E-1,-0E0,-1.7752184E-2,-0E0,-8.9227843E-1,9.0165824E-1,-4.7712825E-2,-0E0,-6.1912783E-3,-0E0,1.1673505E0,-1.2725596E-1,5.065805E-1,-0E0,-7.583184E-3,-0E0,6.4062374E-3,-5.036267E-3,2.005762E-1,-9.655822E-1,-0E0,-0E0,1.4549446E-2,-0E0,-3.5071638E-3,1.2446009E-2,1.8686613E-2,-3.7923823E-3,-0E0,8.822224E-3,-0E0,-0E0,5.029075E-3,-3.0376925E-3,-1.6209057E-2],"categories":[],"categories_nodes":[],"categories_segments":[],"categories_sizes":[],"default_left":[0,0,0,0,0,0,0,0,0,0,0,0,0,0,0,0,0,0,0,0,0,0,0,0,0,0,0,0,0,0,0,0,0,0,0,0,0,0,0,0,0,0,0,0,0,0,0,0,0,0,0,0,0,0,0],"id":13,"left_children":[1,3,5,7,9,11,13,15,-1,17,19,21,-1,23,25,27,-1,29,31,33,35,-1,-1,37,39,41,43,-1,-1,-1,45,47,49,-1,-1,-1,-1,-1,51,53,-1,-1,-1,-1,-1,-1,-1,-1,-1,-1,-1,-1,-1,-1,-1],"loss_changes":[7.730996E2,2.4511752E2,2.0475073E2,6.853039E1,8.194708E1,2.4672241E1,1.123152E2,2.4819122E1,0E0,5.0807312E1,6.572356E0,8.866089E0,0E0,3.4670677E1,3.4744957E1,2.638745E0,0E0,5.866272E0,1.1877323E1,1.4832382E0,2.7960608E0,0E0,0E0,7.0651884E0,4.279663E0,8.982964E0,1.2660699E0,0E0,0E0,0E0,1.8400269E0,8.8466483E-1,8.7535E-1,0E0,0E0,0E0,0E0,0E0,2.0776792E0,4.5330734E0,0E0,0E0,0E0,0E0,0E0,0E0,0E0,0E0,0E0,0E0,0E0,0E0,0E0,0E0,0E0],"parents":[2147483647,0,0,1,1,2,2,3,3,4,4,5,5,6,6,7,7,9,9,10,10,11,11,13,13,14,14,15,15,17,17,18,18,19,19,20,20,23,23,24,24,25,25,26,26,30,30,31,31,32,32,38,38,39,39],"right_children":[2,4,6,8,10,12,14,16,-1,18,20,22,-1,24,26,28,-1,30,32,34,36,-1,-1,38,40,42,44,-1,-1,-1,46,48,50,-1,-1,-1,-1,-1,52,54,-1,-1,-1,-1,-1,-1,-1,-1,-1,-1,-1,-1,-1,-1,-1],"split_conditions":[5E0,5E0,6E0,3E0,1E0,6E0,3E0,3.23E0,-1.4001017E-2,5E0,2.86E0,5E0,-0E0,7E0,3E0,1E0,8.702374E-3,1.2E0,2.51E0,3E0,6E0,-0E0,-1.7752184E-2,2.83E0,5.13E0,2.95E0,6.5E1,-0E0,-6.1912783E-3,-0E0,6E0,6.6562416E1,9.07E0,-0E0,-7.583184E-3,-0E0,6.4062374E-3,-5.036267E-3,9.025E1,2E0,-0E0,-0E0,1.4549446E-2,-0E0,-3.5071638E-3,1.2446009E-2,1.8686613E-2,-3.7923823E-3,-0E0,8.822224E-3,-0E0,-0E0,5.029075E-3,-3.0376925E-3,-1.6209057E-2],"split_indices":[99,98,98,99,56,49,49,91,0,55,91,114,0,99,55,99,0,91,91,99,98,0,0,91,91,91,19,0,0,0,98,5,93,0,0,0,0,0,106,55,0,0,0,0,0,0,0,0,0,0,0,0,0,0,0],"split_type":[0,0,0,0,0,0,0,0,0,0,0,0,0,0,0,0,0,0,0,0,0,0,0,0,0,0,0,0,0,0,0,0,0,0,0,0,0,0,0,0,0,0,0,0,0,0,0,0,0,0,0,0,0,0,0],"sum_hessian":[1.6664275E3,8.9467755E2,7.7174994E2,1.8791943E2,7.067581E2,4.2813956E2,3.4361038E2,1.030339E2,8.488553E1,6.2755164E2,7.920646E1,4.0991245E2,1.8227118E1,2.1410454E2,1.2950584E2,4.6420425E1,5.661347E1,5.465672E2,8.098445E1,3.3663563E1,4.5542896E1,1.7690336E1,3.922221E2,8.103927E1,1.3306528E2,9.381082E1,3.5695023E1,1.6977974E1,2.9442453E1,1.6222473E1,5.303447E2,3.2432415E1,4.8552036E1,1.5216681E1,1.844688E1,2.6397184E1,1.9145712E1,3.7108185E1,4.3931084E1,1.17829796E2,1.5235481E1,1.6224459E1,7.7586365E1,1.6974472E1,1.872055E1,2.3174368E2,2.9860104E2,1.6970964E1,1.5461452E1,3.2338974E1,1.6213062E1,1.6225805E1,2.7705276E1,3.5381355E1,8.244844E1],"tree_param":{"num_deleted":"0","num_feature":"116","num_nodes":"55","size_leaf_vector":"1"}},{"base_weights":[-0E0,4.6011218E-1,-5.814328E-1,6.9966424E-1,-4.8234877E-1,-8.997618E-1,4.2959484E-1,9.447196E-1,-2.888378E-3,1.3009547E-1,-8.4139276E-1,-1.5829773E-1,-1.1024891E0,6.9535244E-1,-6.150738E-2,9.134178E-2,1.0766797E0,-3.944295E-1,4.4148764E-1,-0E0,9.773348E-3,-1.3167788E-2,-0E0,-3.8147172E-1,6.413408E-3,-1.1766748E0,-3.2819104E-1,-0E0,8.966521E-1,-4.1585183E-1,1.2348661E-3,-0E0,8.778022E-3,1.8017003E-2,6.832246E-1,-5.5038655E-1,-0E0,6.8510824E-1,-0E0,-0E0,-1.8789188E-3,-0E0,-5.883439E-1,-1.6820012E-2,-0E0,-0E0,-6.578421E-3,1.4566023E-2,-0E0,-0E0,-9.080782E-3,-4.2189374E-3,6.284608E-5,3.8620743E-3,1.4408933E-2,-9.722028E-3,-0E0,-0E0,1.2341899E-2,-1.0123571E-2,-0E0],"categories":[],"categories_nodes":[],"categories_segments":[],"categories_sizes":[],"default_left":[0,0,0,0,0,0,0,0,0,0,0,0,0,0,0,0,0,0,0,0,0,0,0,0,0,0,0,0,0,0,0,0,0,0,0,0,0,0,0,0,0,0,0,0,0,0,0,0,0,0,0,0,0,0,0,0,0,0,0,0,0],"id":14,"left_children":[1,3,5,7,9,11,13,15,17,19,21,23,25,27,29,31,33,35,37,39,-1,-1,-1,41,-1,43,45,-1,47,49,-1,51,-1,-1,53,55,-1,57,-1,-1,-1,-1,59,-1,-1,-1,-1,-1,-1,-1,-1,-1,-1,-1,-1,-1,-1,-1,-1,-1,-1],"loss_changes":[4.4465552E2,2.1231659E2,2.4165088E2,1.374289E2,4.6756294E1,7.318094E1,2.8170961E1,5.2687225E1,3.250447E1,9.56415E0,9.364014E0,1.8287558E1,1.0250122E1,1.2686951E1,5.754903E0,8.1971655E0,2.0383423E1,7.686405E0,1.0477144E1,3.7456593E-1,0E0,0E0,0E0,1.0211563E1,0E0,5.352722E0,2.5882502E0,0E0,8.159126E0,1.8757348E0,0E0,1.934623E0,0E0,0E0,1.4412994E1,7.411331E0,0E0,5.082529E0,0E0,0E0,0E0,0E0,5.2568207E0,0E0,0E0,0E0,0E0,0E0,0E0,0E0,0E0,0E0,0E0,0E0,0E0,0E0,0E0,0E0,0E0,0E0,0E0],"parents":[2147483647,0,0,1,1,2,2,3,3,4,4,5,5,6,6,7,7,8,8,9,9,10,10,11,11,12,12,13,13,14,14,15,15,16,16,17,17,18,18,19,19,23,23,25,25,26,26,28,28,29,29,31,31,34,34,35,35,37,37,42,42],"right_children":[2,4,6,8,10,12,14,16,18,20,22,24,26,28,30,32,34,36,38,40,-1,-1,-1,42,-1,44,46,-1,48,50,-1,52,-1,-1,54,56,-1,58,-1,-1,-1,-1,60,-1,-1,-1,-1,-1,-1,-1,-1,-1,-1,-1,-1,-1,-1,-1,-1,-1,-1],"split_conditions":[6E0,5E0,4E0,5E0,3E0,5E0,3E0,5.089058E-1,3E0,3.59E0,2.9E-1,1E0,5.25E0,8.617647E1,1E0,1E0,3E0,5.1E-1,2E0,7E0,9.773348E-3,-1.3167788E-2,-0E0,3E0,6.413408E-3,1.64E0,2.2727273E-1,-0E0,8E0,6E0,1.2348661E-3,3.409185E-1,8.778022E-3,1.8017003E-2,8.225253E-1,8.699809E-1,-0E0,1.9504644E-1,-0E0,-0E0,-1.8789188E-3,-0E0,1.1205034E0,-1.6820012E-2,-0E0,-0E0,-6.578421E-3,1.4566023E-2,-0E0,-0E0,-9.080782E-3,-4.2189374E-3,6.284608E-5,3.8620743E-3,1.4408933E-2,-9.722028E-3,-0E0,-0E0,1.2341899E-2,-1.0123571E-2,-0E0],"split_indices":[114,55,49,99,99,99,55,84,49,91,68,50,91,106,97,97,99,64,55,55,0,0,0,99,0,65,102,0,99,99,0,84,0,0,84,84,0,64,0,0,0,0,65,0,0,0,0,0,0,0,0,0,0,0,0,0,0,0,0,0,0],"split_type":[0,0,0,0,0,0,0,0,0,0,0,0,0,0,0,0,0,0,0,0,0,0,0,0,0,0,0,0,0,0,0,0,0,0,0,0,0,0,0,0,0,0,0,0,0,0,0,0,0,0,0,0,0,0,0,0,0,0,0,0,0],"sum_hessian":[1.6567239E3,9.2502374E2,7.3170013E2,7.4579407E2,1.7922968E2,5.635497E2,1.6815048E2,5.618443E2,1.8394977E2,5.7507206E1,1.2172247E2,1.3164827E2,4.319014E2,1.2040351E2,4.7746964E1,8.507602E1,4.7676828E2,1.0882541E2,7.512436E1,3.863889E1,1.8868315E1,1.0652577E2,1.5196706E1,1.0829007E2,2.3358204E1,3.821595E2,4.9741898E1,3.3274044E1,8.712947E1,3.0830765E1,1.6916199E1,6.521807E1,1.9857952E1,2.8906335E2,1.8770491E2,7.996901E1,2.88564E1,5.1961063E1,2.3163296E1,2.0682203E1,1.7956688E1,3.480731E1,7.348276E1,3.6700272E2,1.5156779E1,1.5434414E1,3.4307484E1,7.09336E1,1.6195864E1,1.542233E1,1.5408435E1,1.8449223E1,4.676885E1,1.0115793E2,8.6546974E1,6.404111E1,1.5927898E1,1.5428955E1,3.653211E1,5.728429E1,1.619847E1],"tree_param":{"num_deleted":"0","num_feature":"116","num_nodes":"61","size_leaf_vector":"1"}},{"base_weights":[8.575915E-4,-4.8182794E-1,6.664166E-1,-7.880821E-1,4.3356904E-1,-2.874827E-1,8.577121E-1,1.9873837E-1,-9.1287994E-1,7.101371E-1,-7.8890465E-2,-6.571084E-1,6.671433E-3,9.733124E-1,-2.5222617E-1,-3.1964194E-3,5.449405E-1,-1.1729041E0,-4.3626115E-1,-0E0,1.3208768E-2,-7.363354E-3,1.5581596E-1,-7.945076E-1,-0E0,-0E0,1.0096192E0,-6.7444337E-3,-0E0,-0E0,1.0724178E-2,-1.2133967E0,-3.714061E-3,-0E0,-7.6002026E-1,-1.170348E-3,1.9673517E-3,-0E0,4.8476113E-3,-1.2758351E-2,-0E0,6.888729E-1,1.671709E-2,-1.7380334E-2,-0E0,5.2054455E-3,-3.1612462E-3,-0E0,-1.37692895E-2,1.38258375E-2,-0E0],"categories":[],"categories_nodes":[],"categories_segments":[],"categories_sizes":[],"default_left":[0,0,0,0,0,0,0,0,0,0,0,0,0,0,0,0,0,0,0,0,0,0,0,0,0,0,0,0,0,0,0,0,0,0,0,0,0,0,0,0,0,0,0,0,0,0,0,0,0,0,0],"id":15,"left_children":[1,3,5,7,9,11,13,15,17,19,21,23,-1,25,27,-1,29,31,33,35,-1,-1,37,39,-1,-1,41,-1,-1,-1,-1,43,-1,45,47,-1,-1,-1,-1,-1,-1,49,-1,-1,-1,-1,-1,-1,-1,-1,-1],"loss_changes":[5.3240015E2,2.7036157E2,1.3400873E2,9.564328E1,3.881871E1,3.3998005E1,8.338226E1,1.4292244E1,6.4288574E1,2.7100372E1,1.1230923E1,7.0461197E0,0E0,2.2054993E1,2.5738566E0,0E0,5.4177322E0,5.5682373E-1,3.3333515E1,5.699222E-1,0E0,0E0,1.5745692E0,4.4070435E-1,0E0,0E0,1.2781006E1,0E0,0E0,0E0,0E0,6.304138E0,0E0,9.236701E0,1.9130463E1,0E0,0E0,0E0,0E0,0E0,0E0,4.8442284E1,0E0,0E0,0E0,0E0,0E0,0E0,0E0,0E0,0E0],"parents":[2147483647,0,0,1,1,2,2,3,3,4,4,5,5,6,6,7,7,8,8,9,9,10,10,11,11,13,13,14,14,16,16,17,17,18,18,19,19,22,22,23,23,26,26,31,31,33,33,34,34,41,41],"right_children":[2,4,6,8,10,12,14,16,18,20,22,24,-1,26,28,-1,30,32,34,36,-1,-1,38,40,-1,-1,42,-1,-1,-1,-1,44,-1,46,48,-1,-1,-1,-1,-1,-1,50,-1,-1,-1,-1,-1,-1,-1,-1,-1],"split_conditions":[3E0,-3.98E0,5E0,5E0,6E0,-6.11898E-1,3E0,4.1E-1,6E0,5E0,6E0,1.2E1,6.671433E-3,-8.455427E-1,6E0,-3.1964194E-3,5E0,6.5E1,3E0,-5.386997E-1,1.3208768E-2,-7.363354E-3,-7.521923E-1,7.8E1,-0E0,-0E0,6E0,-6.7444337E-3,-0E0,-0E0,1.0724178E-2,1.8E1,-3.714061E-3,6E0,6E0,-1.170348E-3,1.9673517E-3,-0E0,4.8476113E-3,-1.2758351E-2,-0E0,6E0,1.671709E-2,-1.7380334E-2,-0E0,5.2054455E-3,-3.1612462E-3,-0E0,-1.37692895E-2,1.38258375E-2,-0E0],"split_indices":[49,92,98,114,114,85,96,84,98,98,98,48,0,68,98,0,98,23,55,85,0,0,85,15,0,0,98,0,0,0,0,48,0,114,114,0,0,0,0,0,0,114,0,0,0,0,0,0,0,0,0],"split_type":[0,0,0,0,0,0,0,0,0,0,0,0,0,0,0,0,0,0,0,0,0,0,0,0,0,0,0,0,0,0,0,0,0,0,0,0,0,0,0,0,0,0,0,0,0,0,0,0,0,0,0],"sum_hessian":[1.6467E3,9.469863E2,6.997136E2,7.173083E2,2.2967801E2,1.0871758E2,5.9099603E2,7.217268E1,6.451356E2,1.600295E2,6.964851E1,8.159582E1,2.7121767E1,5.429662E2,4.8029846E1,2.0929527E1,5.1243156E1,4.0255194E2,2.4258366E2,4.112166E1,1.1890783E2,3.604993E1,3.3598587E1,6.6135574E1,1.5460239E1,1.6900179E1,5.2606604E2,2.2111834E1,2.591801E1,1.7701805E1,3.354135E1,3.7487366E2,2.7678299E1,1.0673222E2,1.3585144E2,2.493419E1,1.6187468E1,1.5958941E1,1.7639647E1,4.9711597E1,1.6423977E1,2.1782048E2,3.0824554E2,3.5899112E2,1.5882535E1,3.6814255E1,6.991798E1,3.6894764E1,9.895667E1,1.529554E2,6.486508E1],"tree_param":{"num_deleted":"0","num_feature":"116","num_nodes":"51","size_leaf_vector":"1"}},{"base_weights":[6.533951E-3,6.2579316E-1,-7.016851E-1,-3.097805E-1,8.966619E-1,-1.1868372E0,-7.175307E-2,-6.290232E-1,4.6990994E-1,1.0207776E0,-2.207052E-1,-5.802104E-4,-1.2190728E0,-2.803194E-1,7.7215016E-1,-3.1360935E-2,-1.4544232E-2,1.042618E-2,-0E0,-0E0,1.0578653E0,-7.716355E-3,-0E0,-0E0,-1.2432919E0,2.3510301E-1,-7.299582E-1,1.4357129E-2,-0E0,-7.364587E-3,5.6156836E-2,1.7621469E-2,7.4014384E-1,-1.7887618E-2,-0E0,-0E0,6.992473E-1,-9.1219294E-1,-0E0,6.3421293E-3,-0E0,-0E0,1.20469285E-2,-4.9377023E-3,2.034811E-3,1.3595191E-2,-0E0,-2.9189459E-3,-1.5704231E-2],"categories":[],"categories_nodes":[],"categories_segments":[],"categories_sizes":[],"default_left":[0,0,0,0,0,0,0,0,0,0,0,0,0,0,0,0,0,0,0,0,0,0,0,0,0,0,0,0,0,0,0,0,0,0,0,0,0,0,0,0,0,0,0,0,0,0,0,0,0],"id":16,"left_children":[1,3,5,7,9,11,13,15,17,19,21,-1,23,25,27,29,-1,-1,-1,-1,31,-1,-1,-1,33,35,37,-1,-1,-1,39,-1,41,-1,-1,43,45,47,-1,-1,-1,-1,-1,-1,-1,-1,-1,-1,-1],"loss_changes":[7.25579E2,2.3169803E2,2.2232687E2,5.060542E1,1.0476495E2,4.0618286E0,5.6671642E1,2.6611523E1,6.9289675E0,2.7867676E1,8.121135E0,0E0,7.6208496E-1,7.13578E1,1.0523865E1,7.504887E0,0E0,0E0,0E0,0E0,1.9748657E1,0E0,0E0,0E0,1.4174133E1,1.5219845E1,2.0157303E1,0E0,0E0,0E0,4.7388754E0,0E0,2.054715E1,0E0,0E0,4.882885E0,5.330778E0,6.60585E0,0E0,0E0,0E0,0E0,0E0,0E0,0E0,0E0,0E0,0E0,0E0],"parents":[2147483647,0,0,1,1,2,2,3,3,4,4,5,5,6,6,7,7,8,8,9,9,10,10,12,12,13,13,14,14,15,15,20,20,24,24,25,25,26,26,30,30,32,32,35,35,36,36,37,37],"right_children":[2,4,6,8,10,12,14,16,18,20,22,-1,24,26,28,30,-1,-1,-1,-1,32,-1,-1,-1,34,36,38,-1,-1,-1,40,-1,42,-1,-1,44,46,48,-1,-1,-1,-1,-1,-1,-1,-1,-1,-1,-1],"split_conditions":[5E0,5E0,6E0,-5.9E-1,3E0,5E0,3E0,3E0,2E0,3.3E-1,-5.84E0,-5.802104E-4,7.9333336E1,7E0,8E0,4.954955E-1,-1.4544232E-2,1.042618E-2,-0E0,-0E0,3E0,-7.716355E-3,-0E0,-0E0,6E0,3E0,3E0,1.4357129E-2,-0E0,-7.364587E-3,5E0,1.7621469E-2,5.738189E-1,-1.7887618E-2,-0E0,6.0823256E-1,2E0,2E0,-0E0,6.3421293E-3,-0E0,-0E0,1.20469285E-2,-4.9377023E-3,2.034811E-3,1.3595191E-2,-0E0,-2.9189459E-3,-1.5704231E-2],"split_indices":[99,98,98,85,96,114,97,99,99,84,92,0,0,99,99,84,0,0,0,0,99,0,0,0,49,49,49,0,0,0,114,0,84,0,0,84,55,55,0,0,0,0,0,0,0,0,0,0,0],"split_type":[0,0,0,0,0,0,0,0,0,0,0,0,0,0,0,0,0,0,0,0,0,0,0,0,0,0,0,0,0,0,0,0,0,0,0,0,0,0,0,0,0,0,0,0,0,0,0,0,0],"sum_hessian":[1.6506619E3,8.876551E2,7.6300684E2,1.9167198E2,6.959831E2,4.2155276E2,3.4145407E2,1.4463036E2,4.7041634E1,6.3393463E2,6.204845E1,1.9430815E1,4.0212195E2,2.838539E2,5.760015E1,6.9369736E1,7.526061E1,2.9345703E1,1.769593E1,1.8952124E1,6.149825E2,3.413157E1,2.7916882E1,1.5123578E1,3.8699838E2,1.23421814E2,1.6043211E2,4.1133263E1,1.6466887E1,2.3938719E1,4.543102E1,3.5078128E2,2.6420123E2,3.717727E2,1.5225673E1,8.070267E1,4.2719147E1,1.260013E2,3.4430813E1,2.096645E1,2.446457E1,4.3593506E1,2.2060771E2,2.6621916E1,5.408075E1,2.6272863E1,1.6446283E1,4.0591274E1,8.541003E1],"tree_param":{"num_deleted":"0","num_feature":"116","num_nodes":"49","size_leaf_vector":"1"}},{"base_weights":[-0E0,5.939195E-1,-6.864755E-1,7.4812E-1,-6.4685184E-1,-1.3149786E-1,-9.943474E-1,-1.569114E-1,9.954845E-1,-1.3922908E-2,-0E0,-8.3612937E-1,4.562237E-1,-1.7412804E-2,-5.554027E-1,3.0948555E-1,-9.1713476E-1,1.2256397E0,6.5304154E-1,-9.770045E-1,-0E0,-8.625212E-2,8.4824926E-1,-0E0,-9.0441304E-1,-0E0,6.426052E-1,-1.5385913E-2,-0E0,1.2476924E-3,1.7824095E-2,6.320227E-2,1.0117002E0,-1.5076852E-2,-0E0,-5.5922773E-3,-0E0,1.4494942E-2,6.0818344E-4,-1.9995704E-1,3.943125E-3,-1.4886268E-2,-0E0,-2.5798765E-3,-0E0,1.1019948E-2,-0E0,7.6253875E-3,-1.2715348E-3,9.1954385E-4,1.5579715E-2,-0E0,-5.370398E-3],"categories":[],"categories_nodes":[],"categories_segments":[],"categories_sizes":[],"default_left":[0,0,0,0,0,0,0,0,0,0,0,0,0,0,0,0,0,0,0,0,0,0,0,0,0,0,0,0,0,0,0,0,0,0,0,0,0,0,0,0,0,0,0,0,0,0,0,0,0,0,0,0,0],"id":17,"left_children":[1,3,5,7,9,11,13,15,17,-1,-1,19,21,-1,23,25,27,29,31,33,-1,35,37,39,41,43,45,-1,-1,-1,-1,47,49,-1,-1,-1,-1,-1,-1,51,-1,-1,-1,-1,-1,-1,-1,-1,-1,-1,-1,-1,-1],"loss_changes":[6.718181E2,1.7192596E2,1.1954904E2,1.8641107E2,2.9464966E1,1.2264708E2,3.529889E1,6.493776E1,3.0753113E1,0E0,0E0,1.8048813E1,3.908203E1,0E0,3.357848E1,1.503609E1,6.4233894E0,8.929382E0,4.852919E1,7.184845E0,0E0,3.6587076E0,5.00898E0,4.4409003E0,8.33989E0,8.091431E-1,2.3689518E0,0E0,0E0,0E0,0E0,1.3013791E1,5.278351E0,0E0,0E0,0E0,0E0,0E0,0E0,3.8006957E0,0E0,0E0,0E0,0E0,0E0,0E0,0E0,0E0,0E0,0E0,0E0,0E0,0E0],"parents":[2147483647,0,0,1,1,2,2,3,3,4,4,5,5,6,6,7,7,8,8,11,11,12,12,14,14,15,15,16,16,17,17,18,18,19,19,21,21,22,22,23,23,24,24,25,25,26,26,31,31,32,32,39,39],"right_children":[2,4,6,8,10,12,14,16,18,-1,-1,20,22,-1,24,26,28,30,32,34,-1,36,38,40,42,44,46,-1,-1,-1,-1,48,50,-1,-1,-1,-1,-1,-1,52,-1,-1,-1,-1,-1,-1,-1,-1,-1,-1,-1,-1,-1],"split_conditions":[5E0,3E0,2E0,5E0,6E0,6E0,6E0,3E0,3E0,-1.3922908E-2,-0E0,5E0,2E0,-1.7412804E-2,7E0,3.23E0,8.4829724E-1,1.63E0,6E0,5.62E0,-0E0,-9.520147E-2,8E0,3.89E0,3E0,9.5E-1,7.9833336E1,-1.5385913E-2,-0E0,1.2476924E-3,1.7824095E-2,1E0,5.738189E-1,-1.5076852E-2,-0E0,-5.5922773E-3,-0E0,1.4494942E-2,6.0818344E-4,3E0,3.943125E-3,-1.4886268E-2,-0E0,-2.5798765E-3,-0E0,1.1019948E-2,-0E0,7.6253875E-3,-1.2715348E-3,9.1954385E-4,1.5579715E-2,-0E0,-5.370398E-3],"split_indices":[99,96,55,98,98,98,98,99,99,0,0,49,49,0,99,91,84,91,98,91,0,42,99,91,49,44,1,0,0,0,0,55,84,0,0,0,0,0,0,54,0,0,0,0,0,0,0,0,0,0,0,0,0],"split_type":[0,0,0,0,0,0,0,0,0,0,0,0,0,0,0,0,0,0,0,0,0,0,0,0,0,0,0,0,0,0,0,0,0,0,0,0,0,0,0,0,0,0,0,0,0,0,0,0,0,0,0,0,0],"sum_hessian":[1.6433617E3,8.8438745E2,7.589743E2,7.9408575E2,9.030173E1,2.827024E2,4.7627188E2,1.627706E2,6.313151E2,6.5872E1,2.4429726E1,1.3508867E2,1.4761372E2,2.8515164E2,1.9112024E2,9.444539E1,6.83252E1,3.575722E2,2.7374292E2,1.1713631E2,1.7952358E1,5.3064766E1,9.454896E1,7.965122E1,1.1146902E2,3.817122E1,5.6274174E1,5.162814E1,1.6697067E1,2.389106E1,3.3368115E2,1.14282196E2,1.5946074E2,1.0124236E2,1.5893946E1,2.2649364E1,3.0415401E1,6.661303E1,2.7935934E1,5.6245678E1,2.3405544E1,8.651942E1,2.4949602E1,2.0963232E1,1.7207987E1,4.0074543E1,1.6199633E1,4.0260857E1,7.402134E1,2.5139273E1,1.3432146E2,1.7428255E1,3.8817425E1],"tree_param":{"num_deleted":"0","num_feature":"116","num_nodes":"53","size_leaf_vector":"1"}},{"base_weights":[-3.7781235E-3,-6.7663556E-1,5.1933956E-1,-9.1148293E-1,-0E0,1.57143E-1,9.788125E-1,-0E0,-1.0000467E0,3.609411E-1,-3.9914683E-1,5.6758225E-1,-4.3114823E-1,1.0525378E0,2.4373342E-1,-3.5330886E-3,3.718627E-3,-1.6976703E-2,-5.815443E-1,-6.243274E-3,6.695509E-1,-1.2658789E-2,-0E0,-1.6011642E-1,8.565805E-1,-9.818468E-1,8.059367E-2,-0E0,1.186117E0,8.747779E-3,-0E0,-4.7521167E-2,-1.32577345E-2,-0E0,8.005194E-1,-6.5790553E-4,2.8173414E-3,1.2077484E-1,-9.928061E-3,9.948131E-1,-0E0,-0E0,-1.54510625E-2,4.0783134E-1,-6.1174314E-3,5.4584634E-3,-4.0265243E-3,1.7122386E-2,-0E0,-4.0486343E-3,1.941706E-3,1.483817E-2,2.549769E-4,-0E0,5.1281615E-3,-0E0,1.4613297E-2,7.954068E-3,-0E0],"categories":[],"categories_nodes":[],"categories_segments":[],"categories_sizes":[],"default_left":[0,0,0,0,0,0,0,0,0,0,0,0,0,0,0,0,0,0,0,0,0,0,0,0,0,0,0,0,0,0,0,0,0,0,0,0,0,0,0,0,0,0,0,0,0,0,0,0,0,0,0,0,0,0,0,0,0,0,0],"id":18,"left_children":[1,3,5,7,9,11,13,15,17,19,21,23,25,27,29,-1,-1,-1,31,-1,33,-1,35,37,39,41,43,45,47,-1,-1,49,-1,-1,51,-1,-1,53,-1,55,-1,-1,-1,57,-1,-1,-1,-1,-1,-1,-1,-1,-1,-1,-1,-1,-1,-1,-1],"loss_changes":[5.8685333E2,1.1816882E2,1.4372047E2,4.3179688E1,2.7760366E1,1.3064804E2,9.0746155E0,3.6912987E0,2.7124237E1,2.8612434E1,2.3126438E1,7.491133E1,6.8024155E1,4.1770477E1,8.812183E0,0E0,0E0,0E0,2.8245552E1,0E0,6.44162E0,0E0,1.3095883E0,1.8864883E1,2.568927E1,1.00453415E1,1.7796265E1,6.275678E0,7.6979065E0,0E0,0E0,5.5874524E0,0E0,0E0,4.3100395E0,0E0,0E0,3.4671144E0,0E0,5.214096E0,0E0,0E0,0E0,1.898634E0,0E0,0E0,0E0,0E0,0E0,0E0,0E0,0E0,0E0,0E0,0E0,0E0,0E0,0E0,0E0],"parents":[2147483647,0,0,1,1,2,2,3,3,4,4,5,5,6,6,7,7,8,8,9,9,10,10,11,11,12,12,13,13,14,14,18,18,20,20,22,22,23,23,24,24,25,25,26,26,27,27,28,28,31,31,34,34,37,37,39,39,43,43],"right_children":[2,4,6,8,10,12,14,16,18,20,22,24,26,28,30,-1,-1,-1,32,-1,34,-1,36,38,40,42,44,46,48,-1,-1,50,-1,-1,52,-1,-1,54,-1,56,-1,-1,-1,58,-1,-1,-1,-1,-1,-1,-1,-1,-1,-1,-1,-1,-1,-1,-1],"split_conditions":[-5.31E0,3E0,4E0,5E0,6E0,6E0,4E0,5.738189E-1,6E0,5E0,6E0,5E0,6E0,5E0,3E0,-3.5330886E-3,3.718627E-3,-1.6976703E-2,7E0,-6.243274E-3,4.954955E-1,-1.2658789E-2,-7.42E0,3E0,6E0,3E0,8E0,3E0,7E0,8.747779E-3,-0E0,2.97E0,-1.32577345E-2,-0E0,5E0,-6.5790553E-4,2.8173414E-3,3.23E0,-9.928061E-3,4.4E-1,-0E0,-0E0,-1.54510625E-2,5E0,-6.1174314E-3,5.4584634E-3,-4.0265243E-3,1.7122386E-2,-0E0,-4.0486343E-3,1.941706E-3,1.483817E-2,2.549769E-4,-0E0,5.1281615E-3,-0E0,1.4613297E-2,7.954068E-3,-0E0],"split_indices":[92,49,49,114,114,114,55,84,98,98,98,98,98,98,99,0,0,0,99,0,84,0,92,99,99,99,99,99,99,0,0,91,0,0,99,0,0,91,0,84,0,0,0,99,0,0,0,0,0,0,0,0,0,0,0,0,0,0,0],"split_type":[0,0,0,0,0,0,0,0,0,0,0,0,0,0,0,0,0,0,0,0,0,0,0,0,0,0,0,0,0,0,0,0,0,0,0,0,0,0,0,0,0,0,0,0,0,0,0,0,0,0,0,0,0,0,0,0,0,0,0],"sum_hessian":[1.6578914E3,7.324206E2,9.254707E2,5.4466016E2,1.8776044E2,5.3058234E2,3.9488837E2,4.9473072E1,4.951871E2,1.0069552E2,8.706491E1,3.2169366E2,2.0888869E2,3.4660535E2,4.828301E1,2.7364656E1,2.2108416E1,3.0807236E2,1.8711476E2,1.934098E1,8.135454E1,4.272018E1,4.434473E1,8.2835655E1,2.38858E2,1.0799561E2,1.00893074E2,4.4548195E1,3.0205716E2,2.7402468E1,2.0880539E1,8.781299E1,9.9301765E1,1.5190142E1,6.61644E1,1.5959183E1,2.838555E1,4.536317E1,3.7472485E1,2.0235912E2,3.6498875E1,1.5644703E1,9.2350914E1,7.298843E1,2.7904644E1,2.7599087E1,1.6949106E1,2.866075E2,1.5449642E1,5.869401E1,2.911898E1,4.0063854E1,2.6100544E1,1.7227732E1,2.8135439E1,1.5633418E1,1.8672571E2,4.18192E1,3.116923E1],"tree_param":{"num_deleted":"0","num_feature":"116","num_nodes":"59","size_leaf_vector":"1"}},{"base_weights":[-0E0,5.9458655E-1,-6.9705385E-1,-3.329658E-1,8.6348796E-1,-1.1380066E0,-1.14709735E-1,-0E0,-7.575601E-1,9.8267984E-1,-2.1761101E-1,-1.1866453E0,-0E0,-5.5854076E-1,5.422022E-1,4.641058E-1,-7.4972515E-3,-0E0,-1.4158899E-2,1.6891913E-2,6.475352E-1,-0E0,-3.9639983E-1,-0E0,-1.6991483E-2,-0E0,-8.840387E-1,8.7290376E-1,-0E0,8.266728E-3,-0E0,-0E0,7.827943E-1,-0E0,-7.189893E-3,1.5932147E-1,-1.6359445E-1,-1.3250389E-2,-0E0,1.4402545E-2,-0E0,-0E0,-2.814155E-3,-4.5719653E-4,4.5615463E-3,2.9447798E-3,1.4877149E-2,-0E0,3.4792589E-3,-4.9312073E-3,-0E0],"categories":[],"categories_nodes":[],"categories_segments":[],"categories_sizes":[],"default_left":[0,0,0,0,0,0,0,0,0,0,0,0,0,0,0,0,0,0,0,0,0,0,0,0,0,0,0,0,0,0,0,0,0,0,0,0,0,0,0,0,0,0,0,0,0,0,0,0,0,0,0],"id":19,"left_children":[1,3,5,7,9,11,13,15,17,19,21,23,-1,25,27,29,-1,-1,-1,-1,31,-1,33,-1,-1,35,37,39,41,-1,-1,43,45,-1,-1,47,49,-1,-1,-1,-1,-1,-1,-1,-1,-1,-1,-1,-1,-1,-1],"loss_changes":[6.8378424E2,2.2740344E2,1.8347638E2,3.3671265E1,9.744165E1,2.2228088E1,9.992039E1,2.5186886E1,2.5539753E1,2.9869263E1,4.3950553E0,4.437439E0,0E0,3.578739E1,2.8306023E1,3.3274536E0,0E0,0E0,0E0,0E0,1.7511742E1,0E0,9.679904E-1,0E0,0E0,2.280846E0,1.7881699E0,9.656639E0,7.390502E-1,0E0,0E0,3.3459191E0,2.3593842E1,0E0,0E0,2.5748217E-1,3.1241803E0,0E0,0E0,0E0,0E0,0E0,0E0,0E0,0E0,0E0,0E0,0E0,0E0,0E0,0E0],"parents":[2147483647,0,0,1,1,2,2,3,3,4,4,5,5,6,6,7,7,8,8,9,9,10,10,11,11,13,13,14,14,15,15,20,20,22,22,25,25,26,26,27,27,28,28,31,31,32,32,35,35,36,36],"right_children":[2,4,6,8,10,12,14,16,18,20,22,24,-1,26,28,30,-1,-1,-1,-1,32,-1,34,-1,-1,36,38,40,42,-1,-1,44,46,-1,-1,48,50,-1,-1,-1,-1,-1,-1,-1,-1,-1,-1,-1,-1,-1,-1],"split_conditions":[5E0,5E0,6E0,1E0,3E0,6E0,3E0,3E0,1E0,3E0,4E0,5E0,-0E0,7E0,8E0,8.15E1,-7.4972515E-3,-0E0,-1.4158899E-2,1.6891913E-2,1E0,-0E0,4E0,-0E0,-1.6991483E-2,6E0,3E0,1E0,9E0,8.266728E-3,-0E0,6E0,6E0,-0E0,-7.189893E-3,8E0,9.160305E-1,-1.3250389E-2,-0E0,1.4402545E-2,-0E0,-0E0,-2.814155E-3,-4.5719653E-4,4.5615463E-3,2.9447798E-3,1.4877149E-2,-0E0,3.4792589E-3,-4.9312073E-3,-0E0],"split_indices":[99,98,98,73,96,49,49,99,99,99,96,114,0,99,99,1,0,0,0,0,49,0,54,0,0,114,100,96,99,0,0,98,98,0,0,48,43,0,0,0,0,0,0,0,0,0,0,0,0,0,0],"split_type":[0,0,0,0,0,0,0,0,0,0,0,0,0,0,0,0,0,0,0,0,0,0,0,0,0,0,0,0,0,0,0,0,0,0,0,0,0,0,0,0,0,0,0,0,0,0,0,0,0,0,0],"sum_hessian":[1.6442185E3,8.866566E2,7.5756195E2,1.9153224E2,6.951244E2,4.2078638E2,3.3677557E2,9.800825E1,9.3524E1,6.338909E2,6.1233467E1,4.025705E2,1.8215885E1,2.0948302E2,1.2729256E2,6.0995735E1,3.701251E1,1.7918667E1,7.560534E1,3.562938E2,2.775971E2,1.6669144E1,4.4564323E1,1.8157738E1,3.8441275E2,8.166945E1,1.2781357E2,8.462662E1,4.266594E1,4.5791275E1,1.5204461E1,5.990628E1,2.1769083E2,1.5690636E1,2.8873686E1,3.1667166E1,5.000228E1,1.1218285E2,1.5630716E1,6.8695E1,1.5931619E1,2.7192547E1,1.5473392E1,3.166387E1,2.8242413E1,8.4496155E1,1.3319467E2,1.6206627E1,1.5460538E1,3.356969E1,1.6432592E1],"tree_param":{"num_deleted":"0","num_feature":"116","num_nodes":"51","size_leaf_vector":"1"}},{"base_weights":[-2.443625E-3,5.5829823E-1,-6.809117E-1,-3.6795053E-1,8.28614E-1,-1.1344743E0,-8.288423E-2,-7.068379E-1,4.0256977E-1,-0E0,9.8240244E-1,-0E0,-1.6232107E-2,-5.351731E-1,3.7925637E-1,-1.22162044E-1,-1.447853E-2,1.0315943E-2,-0E0,-2.3555838E-1,3.4559962E-1,1.195012E0,6.4034355E-1,-0E0,-7.4144155E-1,7.285644E-1,-1.312272E-1,-7.349067E-3,-0E0,-4.5506635E-1,-0E0,7.9119215E-3,-0E0,-0E0,1.7064733E-2,-0E0,7.466864E-1,-8.601186E-1,-0E0,-0E0,1.16631845E-2,-2.3018909E-1,-0E0,4.9492517E-3,-0E0,-0E0,-8.253484E-3,1.969586E-3,1.4952032E-2,-1.2888917E-3,-1.4181741E-2,-0E0,-5.2453554E-3],"categories":[],"categories_nodes":[],"categories_segments":[],"categories_sizes":[],"default_left":[0,0,0,0,0,0,0,0,0,0,0,0,0,0,0,0,0,0,0,0,0,0,0,0,0,0,0,0,0,0,0,0,0,0,0,0,0,0,0,0,0,0,0,0,0,0,0,0,0,0,0,0,0],"id":20,"left_children":[1,3,5,7,9,11,13,15,17,19,21,-1,-1,23,25,27,-1,-1,-1,29,31,33,35,-1,37,39,41,-1,43,45,-1,-1,-1,-1,-1,-1,47,49,-1,-1,-1,51,-1,-1,-1,-1,-1,-1,-1,-1,-1,-1,-1],"loss_changes":[6.292843E2,2.2950821E2,1.9332574E2,5.4915276E1,8.626523E1,7.1607666E0,7.238395E1,1.7399414E1,9.358628E0,1.0026077E1,2.4121155E1,0E0,0E0,2.2846962E1,3.390735E1,7.9239836E0,0E0,0E0,0E0,6.2802706E0,5.451018E0,1.1635132E0,1.9086006E1,0E0,6.5618134E0,7.1192093E0,1.0779116E0,0E0,2.411636E0,8.15608E-1,0E0,0E0,0E0,0E0,0E0,0E0,3.1291199E1,2.9266815E0,0E0,0E0,0E0,5.8844185E-1,0E0,0E0,0E0,0E0,0E0,0E0,0E0,0E0,0E0,0E0,0E0],"parents":[2147483647,0,0,1,1,2,2,3,3,4,4,5,5,6,6,7,7,8,8,9,9,10,10,13,13,14,14,15,15,19,19,20,20,21,21,22,22,24,24,25,25,26,26,28,28,29,29,36,36,37,37,41,41],"right_children":[2,4,6,8,10,12,14,16,18,20,22,-1,-1,24,26,28,-1,-1,-1,30,32,34,36,-1,38,40,42,-1,44,46,-1,-1,-1,-1,-1,-1,48,50,-1,-1,-1,52,-1,-1,-1,-1,-1,-1,-1,-1,-1,-1,-1],"split_conditions":[5E0,5E0,6E0,-6.11898E-1,-6.12E0,8.0833336E1,-5.74E0,3E0,5E0,6E0,3E0,-0E0,-1.6232107E-2,6E0,8E0,2.66E0,-1.447853E-2,1.0315943E-2,-0E0,2.74E0,6E0,1.63E0,2.4463062E0,-0E0,3.8E0,2.95E0,6.5384614E-1,-7.349067E-3,5E0,3E0,-0E0,7.9119215E-3,-0E0,-0E0,1.7064733E-2,-0E0,6E0,2E0,-0E0,-0E0,1.16631845E-2,3E0,-0E0,4.9492517E-3,-0E0,-0E0,-8.253484E-3,1.969586E-3,1.4952032E-2,-1.2888917E-3,-1.4181741E-2,-0E0,-5.2453554E-3],"split_indices":[99,98,98,85,92,0,92,99,114,98,99,0,0,114,99,91,0,0,0,91,114,91,91,0,91,91,61,0,114,55,0,0,0,0,0,0,98,55,0,0,0,55,0,0,0,0,0,0,0,0,0,0,0],"split_type":[0,0,0,0,0,0,0,0,0,0,0,0,0,0,0,0,0,0,0,0,0,0,0,0,0,0,0,0,0,0,0,0,0,0,0,0,0,0,0,0,0,0,0,0,0,0,0,0,0,0,0,0,0],"sum_hessian":[1.6458197E3,8.940074E2,7.518123E2,1.9414848E2,6.9985895E2,4.1754227E2,3.3427008E2,1.4319179E2,5.0956696E1,1.13350555E2,5.8650836E2,1.603832E1,4.0150397E2,1.786672E2,1.5560286E2,6.3078606E1,8.011318E1,3.029624E1,2.0660454E1,6.2204338E1,5.1146214E1,3.4120688E2,2.4530148E2,4.5297382E1,1.3336983E2,1.0228687E2,5.3315983E1,2.93801E1,3.3698505E1,4.5045708E1,1.7158632E1,3.421202E1,1.693419E1,1.5385546E1,3.2582135E2,3.136772E1,2.1393378E2,1.0729057E2,2.6079256E1,1.5194178E1,8.70927E1,3.587362E1,1.7442366E1,1.6470938E1,1.7227568E1,1.719639E1,2.7849316E1,8.59616E1,1.2797217E2,2.878666E1,7.8503914E1,1.9957205E1,1.5916413E1],"tree_param":{"num_deleted":"0","num_feature":"116","num_nodes":"53","size_leaf_vector":"1"}},{"base_weights":[-7.979088E-3,-5.17162E-1,6.734283E-1,5.140125E-2,-8.5762495E-1,8.973098E-1,-2.8431172E-2,3.3793005E-1,-6.2930346E-1,-1.0355123E0,-2.1964505E-1,9.8658854E-1,-0E0,-3.9201063E-1,4.764164E-1,-7.3353805E-2,1.38669945E-2,-0E0,-1.1324441E-2,-1.0653832E0,-0E0,-1.2188334E-2,2.353069E-1,1.6727787E-1,1.5701743E-2,-4.504503E-3,2.2973561E-1,-1.2911089E-2,4.3237705E-2,-0E0,1.1468777E-2,-2.9765967E-1,7.663692E-3,-0E0,-1.0970352E0,6.0830444E-1,-2.1412773E-3,5.610789E-1,-6.0481345E-3,-0E0,5.501095E-3,3.9703036E-3,-0E0,-0E0,-8.417968E-3,-1.5821058E-2,-2.4745015E-3,-0E0,1.1884852E-2,9.882814E-3,-0E0],"categories":[],"categories_nodes":[],"categories_segments":[],"categories_sizes":[],"default_left":[0,0,0,0,0,0,0,0,0,0,0,0,0,0,0,0,0,0,0,0,0,0,0,0,0,0,0,0,0,0,0,0,0,0,0,0,0,0,0,0,0,0,0,0,0,0,0,0,0,0,0],"id":21,"left_children":[1,3,5,7,9,11,13,15,17,19,21,23,25,27,29,31,-1,-1,-1,33,-1,-1,35,37,-1,-1,39,-1,41,-1,-1,43,-1,-1,45,47,-1,49,-1,-1,-1,-1,-1,-1,-1,-1,-1,-1,-1,-1,-1],"loss_changes":[5.68085E2,1.9077132E2,1.17076385E2,6.563657E1,5.6357178E1,3.9916443E1,2.9223259E1,7.7588165E1,9.823166E0,1.1671326E1,4.981058E1,4.323523E1,3.9420264E0,3.2626217E1,1.2602213E1,1.925812E1,0E0,0E0,0E0,1.0231171E1,0E0,0E0,1.5984943E1,2.1509575E1,0E0,0E0,7.315078E-1,0E0,2.7839987E0,0E0,0E0,1.5813282E1,0E0,0E0,2.4152222E0,7.9607506E0,0E0,2.9921513E0,0E0,0E0,0E0,0E0,0E0,0E0,0E0,0E0,0E0,0E0,0E0,0E0,0E0],"parents":[2147483647,0,0,1,1,2,2,3,3,4,4,5,5,6,6,7,7,8,8,9,9,10,10,11,11,12,12,13,13,14,14,15,15,19,19,22,22,23,23,26,26,28,28,31,31,34,34,35,35,37,37],"right_children":[2,4,6,8,10,12,14,16,18,20,22,24,26,28,30,32,-1,-1,-1,34,-1,-1,36,38,-1,-1,40,-1,42,-1,-1,44,-1,-1,46,48,-1,50,-1,-1,-1,-1,-1,-1,-1,-1,-1,-1,-1,-1,-1],"split_conditions":[-4.42E0,5E0,5E0,5E0,3E0,1E0,4E0,6E0,5E0,2E0,6E0,5E0,5E0,6E0,6E0,1E0,1.38669945E-2,-0E0,-1.1324441E-2,8.0833336E1,-0E0,-1.2188334E-2,3E0,3E0,1.5701743E-2,-4.504503E-3,1E0,-1.2911089E-2,3E0,-0E0,1.1468777E-2,3E0,7.663692E-3,-0E0,3E0,2.99E0,-2.1412773E-3,7.9833336E1,-6.0481345E-3,-0E0,5.501095E-3,3.9703036E-3,-0E0,-0E0,-8.417968E-3,-1.5821058E-2,-2.4745015E-3,-0E0,1.1884852E-2,9.882814E-3,-0E0],"split_indices":[92,99,99,55,49,56,49,98,114,50,98,98,98,98,98,97,0,0,0,0,0,0,55,99,0,0,97,0,55,0,0,99,0,0,25,91,0,1,0,0,0,0,0,0,0,0,0,0,0,0,0],"split_type":[0,0,0,0,0,0,0,0,0,0,0,0,0,0,0,0,0,0,0,0,0,0,0,0,0,0,0,0,0,0,0,0,0,0,0,0,0,0,0,0,0,0,0,0,0,0,0,0,0,0,0],"sum_hessian":[1.6360781E3,9.44377E2,6.917012E2,3.445463E2,5.9983075E2,5.3368054E2,1.5802063E2,2.5282408E2,9.17222E1,4.5660434E2,1.432264E2,4.8201178E2,5.1668743E1,1.0267978E2,5.5340847E1,1.484112E2,1.0441288E2,2.2857323E1,6.8864876E1,4.4149463E2,1.51097145E1,6.591221E1,7.7314186E1,8.057597E1,4.014358E2,1.5428291E1,3.6240456E1,5.413386E1,4.8545918E1,1.9932936E1,3.5407913E1,1.2088022E2,2.7530981E1,1.6758825E1,4.2473578E2,5.0632717E1,2.6681473E1,5.7930252E1,2.2645718E1,2.1019821E1,1.5220633E1,3.283998E1,1.5705934E1,5.0157215E1,7.0723E1,3.9783603E2,2.689975E1,1.5209928E1,3.5422787E1,4.1244904E1,1.668535E1],"tree_param":{"num_deleted":"0","num_feature":"116","num_nodes":"51","size_leaf_vector":"1"}},{"base_weights":[-1.3361677E-3,5.6863636E-1,-6.751996E-1,7.254891E-1,-6.4901334E-1,-9.456421E-1,-0E0,-1.1526669E-1,9.473777E-1,-1.3845533E-2,-0E0,-1.610664E-2,-5.7361865E-1,-7.312122E-1,5.42319E-1,3.1398916E-1,-8.32514E-1,-0E0,9.979746E-1,-0E0,-8.58805E-1,-1.18086515E-2,-0E0,8.232808E-1,-0E0,-7.8773877E-4,5.8410174E-1,-1.4043869E-2,-0E0,1.0283346E0,-0E0,-4.0992755E-1,3.587519E-3,-2.2409502E-1,-1.48161985E-2,1.4181609E-2,-0E0,-1.7992149E-3,1.1523577E-3,1.2074912E-2,-0E0,1.6726948E-2,1.0502511E-2,-7.560564E-3,-0E0,-0E0,-7.4711516E-3],"categories":[],"categories_nodes":[],"categories_segments":[],"categories_sizes":[],"default_left":[0,0,0,0,0,0,0,0,0,0,0,0,0,0,0,0,0,0,0,0,0,0,0,0,0,0,0,0,0,0,0,0,0,0,0,0,0,0,0,0,0,0,0,0,0,0,0],"id":22,"left_children":[1,3,5,7,9,11,13,15,17,-1,-1,-1,19,21,23,25,27,-1,29,31,33,-1,-1,35,37,-1,39,-1,-1,41,-1,43,-1,45,-1,-1,-1,-1,-1,-1,-1,-1,-1,-1,-1,-1,-1],"loss_changes":[6.2823804E2,1.695394E2,1.3700293E2,1.543422E2,2.9094082E1,2.45318E1,8.844679E1,5.3987072E1,3.4244385E1,0E0,0E0,0E0,2.8237167E1,4.59898E0,2.0142448E1,1.4162921E1,5.6404114E0,0E0,1.7334167E1,1.032206E1,5.045532E0,0E0,0E0,1.1961956E1,5.514653E-1,0E0,8.965481E0,0E0,0E0,7.3588257E0,0E0,3.885212E-1,0E0,2.8978455E0,0E0,0E0,0E0,0E0,0E0,0E0,0E0,0E0,0E0,0E0,0E0,0E0,0E0],"parents":[2147483647,0,0,1,1,2,2,3,3,4,4,5,5,6,6,7,7,8,8,12,12,13,13,14,14,15,15,16,16,18,18,19,19,20,20,23,23,24,24,26,26,29,29,31,31,33,33],"right_children":[2,4,6,8,10,12,14,16,18,-1,-1,-1,20,22,24,26,28,-1,30,32,34,-1,-1,36,38,-1,40,-1,-1,42,-1,44,-1,46,-1,-1,-1,-1,-1,-1,-1,-1,-1,-1,-1,-1,-1],"split_conditions":[5E0,3E0,3E0,5E0,6E0,6E0,6E0,3E0,1.2532991E0,-1.3845533E-2,-0E0,-1.610664E-2,7E0,6E0,8E0,5.089058E-1,8.6059743E-1,-0E0,2E0,3.09E0,2E0,-1.18086515E-2,-0E0,3E0,3.86E0,-7.8773877E-4,5E0,-1.4043869E-2,-0E0,3E0,-0E0,3E0,3.587519E-3,9E0,-1.48161985E-2,1.4181609E-2,-0E0,-1.7992149E-3,1.1523577E-3,1.2074912E-2,-0E0,1.6726948E-2,1.0502511E-2,-7.560564E-3,-0E0,-0E0,-7.4711516E-3],"split_indices":[99,96,49,98,98,98,98,99,91,0,0,0,99,49,99,84,84,0,56,91,55,0,0,55,91,0,114,0,0,99,0,94,0,99,0,0,0,0,0,0,0,0,0,0,0,0,0],"split_type":[0,0,0,0,0,0,0,0,0,0,0,0,0,0,0,0,0,0,0,0,0,0,0,0,0,0,0,0,0,0,0,0,0,0,0,0,0,0,0,0,0,0,0,0,0,0,0],"sum_hessian":[1.6278346E3,8.74814E2,7.5302057E2,7.825525E2,9.226151E1,5.3580084E2,2.172197E2,1.5511313E2,6.274394E2,6.736497E1,2.4896542E1,3.2340817E2,2.1239268E2,9.292509E1,1.242946E2,9.004311E1,6.507002E1,2.7888603E1,5.995508E2,8.082789E1,1.3156479E2,7.49723E1,1.7952787E1,8.214533E1,4.2149265E1,2.465959E1,6.538352E1,4.914973E1,1.5920292E1,5.809089E2,1.8641914E1,4.2680264E1,3.8147625E1,4.4203724E1,8.736107E1,6.443895E1,1.7706387E1,2.0450422E1,2.1698843E1,4.0230152E1,2.515337E1,3.3182745E2,2.490814E2,2.4562244E1,1.811802E1,2.8582758E1,1.5620964E1],"tree_param":{"num_deleted":"0","num_feature":"116","num_nodes":"47","size_leaf_vector":"1"}},{"base_weights":[-3.4294152E-3,5.592913E-1,-6.7927456E-1,-3.042923E-1,8.151803E-1,-1.1188068E0,-1.0228046E-1,1.36275E-1,-9.3818885E-1,9.1748875E-1,-4.8655286E-1,-0E0,-1.1515123E0,4.2432633E-1,-6.054116E-1,4.289376E-1,-9.43325E-3,-1.5199447E-2,-0E0,9.6241724E-1,-0E0,-9.827593E-3,-0E0,-0E0,-1.6382787E-2,7.977083E-1,-4.8482794E-2,-0E0,-1.2407202E-2,-5.8870524E-4,6.875514E-1,1.6469201E-2,6.3471204E-1,-0E0,9.285672E-1,-3.6663483E-3,-0E0,7.1621306E-2,-6.1066216E-3,1.1370233E-2,-0E0,7.5385225E-4,1.3559864E-2,-0E0,1.4679746E-2,4.657232E-3,-0E0],"categories":[],"categories_nodes":[],"categories_segments":[],"categories_sizes":[],"default_left":[0,0,0,0,0,0,0,0,0,0,0,0,0,0,0,0,0,0,0,0,0,0,0,0,0,0,0,0,0,0,0,0,0,0,0,0,0,0,0,0,0,0,0,0,0,0,0],"id":23,"left_children":[1,3,5,7,9,11,13,15,17,19,21,-1,23,25,27,29,-1,-1,-1,31,-1,-1,-1,-1,-1,33,35,37,-1,-1,39,-1,41,-1,43,-1,-1,45,-1,-1,-1,-1,-1,-1,-1,-1,-1],"loss_changes":[6.231558E2,2.0091858E2,1.7891745E2,6.2413124E1,9.722714E1,5.621399E0,9.1452385E1,2.4592798E1,9.486366E0,3.1997253E1,4.3327494E0,0E0,5.126343E-1,3.4647346E1,2.563301E1,1.6964464E1,0E0,0E0,0E0,2.6276855E1,0E0,0E0,0E0,0E0,0E0,9.302208E0,2.2876968E0,4.572847E0,0E0,0E0,2.9001846E0,0E0,4.3977837E1,0E0,3.1074524E-1,0E0,0E0,2.4382641E0,0E0,0E0,0E0,0E0,0E0,0E0,0E0,0E0,0E0],"parents":[2147483647,0,0,1,1,2,2,3,3,4,4,5,5,6,6,7,7,8,8,9,9,10,10,12,12,13,13,14,14,15,15,19,19,25,25,26,26,27,27,30,30,32,32,34,34,37,37],"right_children":[2,4,6,8,10,12,14,16,18,20,22,-1,24,26,28,30,-1,-1,-1,32,-1,-1,-1,-1,-1,34,36,38,-1,-1,40,-1,42,-1,44,-1,-1,46,-1,-1,-1,-1,-1,-1,-1,-1,-1],"split_conditions":[5E0,5E0,6E0,3E0,4E0,5E0,7E0,1E0,8.8E-1,2E0,6.9E-1,-0E0,8.0833336E1,3E0,2E0,4.8E-1,-9.43325E-3,-1.5199447E-2,-0E0,3E0,-0E0,-9.827593E-3,-0E0,-0E0,-1.6382787E-2,1E0,2.87E0,9E0,-1.2407202E-2,-5.8870524E-4,8.15E1,1.6469201E-2,6E0,-0E0,6.0611856E-1,-3.6663483E-3,-0E0,7E0,-6.1066216E-3,1.1370233E-2,-0E0,7.5385225E-4,1.3559864E-2,-0E0,1.4679746E-2,4.657232E-3,-0E0],"split_indices":[99,98,98,99,96,114,99,56,84,56,65,0,0,55,55,84,0,0,0,99,0,0,0,0,0,48,91,99,0,0,1,0,98,0,65,0,0,54,0,0,0,0,0,0,0,0,0],"split_type":[0,0,0,0,0,0,0,0,0,0,0,0,0,0,0,0,0,0,0,0,0,0,0,0,0,0,0,0,0,0,0,0,0,0,0,0,0,0,0,0,0,0,0,0,0,0,0],"sum_hessian":[1.6303484E3,8.825369E2,7.4781146E2,1.9349243E2,6.890445E2,4.1410373E2,3.3370776E2,1.0692366E2,8.656876E1,6.460408E2,4.300373E1,1.9098465E1,3.9500525E2,1.5442311E2,1.7928465E2,8.776968E1,1.9153982E1,7.1385124E1,1.518364E1,6.214328E2,2.4607992E1,2.7808231E1,1.5195498E1,1.5502644E1,3.7950262E2,9.6007866E1,5.8415234E1,6.5400345E1,1.1388431E2,1.9432167E1,6.833751E1,3.5171646E2,2.697163E2,1.5062162E1,8.094571E1,3.2486984E1,2.5928253E1,4.5519833E1,1.9880512E1,5.214899E1,1.618852E1,1.1027239E2,1.5944392E2,1.8317038E1,6.262867E1,2.13985E1,2.4121332E1],"tree_param":{"num_deleted":"0","num_feature":"116","num_nodes":"47","size_leaf_vector":"1"}},{"base_weights":[2.22356E-3,-4.4047672E-1,6.210115E-1,5.714632E-1,-7.507593E-1,7.9206216E-1,-4.204389E-1,-0E0,8.593691E-1,-8.800802E-1,-0E0,8.799031E-1,-1.170145E-1,-0E0,-1.1025829E-2,1.0190569E-1,-7.3244222E-3,-0E0,9.404017E-1,-9.279398E-1,-6.3465126E-2,-2.6956815E-1,4.8465016E-3,9.26249E-1,-0E0,-0E0,-4.780921E-3,-1.8390588E-3,2.2476485E-3,5.249181E-3,-0E0,1.4249318E-2,-0E0,-5.3065455E-1,-1.482861E-2,-3.5692635E-3,-0E0,-0E0,-5.252207E-1,9.900718E-1,6.003911E-3,-1.1186086E-2,-0E0,-1.030359E-2,-0E0,1.0783426E-4,1.5479151E-2,-0E0,5.79643E-3],"categories":[],"categories_nodes":[],"categories_segments":[],"categories_sizes":[],"default_left":[0,0,0,0,0,0,0,0,0,0,0,0,0,0,0,0,0,0,0,0,0,0,0,0,0,0,0,0,0,0,0,0,0,0,0,0,0,0,0,0,0,0,0,0,0,0,0,0,0],"id":24,"left_children":[1,3,5,7,9,11,13,15,17,19,21,23,25,27,-1,29,-1,-1,31,33,35,37,-1,39,-1,-1,-1,-1,-1,-1,-1,-1,-1,41,-1,-1,-1,-1,43,45,47,-1,-1,-1,-1,-1,-1,-1,-1],"loss_changes":[4.4943103E2,2.9928467E2,1.27236145E2,3.9349075E1,6.444577E1,5.523062E1,1.36730995E1,5.7491117E0,8.082756E0,1.4863678E1,1.0772246E1,2.5644562E1,2.3828483E0,1.0242926E0,0E0,4.577621E0,0E0,0E0,3.2129211E0,1.4759277E1,1.3514107E0,9.2779E0,0E0,2.2246124E1,0E0,0E0,0E0,0E0,0E0,0E0,0E0,0E0,0E0,1.9665306E1,0E0,0E0,0E0,0E0,4.6859055E0,4.765274E1,3.599845E0,0E0,0E0,0E0,0E0,0E0,0E0,0E0,0E0],"parents":[2147483647,0,0,1,1,2,2,3,3,4,4,5,5,6,6,7,7,8,8,9,9,10,10,11,11,12,12,13,13,15,15,18,18,19,19,20,20,21,21,23,23,33,33,38,38,39,39,40,40],"right_children":[2,4,6,8,10,12,14,16,18,20,22,24,26,28,-1,30,-1,-1,32,34,36,38,-1,40,-1,-1,-1,-1,-1,-1,-1,-1,-1,42,-1,-1,-1,-1,44,46,48,-1,-1,-1,-1,-1,-1,-1,-1],"split_conditions":[3E0,3E0,7E0,2.58E0,-3.98E0,3E0,2E0,1E0,-2E1,4.2649257E-1,9.5416664E1,1.8E1,5E0,4.55E0,-1.1025829E-2,5E0,-7.3244222E-3,-0E0,1E0,2E0,7.1719235E-1,1E0,4.8465016E-3,1E0,-0E0,-0E0,-4.780921E-3,-1.8390588E-3,2.2476485E-3,5.249181E-3,-0E0,1.4249318E-2,-0E0,6E0,-1.482861E-2,-3.5692635E-3,-0E0,-0E0,1.9592875E-1,5E0,6E0,-1.1186086E-2,-0E0,-1.030359E-2,-0E0,1.0783426E-4,1.5479151E-2,-0E0,5.79643E-3],"split_indices":[49,99,99,91,92,96,55,56,20,69,106,54,54,91,0,55,0,0,96,55,84,55,0,56,0,0,0,0,0,0,0,0,0,98,0,0,0,0,68,98,98,0,0,0,0,0,0,0,0],"split_type":[0,0,0,0,0,0,0,0,0,0,0,0,0,0,0,0,0,0,0,0,0,0,0,0,0,0,0,0,0,0,0,0,0,0,0,0,0,0,0,0,0,0,0,0,0,0,0,0,0],"sum_hessian":[1.62932E3,9.416826E2,6.876374E2,2.1357922E2,7.281034E2,5.986776E2,8.8959724E1,6.733834E1,1.4624088E2,6.1232666E2,1.1577671E2,5.5512585E2,4.3551785E1,4.3874805E1,4.5084915E1,5.1200703E1,1.613764E1,1.5416011E1,1.3082487E2,5.675651E2,4.476154E1,7.7521355E1,3.8255356E1,5.305942E2,2.453171E1,2.0574697E1,2.2977087E1,2.6978832E1,1.6895973E1,3.356832E1,1.7632381E1,1.1339901E2,1.7425858E1,1.6495322E2,4.026119E2,2.086655E1,2.3894989E1,2.5428137E1,5.2093216E1,4.867526E2,4.384155E1,1.0118369E2,6.3769527E1,3.3564568E1,1.852865E1,6.1666733E1,4.2508588E2,2.5672384E1,1.8169163E1],"tree_param":{"num_deleted":"0","num_feature":"116","num_nodes":"49","size_leaf_vector":"1"}},{"base_weights":[3.1234887E-3,5.643261E-1,-6.408182E-1,-2.927444E-1,8.159074E-1,-1.0481788E0,-1.0489332E-1,1.5804248E-1,-1.3400356E-2,9.0619606E-1,-3.3617043E-1,-0E0,-1.0799922E0,4.1042635E-1,-6.1516106E-1,4.3716508E-1,-9.077348E-3,1.7225166E-1,1.0049937E0,-8.4166E-3,-0E0,-1.5610579E-2,-0E0,-1.01407066E-1,7.7867395E-1,-7.926185E-1,-0E0,-0E0,6.544735E-1,-0E0,5.0100857E-1,1.6887892E-2,6.8058425E-1,-3.224821E-1,-0E0,8.934575E-1,-0E0,-1.1938912E-2,-0E0,1.1014295E-2,-0E0,-0E0,-2.6135002E-3,9.468806E-3,-0E0,1.6167968E-3,1.3857828E-2,-6.948354E-3,-0E0,2.0051684E-4,1.4380806E-2],"categories":[],"categories_nodes":[],"categories_segments":[],"categories_sizes":[],"default_left":[0,0,0,0,0,0,0,0,0,0,0,0,0,0,0,0,0,0,0,0,0,0,0,0,0,0,0,0,0,0,0,0,0,0,0,0,0,0,0,0,0,0,0,0,0,0,0,0,0,0,0],"id":25,"left_children":[1,3,5,7,9,11,13,15,-1,17,19,-1,21,23,25,27,-1,29,31,-1,-1,-1,-1,33,35,37,-1,-1,39,41,43,-1,45,47,-1,49,-1,-1,-1,-1,-1,-1,-1,-1,-1,-1,-1,-1,-1,-1,-1],"loss_changes":[5.884612E2,1.9484915E2,1.5331665E2,6.591413E1,7.757678E1,5.9718933E0,9.119994E1,2.3548647E1,0E0,3.5690857E1,5.6823187E0,0E0,1.4863434E1,3.6619625E1,2.6181808E1,1.3995682E1,0E0,8.24988E0,1.7975403E1,0E0,0E0,0E0,0E0,3.83916E0,5.8261337E0,2.4228363E0,0E0,0E0,3.354845E0,1.0454665E0,1.3011255E0,0E0,3.2119827E1,1.867528E0,0E0,9.263077E-1,0E0,0E0,0E0,0E0,0E0,0E0,0E0,0E0,0E0,0E0,0E0,0E0,0E0,0E0,0E0],"parents":[2147483647,0,0,1,1,2,2,3,3,4,4,5,5,6,6,7,7,9,9,10,10,12,12,13,13,14,14,15,15,17,17,18,18,23,23,24,24,25,25,28,28,29,29,30,30,32,32,33,33,35,35],"right_children":[2,4,6,8,10,12,14,16,-1,18,20,-1,22,24,26,28,-1,30,32,-1,-1,-1,-1,34,36,38,-1,-1,40,42,44,-1,46,48,-1,50,-1,-1,-1,-1,-1,-1,-1,-1,-1,-1,-1,-1,-1,-1,-1],"split_conditions":[5E0,5E0,6E0,3E0,4E0,5E0,7E0,1E0,-1.3400356E-2,2.15E0,6E0,-0E0,6E0,2.91E0,4E0,4.5042494E-1,-9.077348E-3,6E0,3E0,-8.4166E-3,-0E0,-1.5610579E-2,-0E0,3E0,4E0,5.25E0,-0E0,-0E0,8.15E1,6E0,4.375E-1,1.6887892E-2,6E0,3E0,-0E0,2E0,-0E0,-1.1938912E-2,-0E0,1.1014295E-2,-0E0,-0E0,-2.6135002E-3,9.468806E-3,-0E0,1.6167968E-3,1.3857828E-2,-6.948354E-3,-0E0,2.0051684E-4,1.4380806E-2],"split_indices":[99,98,98,99,96,114,99,56,0,91,98,0,49,91,49,84,0,98,99,0,0,0,0,49,55,91,0,0,1,54,101,0,98,94,0,49,0,0,0,0,0,0,0,0,0,0,0,0,0,0,0],"split_type":[0,0,0,0,0,0,0,0,0,0,0,0,0,0,0,0,0,0,0,0,0,0,0,0,0,0,0,0,0,0,0,0,0,0,0,0,0,0,0,0,0,0,0,0,0,0,0,0,0,0,0],"sum_hessian":[1.6249635E3,8.759837E2,7.4897974E2,1.904821E2,6.8550165E2,4.1444513E2,3.345346E2,1.0685785E2,8.362426E1,6.4352905E2,4.1972557E1,1.9091562E1,3.9535355E2,1.5783617E2,1.7669844E2,8.8717155E1,1.8140696E1,8.813518E1,5.5539386E2,2.6764082E1,1.5208476E1,3.794029E2,1.5950654E1,5.6517403E1,1.0131877E2,1.4705046E2,2.9647982E1,1.7933283E1,7.078387E1,4.7197624E1,4.0937553E1,3.1782773E2,2.3756618E2,4.010683E1,1.641057E1,8.3616394E1,1.7702377E1,1.2887552E2,1.8174946E1,5.310687E1,1.7677E1,2.0114666E1,2.7082958E1,2.3878998E1,1.7058558E1,9.647248E1,1.4109369E2,2.2757984E1,1.7348846E1,2.0693676E1,6.2922718E1],"tree_param":{"num_deleted":"0","num_feature":"116","num_nodes":"51","size_leaf_vector":"1"}},{"base_weights":[-0E0,-6.192855E-1,4.9468568E-1,-8.4363633E-1,-0E0,1.4636953E-1,9.375931E-1,-8.931725E-1,-0E0,2.514771E-1,-3.4476382E-1,-1.647889E-2,8.3448356E-1,9.8703843E-1,1.3062432E-4,-1.409865E-2,-4.140516E-1,4.9898767E-1,-0E0,-0E0,-9.500021E-3,3.6681688E-1,-5.8610195E-1,-0E0,9.4165343E-1,1.4261426E-2,1.3036035E-3,-0E0,-5.3504235E-1,-0E0,9.109599E-3,-2.1027161E-3,-0E0,-2.652058E-1,5.6790155E-1,-6.5606457E-1,-0E0,-0E0,1.46043515E-2,-9.263121E-3,-0E0,-4.9859723E-3,-0E0,-0E0,9.2891175E-3,-1.0122027E-2,-0E0],"categories":[],"categories_nodes":[],"categories_segments":[],"categories_sizes":[],"default_left":[0,0,0,0,0,0,0,0,0,0,0,0,0,0,0,0,0,0,0,0,0,0,0,0,0,0,0,0,0,0,0,0,0,0,0,0,0,0,0,0,0,0,0,0,0,0,0],"id":26,"left_children":[1,3,5,7,9,11,13,15,-1,17,19,21,23,25,-1,-1,27,29,31,-1,-1,33,35,-1,37,-1,-1,-1,39,-1,-1,-1,-1,41,43,45,-1,-1,-1,-1,-1,-1,-1,-1,-1,-1,-1],"loss_changes":[4.961045E2,1.0116556E2,1.2828094E2,2.8723236E1,1.6838919E1,6.543199E1,8.504242E0,1.4762054E1,0E0,9.962637E0,1.1165817E1,9.211649E1,5.607605E0,9.9468994E-1,0E0,0E0,8.669189E0,3.1924953E0,4.1375598E-1,0E0,0E0,3.3308052E1,8.084415E0,0E0,2.973999E0,0E0,0E0,0E0,6.754797E0,0E0,0E0,0E0,0E0,8.263335E-1,1.286422E1,7.2182693E0,0E0,0E0,0E0,0E0,0E0,0E0,0E0,0E0,0E0,0E0,0E0],"parents":[2147483647,0,0,1,1,2,2,3,3,4,4,5,5,6,6,7,7,9,9,10,10,11,11,12,12,13,13,16,16,17,17,18,18,21,21,22,22,24,24,28,28,33,33,34,34,35,35],"right_children":[2,4,6,8,10,12,14,16,-1,18,20,22,24,26,-1,-1,28,30,32,-1,-1,34,36,-1,38,-1,-1,-1,40,-1,-1,-1,-1,42,44,46,-1,-1,-1,-1,-1,-1,-1,-1,-1,-1,-1],"split_conditions":[-5.31E0,3E0,4E0,2E0,3E0,1E0,1E0,1.2E1,-0E0,6E0,6E0,6E0,-4.61E0,5E0,1.3062432E-4,-1.409865E-2,5E0,0E0,4E0,-0E0,-9.500021E-3,5E0,1.05625E2,-0E0,7.0210526E1,1.4261426E-2,1.3036035E-3,-0E0,2.5E1,-0E0,9.109599E-3,-2.1027161E-3,-0E0,8.8E-1,-6.6E-1,4.6E-1,-0E0,-0E0,1.46043515E-2,-9.263121E-3,-0E0,-4.9859723E-3,-0E0,-0E0,9.2891175E-3,-1.0122027E-2,-0E0],"split_indices":[92,49,49,50,55,50,56,48,0,114,114,114,92,55,0,0,114,38,48,0,0,48,106,0,106,0,0,0,20,0,0,0,0,65,69,68,0,0,0,0,0,0,0,0,0,0,0],"split_type":[0,0,0,0,0,0,0,0,0,0,0,0,0,0,0,0,0,0,0,0,0,0,0,0,0,0,0,0,0,0,0,0,0,0,0,0,0,0,0,0,0,0,0,0,0,0,0],"sum_hessian":[1.6131744E3,7.180512E2,8.951232E2,5.2783923E2,1.9021196E2,5.14543E2,3.8058026E2,5.0663184E2,2.1207392E1,1.124535E2,7.775846E1,4.0749023E2,1.07052765E2,3.5187146E2,2.8708803E1,3.8879343E2,1.178384E2,6.658869E1,4.5864807E1,3.5794453E1,4.196401E1,2.3460811E2,1.7288213E2,1.7228163E1,8.98246E1,3.280923E2,2.3779154E1,1.8053045E1,9.9785355E1,2.1395784E1,4.519291E1,1.5523784E1,3.0341022E1,4.5506996E1,1.8910112E2,1.56221E2,1.666113E1,1.5055705E1,7.476889E1,7.905801E1,2.0727354E1,3.028144E1,1.5225556E1,2.3504246E1,1.6559688E2,1.4074213E2,1.5478879E1],"tree_param":{"num_deleted":"0","num_feature":"116","num_nodes":"47","size_leaf_vector":"1"}},{"base_weights":[-9.100133E-4,-4.65174E-1,6.188221E-1,-8.257974E-1,3.3908237E-2,1.0086156E0,2.0591538E-1,-9.695346E-1,-2.6808783E-1,-3.2145303E-1,7.095987E-1,3.0097368E-1,1.6027292E-2,-3.4274712E-1,7.4386823E-1,-4.635192E-1,-1.0809358E0,-6.7027736E-1,-0E0,-5.640969E-1,1.4015615E-1,9.003379E-1,-0E0,-0E0,5.631728E-1,-1.1956997E-2,-2.3142178E-2,8.303796E-1,-0E0,-0E0,-1.0846325E-2,-1.0009757E-3,-1.6140569E-2,-0E0,-1.3588351E-2,3.4374598E-1,-6.932078E-3,-0E0,-1.1983825E-2,4.7742504E-1,-4.973415E-3,1.5203954E-2,-0E0,1.0413524E-2,-0E0,1.4687599E-1,-3.9548755E-1,1.3501487E-2,-0E0,-0E0,8.035856E-3,3.5067142E-3,-1.9714609E-3,-0E0,8.24771E-3,-0E0,4.409696E-3,-8.604428E-3,-0E0],"categories":[],"categories_nodes":[],"categories_segments":[],"categories_sizes":[],"default_left":[0,0,0,0,0,0,0,0,0,0,0,0,0,0,0,0,0,0,0,0,0,0,0,0,0,0,0,0,0,0,0,0,0,0,0,0,0,0,0,0,0,0,0,0,0,0,0,0,0,0,0,0,0,0,0,0,0,0,0],"id":27,"left_children":[1,3,5,7,9,11,13,15,17,19,21,23,-1,25,27,29,31,33,35,37,39,41,-1,-1,43,-1,45,47,-1,-1,-1,-1,-1,-1,-1,49,-1,51,-1,53,-1,-1,-1,-1,-1,55,57,-1,-1,-1,-1,-1,-1,-1,-1,-1,-1,-1,-1],"loss_changes":[4.6620264E2,1.7601205E2,9.908194E1,3.2540222E1,9.663996E1,2.0005524E1,1.0721879E2,8.706329E0,1.6904783E1,3.156092E1,1.8794724E1,6.180929E0,0E0,1.9265562E1,1.3521233E1,1.9245352E1,1.4470795E1,9.179857E0,1.2543787E1,3.475097E1,1.3918903E1,1.0873528E1,0E0,0E0,4.3650532E-1,0E0,9.764139E0,1.845922E1,0E0,0E0,0E0,0E0,0E0,0E0,0E0,5.437167E0,0E0,2.7763371E0,0E0,8.623228E-1,0E0,0E0,0E0,0E0,0E0,2.4688158E0,6.1521015E0,0E0,0E0,0E0,0E0,0E0,0E0,0E0,0E0,0E0,0E0,0E0,0E0],"parents":[2147483647,0,0,1,1,2,2,3,3,4,4,5,5,6,6,7,7,8,8,9,9,10,10,11,11,13,13,14,14,15,15,16,16,17,17,18,18,19,19,20,20,21,21,24,24,26,26,27,27,35,35,37,37,39,39,45,45,46,46],"right_children":[2,4,6,8,10,12,14,16,18,20,22,24,-1,26,28,30,32,34,36,38,40,42,-1,-1,44,-1,46,48,-1,-1,-1,-1,-1,-1,-1,50,-1,52,-1,54,-1,-1,-1,-1,-1,56,58,-1,-1,-1,-1,-1,-1,-1,-1,-1,-1,-1,-1],"split_conditions":[-4.42E0,6E0,3E0,-9.226006E-1,3E0,5E0,6E0,1E0,5E0,-5.74E0,4E0,6.7304015E-1,1.6027292E-2,5E0,7E0,5E0,3E0,3E0,6E0,6E0,8E0,7E0,-0E0,-0E0,5E0,-1.1956997E-2,6E0,7E0,-0E0,-0E0,-1.0846325E-2,-1.0009757E-3,-1.6140569E-2,-0E0,-1.3588351E-2,1.4E1,-6.932078E-3,5E0,-1.1983825E-2,6E0,-4.973415E-3,1.5203954E-2,-0E0,1.0413524E-2,-0E0,3E0,4E0,1.3501487E-2,-0E0,-0E0,8.035856E-3,3.5067142E-3,-1.9714609E-3,-0E0,8.24771E-3,-0E0,4.409696E-3,-8.604428E-3,-0E0],"split_indices":[92,98,99,85,49,98,98,55,98,92,55,84,0,98,94,99,99,99,99,114,99,99,0,0,114,0,114,99,0,0,0,0,0,0,0,86,0,55,0,48,0,0,0,0,0,49,49,0,0,0,0,0,0,0,0,0,0,0,0],"split_type":[0,0,0,0,0,0,0,0,0,0,0,0,0,0,0,0,0,0,0,0,0,0,0,0,0,0,0,0,0,0,0,0,0,0,0,0,0,0,0,0,0,0,0,0,0,0,0,0,0,0,0,0,0,0,0,0,0,0,0],"sum_hessian":[1.6198693E3,9.348646E2,6.8500464E2,5.5227954E2,3.8258508E2,3.3906064E2,3.4594397E2,4.2458267E2,1.2769689E2,2.428189E2,1.3976619E2,6.846443E1,2.705962E2,1.6337701E2,1.8256697E2,9.381451E1,3.3076816E2,5.5818974E1,7.1877914E1,1.7168234E2,7.113655E1,1.0899693E2,3.0769257E1,3.13238E1,3.714063E1,4.9953594E1,1.1342342E2,1.6559143E2,1.697554E1,3.0444788E1,6.336972E1,3.215723E1,2.9861093E2,2.116663E1,3.4652344E1,4.8039677E1,2.3838238E1,5.2249012E1,1.1943333E2,5.3338375E1,1.7798178E1,8.257119E1,2.6425737E1,2.0743101E1,1.6397528E1,6.2208576E1,5.1214844E1,1.4069727E2,2.4894154E1,1.6309542E1,3.1730135E1,3.4883156E1,1.7365854E1,1.7071402E1,3.6266975E1,2.6212175E1,3.5996403E1,3.5605614E1,1.5609233E1],"tree_param":{"num_deleted":"0","num_feature":"116","num_nodes":"59","size_leaf_vector":"1"}},{"base_weights":[-0E0,5.3082955E-1,-6.3688695E-1,-3.067562E-1,7.764022E-1,-1.0370537E0,-1.1864425E-1,1.230957E-1,-1.2848183E-2,8.85873E-1,-1.9863987E-1,-1.0735407E0,-0E0,-5.398541E-1,5.150029E-1,3.9623812E-1,-6.7567197E-3,6.0705024E-1,1.1075548E0,-7.7783433E-3,-0E0,-0E0,-1.53369475E-2,-0E0,-7.4512976E-1,7.8548574E-1,-0E0,7.4358373E-3,-0E0,8.888944E-1,8.012521E-2,1.5887676E-2,-0E0,-4.303472E-3,4.713606E-2,-2.0224482E-1,-1.3395195E-2,1.4005433E-2,-0E0,-0E0,1.3065095E-2,-0E0,7.045845E-3,4.103041E-3,-0E0,-5.6241434E-3,-0E0],"categories":[],"categories_nodes":[],"categories_segments":[],"categories_sizes":[],"default_left":[0,0,0,0,0,0,0,0,0,0,0,0,0,0,0,0,0,0,0,0,0,0,0,0,0,0,0,0,0,0,0,0,0,0,0,0,0,0,0,0,0,0,0,0,0,0,0],"id":28,"left_children":[1,3,5,7,9,11,13,15,-1,17,19,21,-1,23,25,27,-1,29,31,-1,-1,-1,-1,33,35,37,-1,-1,-1,39,41,-1,-1,-1,43,45,-1,-1,-1,-1,-1,-1,-1,-1,-1,-1,-1],"loss_changes":[5.502692E2,1.8649089E2,1.4331482E2,5.8752285E1,8.056146E1,1.0273743E1,9.0852684E1,1.7574518E1,0E0,2.1612305E1,9.408253E0,3.096527E0,0E0,1.8235691E1,2.3550655E1,6.1018553E0,0E0,3.606846E1,3.4756775E0,0E0,0E0,0E0,0E0,2.9210796E0,5.802002E0,1.1014378E1,0E0,0E0,0E0,2.30896E0,5.984372E0,0E0,0E0,0E0,1.8154874E0,3.3822534E0,0E0,0E0,0E0,0E0,0E0,0E0,0E0,0E0,0E0,0E0,0E0],"parents":[2147483647,0,0,1,1,2,2,3,3,4,4,5,5,6,6,7,7,9,9,10,10,11,11,13,13,14,14,15,15,17,17,18,18,23,23,24,24,25,25,29,29,30,30,34,34,35,35],"right_children":[2,4,6,8,10,12,14,16,-1,18,20,22,-1,24,26,28,-1,30,32,-1,-1,-1,-1,34,36,38,-1,-1,-1,40,42,-1,-1,-1,44,46,-1,-1,-1,-1,-1,-1,-1,-1,-1,-1,-1],"split_conditions":[5E0,5E0,6E0,3E0,3E0,6E0,3E0,1E0,-1.2848183E-2,6E0,6E0,8.0833336E1,-0E0,2E0,3E0,2.6E1,-6.7567197E-3,3E0,5.625E-1,-7.7783433E-3,-0E0,-0E0,-1.53369475E-2,-9.520147E-2,7E0,8E0,-0E0,7.4358373E-3,-0E0,-5.96E0,1.01666664E2,1.5887676E-2,-0E0,-4.303472E-3,7E0,-6.06E0,-1.3395195E-2,1.4005433E-2,-0E0,-0E0,1.3065095E-2,-0E0,7.045845E-3,4.103041E-3,-0E0,-5.6241434E-3,-0E0],"split_indices":[99,98,98,99,96,49,49,96,0,98,98,0,0,55,55,87,0,99,101,0,0,0,0,42,99,99,0,0,0,92,3,0,0,0,99,92,0,0,0,0,0,0,0,0,0,0,0],"split_type":[0,0,0,0,0,0,0,0,0,0,0,0,0,0,0,0,0,0,0,0,0,0,0,0,0,0,0,0,0,0,0,0,0,0,0,0,0,0,0,0,0,0,0,0,0,0,0],"sum_hessian":[1.6208148E3,8.8016144E2,7.4065344E2,1.9100395E2,6.891575E2,4.0653326E2,3.3412018E2,1.0496665E2,8.603729E1,6.281973E2,6.0960133E1,3.8810526E2,1.8428005E1,2.0956128E2,1.2455891E2,8.338196E1,2.1584696E1,3.0081476E2,3.273826E2,3.5620518E1,2.5339615E1,1.6139135E1,3.7196613E2,6.797989E1,1.4158139E2,9.019758E1,3.4361324E1,6.626522E1,1.7116741E1,1.8355063E2,1.17264114E2,3.1170862E2,1.56739855E1,2.6971508E1,4.1008385E1,5.371931E1,8.786208E1,6.501222E1,2.5185354E1,1.6077513E1,1.6747311E2,9.348604E1,2.3778084E1,1.9415089E1,2.1593296E1,3.2286335E1,2.1432976E1],"tree_param":{"num_deleted":"0","num_feature":"116","num_nodes":"47","size_leaf_vector":"1"}},{"base_weights":[-0E0,-4.3911493E-1,5.983743E-1,-6.97431E-1,3.3606353E-1,-2.4198797E-1,7.703456E-1,-1.5810895E-1,-9.494085E-1,7.730595E-1,-2.6245615E-2,3.4663397E-1,-1.2220055E-2,9.3811435E-1,-2.0834564E-1,9.8693445E-2,-1.1295625E-2,-9.820009E-1,-0E0,-0E0,1.2056033E-2,-2.0950764E-1,4.684061E-3,6.4254776E-3,-0E0,1.0164915E0,-0E0,-0E0,-6.5481993E-3,-1.0320961E-2,6.5460026E-1,-0E0,-1.0068033E0,-5.4803574E-1,2.709937E-2,-0E0,1.4499221E-2,-1.4151327E-3,-0E0,4.175807E-3,-3.331622E-3,1.3539638E-2,-0E0,-1.4588451E-2,-1.9068166E-3,-1.0719335E-2,-0E0,-0E0,2.766302E-3],"categories":[],"categories_nodes":[],"categories_segments":[],"categories_sizes":[],"default_left":[0,0,0,0,0,0,0,0,0,0,0,0,0,0,0,0,0,0,0,0,0,0,0,0,0,0,0,0,0,0,0,0,0,0,0,0,0,0,0,0,0,0,0,0,0,0,0,0,0],"id":29,"left_children":[1,3,5,7,9,11,13,15,17,19,21,23,-1,25,27,29,-1,31,-1,-1,-1,33,-1,-1,-1,35,37,-1,-1,39,41,-1,43,45,47,-1,-1,-1,-1,-1,-1,-1,-1,-1,-1,-1,-1,-1,-1],"loss_changes":[4.243208E2,1.9198555E2,1.03467514E2,8.6580505E1,4.2905174E1,4.6133137E1,1.0132074E2,4.7229687E1,1.4709808E1,5.6425323E0,6.7192597E0,1.2108164E0,0E0,3.9011963E1,6.048442E0,1.5940609E1,0E0,5.831848E0,0E0,0E0,0E0,1.2397976E1,0E0,0E0,0E0,5.256531E0,1.9006559E-1,0E0,0E0,8.694591E0,3.5832424E0,0E0,4.1349792E0,2.3530273E0,9.071634E-1,0E0,0E0,0E0,0E0,0E0,0E0,0E0,0E0,0E0,0E0,0E0,0E0,0E0,0E0],"parents":[2147483647,0,0,1,1,2,2,3,3,4,4,5,5,6,6,7,7,8,8,9,9,10,10,11,11,13,13,14,14,15,15,17,17,21,21,25,25,26,26,29,29,30,30,32,32,33,33,34,34],"right_children":[2,4,6,8,10,12,14,16,18,20,22,24,-1,26,28,30,-1,32,-1,-1,-1,34,-1,-1,-1,36,38,-1,-1,40,42,-1,44,46,48,-1,-1,-1,-1,-1,-1,-1,-1,-1,-1,-1,-1,-1,-1],